{"embedding.weight": [[0.06403815001249313, 0.07723342627286911, 0.13053549826145172, -0.0683046504855156, 0.027670351788401604, -0.05033200979232788, -0.0625055804848671, 0.023768166080117226, -0.002672474831342697, -0.003982613794505596, -0.02151053212583065, 0.14599312841892242, 0.06641877442598343, 0.09932772815227509, -0.0004200909461360425, 0.01274050585925579, -0.08028583973646164, -0.015977585688233376, -0.026854757219552994, 0.001462928717955947, 0.027894696220755577, 0.010976647026836872, 0.09155101329088211, -0.09883840382099152, -0.11585159599781036, -0.11975287646055222, 6.721524528074951e-07, -0.0012585794320330024, 0.07464023679494858, -0.0487067811191082, 0.057926736772060394, -0.1554621011018753, 0.11756132543087006], [-0.00608608964830637, 0.06583716720342636, -0.12616904079914093, -0.011831352487206459, -0.03231332078576088, -0.062118515372276306, -0.011350098997354507, 0.12925420701503754, 0.004281867761164904, 0.07899253815412521, 0.0009594049770385027, -0.12689641118049622, 0.1379532516002655, -0.07846995443105698, 0.10024882853031158, -0.11855019629001617, 0.06010434404015541, 0.0065083629451692104, -0.07732852548360825, -0.026865316554903984, -0.04623161628842354, -0.10156924277544022, -0.04888267070055008, 0.14124110341072083, 0.10710432380437851, 0.07867835462093353, 0.07280571013689041, -0.10584603995084763, 0.003756824182346463, 0.19211408495903015, 0.06891944259405136, 0.09942510724067688, 0.16226309537887573], [-0.07714830338954926, -0.019280342385172844, 0.0008993675000965595, -0.10014735907316208, 0.07094980776309967, 0.04357416182756424, 0.13233059644699097, -0.06079038605093956, 0.002456002403050661, -0.10718345642089844, 0.1371317058801651, 0.10135850310325623, 0.11236795037984848, -0.04205118119716644, -0.08413051813840866, -0.031078726053237915, -0.03430698439478874, -0.0024577355943620205, -0.0898207277059555, 0.09893450886011124, -0.11585463583469391, 0.14019054174423218, 0.07003926485776901, -0.13075293600559235, -0.13886010646820068, 0.00028749063494615257, 0.002145488513633609, -0.0344182550907135, -0.11270440369844437, 0.08691814541816711, -0.04528114199638367, 0.17918865382671356, -0.10384366661310196], [0.14065250754356384, -0.019435880705714226, -0.13881441950798035, -0.03728461638092995, 0.16193628311157227, 0.03081861138343811, -0.02695315331220627, -0.07026149332523346, -0.12170130014419556, 0.0012776849325746298, -0.12793676555156708, 0.14184637367725372, 0.05902651324868202, 0.1373133361339569, 0.016441769897937775, 0.06807629019021988, 0.04781557247042656, -0.08800869435071945, 0.10018283873796463, 0.01684149168431759, 0.1640719622373581, 0.031891174614429474, 0.019989600405097008, -0.13205744326114655, -0.07037600129842758, 0.1457551270723343, 0.13727310299873352, -0.0014141664141789079, 0.13249270617961884, 0.15762002766132355, -0.05056256428360939, -0.1728709489107132, -0.11128340661525726], [0.01134156808257103, 0.06934339553117752, -0.06285973638296127, 0.11210494488477707, 0.09570825099945068, 0.003704431466758251, -0.023744182661175728, 0.12092670798301697, 0.13137945532798767, 0.13611900806427002, 0.013380120508372784, -0.13723362982273102, 0.12888479232788086, 0.10452504456043243, 0.07815542072057724, 0.053524669259786606, 0.041594911366701126, -0.0005111927748657763, -0.13312803208827972, -0.01737865060567856, 0.08583546429872513, 0.056250836700201035, 0.0040978798642754555, 0.10153092443943024, -0.0759626254439354, 0.045702483505010605, 0.07616730034351349, -0.10346168279647827, 0.00035263400059193373, -0.07208555936813354, -0.1261112093925476, 0.1236627995967865, 0.1172623485326767], [0.009554888121783733, -0.03234241530299187, 0.112275131046772, 0.14839260280132294, 0.02881322056055069, 0.02823767438530922, 0.13670307397842407, 0.0006807583849877119, -0.008977578021585941, -1.6003268683562055e-05, 0.04230130836367607, -0.13733889162540436, -0.06076763942837715, -0.021714333444833755, -0.10555924475193024, -0.1338430643081665, 0.014486892148852348, 0.015430238097906113, 0.15824472904205322, 0.09690237045288086, 0.1526523381471634, -0.10549098998308182, -0.011786648072302341, -0.052916914224624634, 0.10451288521289825, -0.012014857493340969, 0.01758381724357605, 0.10079562664031982, 0.12912914156913757, -0.10629811137914658, -0.05077331140637398, 0.1423300951719284, 0.07389478385448456], [0.1656057983636856, -0.03129155933856964, -0.12261570990085602, 0.10423498600721359, 0.17414774000644684, 0.10402659326791763, -0.1484612077474594, -0.056199442595243454, 0.10764951258897781, 0.054076358675956726, 0.06825458258390427, 0.0005739041371271014, -0.12793371081352234, -0.10843969136476517, -0.024119766429066658, 0.0022723679430782795, 0.12181799113750458, 0.017941702157258987, -0.11577953398227692, -0.14029555022716522, -0.1596362590789795, -0.0002341578947380185, 5.5225791584234685e-05, -0.0621054470539093, -0.04323307052254677, 0.1152755543589592, -0.110396608710289, 0.0020955547224730253, -0.09825708717107773, -0.1053408533334732, 0.04049373418092728, 0.07922659069299698, 0.022213749587535858], [0.11833648383617401, 0.11856558918952942, 0.10293082892894745, -0.15182623267173767, -0.0474993996322155, 0.06440063565969467, -0.08382304757833481, 0.009177526459097862, -0.12474796175956726, -0.1265411525964737, 0.0004316301492508501, -0.03912144526839256, 0.10395386070013046, -0.0018799742683768272, -0.08827444165945053, -0.1360282003879547, -0.033464059233665466, 0.14518271386623383, 0.09039905667304993, -0.13504968583583832, -0.0040094912983477116, 0.08236866444349289, 0.11611127108335495, 0.15551333129405975, -0.13224567472934723, -0.0314488559961319, -0.006237019319087267, 0.03941645100712776, -0.013786221854388714, -0.0681127980351448, 0.11489743739366531, 0.18556033074855804, -0.04404164478182793], [-0.16820010542869568, -0.02417181432247162, 0.14146865904331207, -0.04931328445672989, 0.08479587733745575, -0.13944974541664124, 0.07567359507083893, 0.005244853440672159, 0.07482608407735825, -0.0002969794732052833, -0.03973991051316261, 0.09621435403823853, -4.486387479119003e-05, -0.05053339898586273, -0.0008342809742316604, -0.0004904776578769088, 0.05761804059147835, 0.0017896878998726606, 0.14023450016975403, -0.12571404874324799, 0.10574661195278168, 0.01801985129714012, -0.030714286491274834, -0.08207482844591141, 0.09999657422304153, 0.07527178525924683, 0.07238712906837463, 0.002461056923493743, 0.1166374683380127, 0.061419274657964706, -0.045402947813272476, 0.13257353007793427, 0.04145417362451553], [-0.10462043434381485, 0.06437244266271591, 0.050047244876623154, -0.15267860889434814, 0.0016721707070246339, -0.04137779027223587, 0.037148136645555496, -0.14393940567970276, -0.05904686450958252, 0.07659724354743958, -9.110207611229271e-05, -0.13006599247455597, -0.10534017533063889, 0.14586864411830902, -0.08367721736431122, -0.13409367203712463, -0.03237518295645714, -0.13278427720069885, 0.13981924951076508, 0.06355343014001846, -0.1179610937833786, 0.026451433077454567, -0.04203207418322563, -0.03707103803753853, 0.11938606947660446, -0.03412356972694397, -0.10993008315563202, -0.08559398353099823, 0.03360379859805107, -0.016574885696172714, -0.07213897258043289, -0.1280052363872528, 0.10683133453130722], [0.11426355689764023, -0.10551758110523224, -0.11176784336566925, -0.017981529235839844, -0.10787550359964371, 0.11679621040821075, -0.10801263898611069, -0.056905586272478104, -0.06594664603471756, 0.00013529002899304032, -0.12845303118228912, -0.13634982705116272, -0.06434396654367447, -0.09399913251399994, 0.05805408954620361, -0.09833243489265442, 0.012096598744392395, 0.11997999250888824, -0.03873133286833763, 0.021931102499365807, -0.06864245980978012, -0.13880300521850586, -0.13283678889274597, 0.10028928518295288, -0.13786083459854126, 0.00391958374530077, -0.009090480394661427, 0.028760038316249847, 0.1035364493727684, 0.06067662686109543, 0.10094582289457321, -0.15077929198741913, 0.07647593319416046], [0.013235754333436489, 0.00014969342737458646, -0.010742977261543274, -0.005172680132091045, 0.11646953225135803, -0.1413070112466812, -0.10525377094745636, -0.12532547116279602, 0.04301804304122925, -0.0009019948192872107, 0.007929086685180664, 0.074331134557724, 0.05331140384078026, 0.087016262114048, -0.12437558174133301, 0.0800383985042572, -0.09179452061653137, -0.0676007941365242, -0.13433457911014557, 0.044479940086603165, -0.09917628020048141, 0.0005753393052145839, 0.0022374140098690987, 0.1157527044415474, 0.14616850018501282, 0.05938822776079178, 0.044272251427173615, -0.03919355943799019, -0.13736392557621002, -0.0869351476430893, -0.09673039615154266, 0.08137387782335281, 0.011486878618597984], [0.10403662919998169, 0.00046454917173832655, 0.03539988771080971, -0.012933074496686459, 1.792006878531538e-05, 0.07915249466896057, 0.0014321212656795979, 0.06520959734916687, -0.11415684223175049, 0.110230453312397, 0.0022187945432960987, 0.11300281435251236, -0.13521802425384521, 0.0021420675329864025, 0.13808847963809967, -0.08283300697803497, -0.0077830213122069836, 0.08194749057292938, 0.07301269471645355, 0.0678783506155014, 0.009339746087789536, -0.12569336593151093, -0.11584775894880295, 0.040104325860738754, 0.10979976505041122, 5.790209979750216e-05, 0.09223728626966476, 0.0994843915104866, 0.10655021667480469, -0.05736823007464409, 0.012771563604474068, 0.1218985989689827, -0.0866982489824295], [-0.08393093198537827, 0.13599158823490143, -0.00019099758355878294, 0.018926307559013367, -0.021936625242233276, 0.033271875232458115, -0.13166381418704987, -0.024515319615602493, 0.14448104798793793, -0.06992600113153458, -0.001770837465301156, -0.005111323669552803, -0.000652182730846107, -0.08193683624267578, -0.016131063923239708, 0.024488383904099464, -0.05656019225716591, -0.11776223033666611, 0.08997378498315811, 0.015080951154232025, -0.09728869050741196, 0.06128804013133049, -0.08017858117818832, 0.0001504604733781889, -0.04001465439796448, 0.0023194649256765842, 0.06259089708328247, 0.0566798634827137, -0.09306841343641281, -0.12028954178094864, -0.1398419886827469, -0.014654695056378841, -0.07117706537246704], [0.10706298798322678, 0.07425528764724731, 0.007933062501251698, -0.0466313436627388, 0.10928990691900253, -0.08173839747905731, -0.058008018881082535, -0.016907844692468643, -0.11324625462293625, 0.029116544872522354, -0.054642580449581146, 9.517156286165118e-05, -0.13514848053455353, 0.04056752100586891, -0.0019954745657742023, -0.056610848754644394, -0.03484388068318367, -0.04378437623381615, -0.07595723867416382, -0.1198003962635994, 0.00085204973584041, 0.12227031588554382, 0.050308916717767715, 0.002268969314172864, 0.14131960272789001, 0.053641218692064285, 0.0830935388803482, -0.014856015332043171, -0.09853912889957428, 0.05303751677274704, 0.03430205211043358, -0.1573762744665146, -0.07820581644773483], [-0.04339069128036499, -0.08045295625925064, 0.026768509298563004, 0.14832083880901337, -0.1503233164548874, -0.12536004185676575, -0.11105264723300934, -0.03956906870007515, -0.11683948338031769, -0.1265457272529602, 0.007762601133435965, -0.12464729696512222, 0.09947830438613892, -0.049874067306518555, 0.08036523312330246, -0.1194617748260498, 0.0742679089307785, -0.12069063633680344, 0.04751218110322952, -0.053084857761859894, 0.01594950072467327, -0.002661914099007845, -0.01711701974272728, -0.04812468960881233, 0.02619345486164093, 0.008073020726442337, -0.09228943288326263, 0.04148532822728157, -0.03722631186246872, -0.04239293187856674, 0.10780448466539383, 0.005418299697339535, -0.05160868912935257], [0.07680902630090714, -0.11148122698068619, 0.0212650615721941, 0.09208104014396667, 0.0016422929475083947, 0.06846686452627182, 0.06199995055794716, -0.12582837045192719, -0.05524608492851257, 0.0020711973775178194, 0.03731802478432655, 0.0006873779348097742, 0.1248340755701065, 0.08592937141656876, 0.07253281772136688, 0.029945099726319313, -0.021834183484315872, -0.029461819678544998, -0.021817343309521675, -0.12783218920230865, -0.10136581212282181, 0.00315715279430151, -0.12200947105884552, 0.079483263194561, 0.13592886924743652, 0.023681292310357094, 0.08469855040311813, -0.030812198296189308, -0.04856358468532562, 0.003915953449904919, 0.018880125135183334, -0.07158198952674866, 0.11308587342500687], [0.029759308323264122, -0.01287536695599556, -0.10353175550699234, -0.009296052157878876, 0.10902101546525955, -0.024024244397878647, -0.10861094295978546, -0.12286128848791122, 0.004785479977726936, 0.09432138502597809, -0.00030908751068636775, 0.03798237815499306, -0.12168873101472855, 0.00016461071209050715, 0.10878530144691467, 0.017304042354226112, 0.0967407301068306, 0.022297129034996033, 0.15446776151657104, -0.058711569756269455, -0.14121010899543762, 0.04038223624229431, -0.00035077190841548145, -0.07834194600582123, 0.12499556690454483, 0.12909634411334991, -0.06809874624013901, -0.11589405685663223, -0.08096928894519806, -0.08012755215167999, -0.08621419221162796, 0.10492321103811264, 0.11511743068695068], [0.18341517448425293, -0.011132268235087395, 0.024474648758769035, -0.03315233439207077, 0.08534272760152817, 0.09706994891166687, 0.14411282539367676, 0.01571490429341793, 0.029146431013941765, 0.0493728369474411, -0.001632685773074627, 0.09668511897325516, -0.14585942029953003, -0.02716965228319168, -0.1353602409362793, 0.1141536682844162, -0.06859636306762695, -0.015939194709062576, -0.002295568585395813, -0.10351920127868652, -0.05202921852469444, 0.06407760828733444, 0.10907510668039322, 0.04953403398394585, 0.009280909784138203, -0.09041883051395416, 0.11709548532962799, 0.063789501786232, -0.0015448615886271, 0.13723944127559662, -0.1537206918001175, 0.022417038679122925, -0.07463725656270981], [0.14349310100078583, -0.08924144506454468, -0.11465054005384445, -0.07597142457962036, -0.06099981069564819, 0.010185194201767445, 0.015224138274788857, 0.038345951586961746, 0.0419885516166687, -0.08067552000284195, -0.06261513382196426, 0.06516306102275848, 0.008018174208700657, -0.00237212679348886, -0.08203588426113129, -0.06362766772508621, -0.11968225985765457, 0.11608514189720154, 0.01747741736471653, 0.003953804261982441, 0.044411614537239075, -0.14168617129325867, 0.010062908753752708, -0.0547514446079731, 0.03218427300453186, 0.0668126568198204, 0.03848489373922348, 0.04186560586094856, -0.14382167160511017, -0.16599415242671967, 0.0786043331027031, 0.09474515914916992, 0.036888573318719864], [0.09350389242172241, 0.000617471057921648, 0.01678866520524025, 0.1710176169872284, -0.06377597898244858, -0.08355885744094849, 0.07877293974161148, 0.10967905074357986, 0.0006166796665638685, 0.11618926376104355, -0.1447731852531433, 0.029585545882582664, -0.07911129295825958, -0.07249177992343903, 0.07430832833051682, 0.09811321645975113, 0.06662481278181076, 0.031836334615945816, -0.011760448105633259, -0.0024092046078294516, -0.08369316905736923, 0.1403816193342209, -0.0023565858136862516, 0.08647503703832626, -0.017202364280819893, 0.10818241536617279, 0.08503846079111099, 0.022312849760055542, -0.025772614404559135, -0.055014099925756454, -0.07470028102397919, -0.02381025440990925, 0.09111841022968292], [0.05635114759206772, 0.037567298859357834, -0.08712983876466751, -0.026161402463912964, -0.06510422378778458, 0.07944964617490768, 0.02531818486750126, 0.001119621330872178, 0.0031270994804799557, -0.00010457902681082487, -0.11736847460269928, -0.1407414972782135, 0.13690710067749023, 0.049233682453632355, 0.10977805405855179, 0.02431155927479267, 0.0020217348355799913, -0.06314504891633987, 0.1774679273366928, -0.002289985306560993, -0.09734269976615906, 0.03427356109023094, -0.09752137213945389, 0.14378850162029266, -0.13663122057914734, 0.08218085020780563, 0.14637675881385803, 0.0022576618939638138, 0.04759517312049866, -0.07268743216991425, 0.05656954273581505, -0.047329381108284, -0.15986306965351105], [0.0466601587831974, -0.058997832238674164, -7.328789070015773e-05, 0.09551643580198288, 0.0660930797457695, -0.03877353295683861, 0.017647355794906616, -0.16132423281669617, -0.12847475707530975, 0.08068372309207916, -0.0014163306914269924, -0.0010561819653958082, -0.04696906730532646, 0.10769360512495041, 0.0801142007112503, -0.1297045350074768, -0.0036237933672964573, 0.0021061960142105818, 0.13725349307060242, -0.001632836414501071, -0.17317312955856323, -0.07772251963615417, -0.05723138153553009, -0.13137055933475494, -0.16724777221679688, 0.012948508374392986, 0.08220106363296509, -0.04840734973549843, -0.07276984304189682, 0.008748075924813747, 0.15939414501190186, 0.08407282829284668, -0.14719034731388092], [0.09403762221336365, -0.024849239736795425, 0.12102463096380234, -0.021910402923822403, -0.006743708159774542, 0.07589086145162582, 0.17916640639305115, -0.1750105917453766, -0.12450723350048065, 0.06026189401745796, -0.08105270564556122, 0.11946557462215424, -0.10181284695863724, -0.0246889628469944, 0.10804559290409088, -0.016118476167321205, -0.13582904636859894, 0.13230863213539124, 0.02828298509120941, 0.0310116708278656, -0.14502419531345367, 0.002418788615614176, 0.01159788016229868, 0.1561805009841919, 0.16374842822551727, 0.0696919858455658, 0.040586624294519424, -0.1281869113445282, -0.11670088768005371, 0.15698695182800293, 0.17441006004810333, -0.10933615267276764, -0.168789342045784], [-0.14149095118045807, 0.09379596263170242, -0.007452351041138172, 0.11619707942008972, -0.0019045602530241013, -0.13972307741641998, 0.1230345070362091, -0.05372839421033859, 0.05645158141851425, -0.04805697500705719, -0.05122891068458557, 0.07057619839906693, -0.00043738342355936766, 0.14451853930950165, -0.05115704983472824, 0.022793026641011238, 0.014144280925393105, -0.001752873882651329, -0.1367916315793991, -0.0018494853284209967, 0.05889531224966049, 0.007524048909544945, 0.10729050636291504, 0.013425244949758053, -0.11990931630134583, -0.05944129824638367, 0.07101643085479736, -0.07269864529371262, 0.024075202643871307, 0.0867939367890358, 0.0017139967530965805, 0.022430280223488808, 0.09277563542127609], [-0.03519536182284355, 0.13256028294563293, -1.717004124657251e-05, 0.09758706390857697, 0.12188970297574997, 0.04534704238176346, -0.0929080992937088, 0.029206499457359314, -0.08052091300487518, -0.019073473289608955, -0.1141345426440239, -0.02074247971177101, 0.1159592866897583, 0.07998759299516678, -0.026893630623817444, 0.09233478456735611, -0.04199834540486336, 0.005397748202085495, 0.1034049540758133, 0.1017598956823349, 0.1608790010213852, 0.13486430048942566, -0.09977789223194122, 0.10077590495347977, -0.08968731760978699, -0.02142898365855217, 0.11985156685113907, -0.061295926570892334, -8.297212480101734e-05, -0.019618423655629158, 0.16104498505592346, 0.05582144111394882, -0.12274754047393799], [-0.13675756752490997, 0.1184108629822731, -0.0010625843424350023, 0.17240124940872192, 0.06364420056343079, 0.05364880710840225, 0.0715712159872055, -0.06270009279251099, -0.036215487867593765, 0.04711323231458664, -0.13099756836891174, -0.021983115002512932, -0.0001902179792523384, 0.048859208822250366, 0.052266597747802734, 0.1258615255355835, 4.8718778998591006e-05, 0.0103621706366539, -0.10920237749814987, -0.06493816524744034, -0.03303997591137886, -0.03052595816552639, 0.009048921056091785, 0.06922310590744019, 0.1278318464756012, 0.12659288942813873, -0.1265004724264145, -0.02462821640074253, -0.007678700610995293, -0.08385302126407623, -0.1552233248949051, 0.060168832540512085, -0.006595251616090536], [0.008044655434787273, 0.0017282998887822032, 0.002364432206377387, 0.1136978417634964, -0.021029697731137276, 0.03182859718799591, 0.06719621270895004, -0.07202968001365662, 0.00012988683010917157, 0.10771512985229492, 0.015776684507727623, -0.1296597123146057, 0.13553011417388916, -0.04500064253807068, 0.002271706936880946, -0.0335950143635273, -0.0017687554936856031, -0.0014405171386897564, 0.1714475452899933, -0.13246944546699524, -0.10921115428209305, 0.09183982014656067, 0.027890808880329132, 0.00044102821266278625, -0.00841601938009262, 0.10430393368005753, 0.10005111247301102, -1.937287743203342e-05, -0.034581270068883896, -0.11695545166730881, 0.044483620673418045, 0.085120290517807, 0.006524341646581888], [-0.11491958796977997, 0.06867564469575882, 0.12630495429039001, 0.09825517237186432, -0.14388366043567657, -0.01479105744510889, -0.04713273048400879, 0.14703726768493652, -0.08597669750452042, -0.11304772645235062, -0.08430948853492737, -0.11968028545379639, -0.1133142039179802, 0.0052262842655181885, 0.0900406464934349, -0.01729738898575306, -0.00037892968975938857, 0.029189467430114746, -0.059140514582395554, 0.017132746055722237, 0.1449856460094452, -0.0003400657151360065, -0.14126189053058624, 0.021063409745693207, 0.13635005056858063, -0.02333711087703705, 0.00019985914696007967, -0.020273307338356972, -0.09239054471254349, -0.03117239661514759, 0.10129358619451523, 0.05124470591545105, -0.10171229392290115], [-0.029437698423862457, 0.06396724283695221, 0.002325944136828184, -0.15405318140983582, -0.09388910979032516, -0.12991945445537567, 0.07542437314987183, -0.08775661140680313, 0.12305691093206406, -0.02069568820297718, -0.0008134488598443568, 0.060149893164634705, -0.0006958701414987445, 0.05005614832043648, -0.022342847660183907, 0.08068367093801498, 0.057496484369039536, -0.010751187801361084, 0.10274296253919601, 0.07940022647380829, 0.017304450273513794, 0.09105222672224045, -0.009915093891322613, -0.09939895570278168, -0.018928589299321175, 0.08016226440668106, 0.0017751744017004967, -0.12161073088645935, 0.12614060938358307, 0.041215263307094574, -0.0460771769285202, -0.01223776675760746, -0.001127192983403802], [-1.873871951829642e-05, -0.03849554806947708, -0.024373700842261314, 0.08729299902915955, -0.14397959411144257, 0.0996280312538147, -0.13216514885425568, 0.08407532423734665, 0.016291161999106407, -0.04406893998384476, -0.0020473559852689505, 0.09745275974273682, -0.0014459065860137343, -0.13034255802631378, 0.11081413924694061, 0.04271119087934494, -0.12449738383293152, -0.010205206461250782, 0.0024382967967540026, 0.03529170900583267, 0.11505643278360367, 0.04983003810048103, -0.0956985279917717, 0.1367218941450119, -0.07319817692041397, 0.022758735343813896, 0.09162979573011398, -0.133820042014122, 0.0006663044332526624, -0.01339389756321907, -0.06896210461854935, -0.1190071776509285, 0.011215063743293285], [0.06905459612607956, -0.017619512975215912, 0.0958896353840828, -0.048875924199819565, -0.10642985254526138, 0.051592208445072174, -0.10572092980146408, 0.13910222053527832, -0.0001011808926705271, -0.09842739999294281, -0.009116964414715767, 0.14656659960746765, -0.0018129302188754082, 0.030367594212293625, -0.0324806310236454, -0.01236685924232006, -0.07757394760847092, 0.00043997130705974996, -0.03805966302752495, 0.06751103699207306, 0.009010914713144302, 0.02412668615579605, -0.06525766849517822, -0.10519924759864807, -0.10089671611785889, -0.11133982241153717, 0.02387233078479767, -0.08332373201847076, -0.1440167874097824, -0.001836364041082561, -0.02764986827969551, -0.008220251649618149, 0.11659347265958786], [-0.006270016543567181, -0.09956948459148407, 0.09405958652496338, 0.000696829694788903, -0.02238398790359497, -0.00013199719251133502, 0.025550106540322304, -0.06933210790157318, -0.0010315123945474625, -0.02558152936398983, 0.11477173119783401, 0.04664307087659836, -0.13847340643405914, 0.004886709153652191, -0.13894358277320862, 0.1334267407655716, 0.08963719010353088, -0.00039115193067118526, -0.13932107388973236, -0.045417625457048416, 0.018173567950725555, 0.01349002867937088, 0.01953120343387127, 0.001079033361747861, -0.04761320352554321, 0.004989714827388525, 0.08989766985177994, -0.05181252211332321, -0.09197386354207993, -0.013183890841901302, -0.06919784843921661, 0.1152770146727562, -0.13591888546943665], [0.15433640778064728, -0.0006762383272871375, -0.07902832329273224, 0.004436017479747534, -0.07191265374422073, -0.13892550766468048, 0.02161986567080021, 0.09827619791030884, 0.05502623692154884, -0.13779732584953308, -0.06532779335975647, 0.08579353988170624, -0.07327917218208313, -0.00212025735527277, 0.00011265903594903648, 0.0008649908704683185, 0.06781794130802155, -0.001982915448024869, 0.13406343758106232, 0.039266880601644516, -0.014672985300421715, 0.060076262801885605, -0.11195556074380875, 0.1326848268508911, 0.034854914993047714, -0.11651529371738434, 0.09840124845504761, -0.0023700399324297905, -0.14418432116508484, 0.13867858052253723, 0.00760737806558609, -0.07143069058656693, -0.10505598783493042], [0.10662128031253815, 0.00916297547519207, 0.03915078192949295, -0.11240344494581223, -0.07606761157512665, 0.08107364922761917, -0.045320041477680206, 0.1090768352150917, -0.001976901199668646, 0.00017502922855783254, 0.014907033182680607, 0.08828157931566238, -0.03916003927588463, -0.09229440987110138, 0.07048162072896957, 0.08945332467556, -0.0474068857729435, 0.09250306338071823, 0.1487322598695755, -0.09837158769369125, 0.10498572140932083, 0.08340168744325638, 0.14468418061733246, 0.029153557494282722, 0.12312151491641998, 0.13173739612102509, -0.1039038747549057, 0.00870050024241209, -0.04588478058576584, 0.09507809579372406, 0.02749391458928585, 0.16099877655506134, -0.07590370625257492], [-0.0512101985514164, 0.1033400446176529, 0.10141132026910782, -0.07575873285531998, 0.007355561945587397, 0.13687129318714142, 0.04308047890663147, 0.1445724368095398, 0.0733138769865036, -0.12339864671230316, -0.0721001848578453, -0.0016326777404174209, -0.06956255435943604, -0.0015175328589975834, -0.11869368702173233, 0.11839709430932999, -0.046224597841501236, -0.14478930830955505, -0.07063427567481995, -0.08846540004014969, 0.15066277980804443, 0.06751568615436554, -0.08099065721035004, 0.11533792316913605, 0.04458971694111824, -0.09583848714828491, -0.004744683392345905, -0.13825729489326477, 0.000646074942778796, -0.10572459548711777, 0.0663183182477951, 0.14985351264476776, -0.008272702805697918], [0.14794272184371948, 0.11628436297178268, -0.02890983410179615, -0.14097298681735992, -0.0431625097990036, -0.014406992122530937, 0.012606061063706875, -0.08797436952590942, 0.08406384289264679, 0.003790762275457382, 0.1456470936536789, 0.09336647391319275, 0.02265249565243721, -0.015220578759908676, -0.11072385311126709, 0.0001927585108205676, -0.09688685089349747, -0.11487172544002533, 0.03607523813843727, 0.030025051906704903, -0.04491552338004112, 0.1239314004778862, -0.05119387060403824, -0.13798625767230988, 0.006277047097682953, -0.14484800398349762, 0.002391732530668378, 0.007385532837361097, -0.03862301632761955, 0.14290963113307953, 0.01140595879405737, 0.13220736384391785, 0.007828960195183754], [-0.07883460819721222, 0.05737047642469406, -0.028218967840075493, 0.0004267544427420944, -0.11353553086519241, -0.005246737971901894, -0.06773994117975235, -0.11059883236885071, -0.059535346925258636, -0.09745800495147705, -0.1442958414554596, 0.14401645958423615, 0.06225031614303589, -0.00018654672021511942, -0.0021309389267116785, 0.13022053241729736, -0.08204329013824463, 0.07349618524312973, 0.11357706785202026, 0.05336057022213936, -0.10579616576433182, 0.001459480612538755, -0.11112599074840546, 0.021923914551734924, 0.027341775596141815, -0.05522922798991203, 0.034895338118076324, 0.00021009144256822765, 0.03810856118798256, 0.04669339954853058, -0.029226938262581825, -0.0942615196108818, 0.07243840396404266], [0.01892521232366562, -0.005253797397017479, 0.0006970126996748149, -0.0012820832198485732, -0.09137795865535736, 0.057661160826683044, 0.08456530421972275, -0.145361989736557, 0.1053575947880745, 0.01454115193337202, 8.748370601097122e-05, 0.00032281826133839786, 0.012179487384855747, -0.058352213352918625, 0.059836484491825104, -0.016980694606900215, 0.0525815486907959, -0.1078876256942749, -0.11371847987174988, -0.042346253991127014, 0.028719091787934303, 0.07958691567182541, -0.07083074003458023, -0.0004623685381375253, -0.12937651574611664, 0.1360306739807129, -0.11476033180952072, 0.0014296905137598515, -0.0953223705291748, 0.02663094736635685, -0.09260625392198563, -0.002396445721387863, 0.014267564751207829], [-0.1267605870962143, -0.12886619567871094, 0.022024789825081825, 0.13314589858055115, 0.13352833688259125, 0.003558491822332144, 0.13078297674655914, 0.15618713200092316, 0.04643452167510986, 0.14148558676242828, -0.02374948188662529, 0.06721841543912888, 0.08979406207799911, -0.0727420225739479, -0.13441061973571777, 0.10742028057575226, -0.000363892235327512, 0.13073419034481049, -0.0007925284444354475, -0.001611826941370964, 0.09491723775863647, 0.05531741678714752, 0.1370062679052353, -0.004628519993275404, -0.00024368931190110743, -0.10974229127168655, 0.03837767243385315, 0.06875383108854294, -0.134574756026268, -0.028579816222190857, 0.047366563230752945, 0.13821524381637573, 0.10483147203922272], [0.00024901924189180136, 0.07293877005577087, -0.1291808933019638, 0.009000620804727077, 0.0019206093857064843, -0.08205044269561768, -0.011150865815579891, 0.0731969103217125, -0.1089126467704773, -0.1132928654551506, 0.14118152856826782, 0.10434432327747345, 0.0023147095926105976, -0.14442956447601318, 0.04908102750778198, 0.05313365161418915, -0.00025611455203033984, 0.02316489815711975, -1.9541832443792373e-05, 0.10306917130947113, -0.008138183504343033, -0.14275719225406647, -0.0736638680100441, 0.07794297486543655, -0.1367461085319519, 0.01046554371714592, 0.004566953983157873, 0.1137344241142273, -0.1153053417801857, 0.01822873204946518, -0.0002305228845216334, 0.05075021833181381, -0.04990726709365845], [0.08273972570896149, -0.06111133098602295, -0.08442851155996323, 0.03951318562030792, 0.012901597656309605, -0.06981571763753891, 0.004279399290680885, 0.138373464345932, -0.14541186392307281, 0.0008514720830135047, 0.11656003445386887, 0.007182018831372261, 0.07520069181919098, 0.06488807499408722, -0.05491619184613228, 0.10217280685901642, 0.1272834688425064, 0.11868918687105179, -0.09578531980514526, 0.11275961995124817, 0.024413669481873512, 0.12932705879211426, -0.021996330469846725, 0.001947187352925539, 0.021441763266921043, -0.035386547446250916, -0.0499463826417923, 0.08277860283851624, 0.002392437541857362, -0.06085863709449768, -0.10134121030569077, 0.1218617781996727, 0.034391775727272034], [0.06081646308302879, -0.11582592874765396, -0.02955663949251175, 0.00060127058532089, -0.10991070419549942, 0.14710386097431183, -0.041940852999687195, -0.046269360929727554, -0.1139814630150795, 0.0006684746476821601, 0.10381060093641281, 0.000520012981723994, 0.0033267212565988302, -0.06733329594135284, -6.753613706678152e-05, 0.04706350713968277, -0.10452702641487122, 0.03322281688451767, 0.14691446721553802, -0.13372468948364258, -0.05896323174238205, -0.08782931417226791, -0.10369174182415009, 0.00018871879728976637, 0.11218274384737015, 0.007723227143287659, -0.08317086100578308, 0.05918753892183304, -0.032123953104019165, 0.13375166058540344, -0.033648356795310974, 0.08966073393821716, -0.1042381078004837], [0.007463086862117052, -0.06581445783376694, 0.0744049996137619, 0.012089008465409279, -0.06573975831270218, -0.0804978534579277, -0.16498753428459167, -0.062387384474277496, 0.07744534313678741, 0.13565653562545776, 0.05821637809276581, -0.04633843153715134, 0.002173792803660035, 0.04793253168463707, 0.1058228611946106, 0.07284274697303772, 0.1412997990846634, -0.006538462359458208, 0.17538456618785858, -0.06565562635660172, -0.1442427933216095, 0.10468851029872894, -0.1000702828168869, 0.14011256396770477, 0.0529303140938282, -0.09752319753170013, 0.0940176397562027, 0.07090453803539276, 0.017726998776197433, -0.07716286182403564, 0.17643196880817413, -0.042930010706186295, 0.05171554163098335], [-0.020975036546587944, -0.05723188817501068, 0.14651387929916382, -0.020455695688724518, 0.0024534298572689295, -0.13645504415035248, 0.16190092265605927, 0.0021925955079495907, -0.0038987896405160427, -0.016527684405446053, 0.025100085884332657, -0.04553399607539177, -0.007465955335646868, 0.05561566352844238, -0.005441062152385712, -0.03282928466796875, 0.061857808381319046, 0.011678224429488182, 0.05471436306834221, -0.07514483481645584, -0.08810517936944962, -0.13422520458698273, 0.11460483074188232, 0.03410221263766289, 0.07486330717802048, -0.11705061793327332, -0.015951216220855713, 0.06636698544025421, 0.0024485874455422163, -0.09739916026592255, -0.033999111503362656, 0.1262492537498474, -0.08715182542800903], [-0.14276735484600067, 0.03752870112657547, 0.012020465917885303, -0.11929304152727127, 0.0036842452827841043, 0.09836268424987793, 0.11774758994579315, 0.0636347308754921, 0.0031838943250477314, 0.03523380681872368, -0.07340949028730392, -0.017279721796512604, -0.035934630781412125, -0.04355591535568237, 0.06423664093017578, -0.10277344286441803, -0.07649189978837967, -0.0326642245054245, -0.10080557316541672, -0.05869711562991142, -0.06807003170251846, 0.11959971487522125, -0.13307447731494904, 0.137362539768219, 0.004679133649915457, -0.11301350593566895, 0.0722501128911972, -0.08853275328874588, -0.10246289521455765, -0.015989376232028008, 0.14223890006542206, 0.17253853380680084, 0.12547291815280914], [-0.0023658962454646826, 0.08255966007709503, -0.05317935720086098, -0.1088206022977829, -0.000949861656408757, -0.03495565429329872, -0.11100427061319351, 0.16529548168182373, 0.09786122292280197, 0.1435410976409912, 0.11477578431367874, 0.07788901031017303, -0.0017852088203653693, 0.013631324283778667, -0.11370066553354263, 0.002381598809733987, -0.10432720184326172, 0.1217719316482544, -0.076133131980896, -0.006586558185517788, -0.018829822540283203, -0.00015218573389574885, 0.000163603835972026, -0.019733402878046036, -0.12982621788978577, 0.09537328034639359, 0.08090006560087204, -0.11881504952907562, -0.07915252447128296, 0.1758936494588852, -0.010962873697280884, -0.08713782578706741, 0.002863800385966897], [0.012140138074755669, 0.13533943891525269, -0.0046601868234574795, 0.02604679949581623, -0.10776033252477646, 0.11849689483642578, -0.1258237659931183, -0.018906105309724808, -0.02022206410765648, 0.0042900522239506245, -0.11374594271183014, 0.08732664585113525, -0.11200567334890366, -0.09329043328762054, 0.08708552271127701, 0.03288338705897331, -0.03563373163342476, 5.3410782129503787e-05, -0.14039213955402374, 0.02256258763372898, -0.07653683423995972, -0.02834087237715721, 0.11021877080202103, 0.10422214865684509, -0.10703936964273453, 0.08472990989685059, 0.034409552812576294, -0.045500997453927994, 0.06457512825727463, -0.10798650234937668, -0.11340556293725967, 0.06600648164749146, 0.17665386199951172], [-0.013221561908721924, -0.003971660044044256, -0.09502346068620682, -0.058575429022312164, -0.042719729244709015, -0.03356342017650604, 0.1653159260749817, 0.14939996600151062, -0.05957779660820961, -0.09666763246059418, -0.00722143892198801, -0.0030148038640618324, 0.07284686714410782, -0.0357796736061573, 0.09189858287572861, -0.05254938453435898, 0.14278873801231384, 0.007921400479972363, 0.05101948603987694, 0.09005837887525558, 0.04042863845825195, -0.002399532590061426, 0.12051420658826828, 0.1480582356452942, 0.12329289317131042, 0.14169007539749146, -0.1428237110376358, 0.06335435807704926, 0.06682150065898895, 0.05277365818619728, -0.028978686779737473, -0.0209511686116457, 0.04910631477832794], [-0.016652775928378105, -0.0881134569644928, -0.13319772481918335, -0.019101722165942192, -0.07708659768104553, -0.06263118982315063, 0.11158447712659836, -0.016223864629864693, 0.022685736417770386, 0.06538545340299606, -0.10294388979673386, -0.0015525277704000473, -0.04186611250042915, -0.0003943549236282706, 0.03274773061275482, 0.07828132808208466, -0.024957336485385895, 0.0012408866314217448, -0.05197105556726456, -0.05873344838619232, 0.05216868221759796, 0.0860452726483345, -0.12092248350381851, 0.13683919608592987, 0.048576224595308304, 0.0958871990442276, 0.03726332634687424, 0.059633467346429825, -0.07419952005147934, -0.02209710329771042, 0.1330840140581131, -0.03705340996384621, 0.11009480804204941], [-0.04694432020187378, -0.03910170868039131, 0.019329126924276352, -0.04530708119273186, 0.024359211325645447, -0.11608925461769104, -0.03846437856554985, 0.007368294056504965, 0.1256238967180252, 0.018746811896562576, 0.0767216756939888, -0.04212129861116409, -0.07452444732189178, -0.03600955381989479, 0.09732265770435333, -0.00017252328689210117, -0.12054306268692017, 0.1289358288049698, -0.11122456192970276, 0.133763387799263, 0.04787491634488106, -0.09302670508623123, -0.10661564767360687, 0.0725533589720726, 0.025086604058742523, -0.009167933836579323, -0.11287249624729156, -0.021272245794534683, 0.11691861599683762, -0.002412453992292285, 0.08103420585393906, -0.13327370584011078, -0.09364651888608932], [0.04080181568861008, -0.0006234909524209797, -0.03556634485721588, 0.09861893951892853, -0.12175280600786209, -0.15561918914318085, 0.1559228152036667, 0.16322286427021027, -0.020651934668421745, -0.07403149455785751, -0.09806074947118759, 0.04476337134838104, -0.12867294251918793, 0.03942115977406502, -0.051091499626636505, -0.027544688433408737, 0.13694505393505096, -0.13380935788154602, -0.14386220276355743, -0.13426391780376434, -0.12525290250778198, -0.0806255117058754, -0.03328755125403404, -0.07662681490182877, -0.06734102219343185, -0.00015621207421645522, 0.12422162294387817, 0.05984031781554222, 0.05838536471128464, 0.179717555642128, -0.026156168431043625, 0.1518329381942749, 0.03201063722372055], [-0.08635050803422928, -0.05734872445464134, 0.131138414144516, 0.006785323843359947, 0.16235162317752838, -0.0018972383113577962, -0.09779147803783417, -0.08148220926523209, -0.13378450274467468, 0.12948428094387054, -0.009525210596621037, -0.11875273287296295, 0.05762067437171936, -0.12136068940162659, 0.011201008222997189, -0.12448682636022568, -0.0008634395198896527, 0.0006745900027453899, 0.13608133792877197, -0.007441789843142033, -0.04857917129993439, 0.00919932872056961, -0.02240484580397606, 0.0006210295832715929, -0.09491138905286789, 0.12447034567594528, 0.002452489221468568, 0.045543693006038666, 0.00042233202839270234, -0.1134825274348259, 0.07335224747657776, 0.09334371984004974, 0.16343294084072113], [0.02453034557402134, 0.1272178441286087, 0.10934613645076752, 0.17751173675060272, -0.12577348947525024, -0.11934292316436768, 0.03146988898515701, -0.05904803425073624, -0.001230546971783042, 0.06915227323770523, 0.05038611963391304, 0.11364775151014328, 0.019977916032075882, -0.001299771829508245, -0.015332615934312344, -0.1422244757413864, -0.09383472055196762, 0.033778976649045944, 0.13346821069717407, -0.08297047764062881, -0.023263977840542793, -0.08734042197465897, 0.08582458645105362, -0.013143079355359077, 0.03709607943892479, 0.09617495536804199, -0.13427680730819702, -0.12246338278055191, 0.13435055315494537, -0.029799265787005424, -0.14269225299358368, 0.009519550949335098, 0.001572432229295373], [0.13340748846530914, -0.12964411079883575, -0.0694124773144722, -0.04314285144209862, 0.08655216544866562, -0.020202165469527245, 0.1741051822900772, -0.0015177340246737003, -0.010154337622225285, 0.028133785352110863, -0.13610848784446716, 0.07684603333473206, -0.09635495394468307, 0.11934182047843933, 0.053448278456926346, 0.002459942828863859, 0.016533764079213142, -0.07120256870985031, -0.000533996382728219, -0.02190149575471878, 0.1226082369685173, -0.002460407791659236, 0.0023499676026403904, 0.00035920710070058703, -0.09522087872028351, -0.08795280754566193, 0.05745107680559158, 0.11454795300960541, 0.05684395134449005, -0.15877962112426758, -0.009998408146202564, 0.08874514698982239, -0.024453239515423775], [-0.0440637432038784, -0.14300218224525452, -0.09276353567838669, -0.14075727760791779, 0.15901003777980804, 0.08408208936452866, 0.043845027685165405, 0.09679223597049713, -0.05294409766793251, -0.02492845617234707, 0.002433126326650381, 0.13104115426540375, 0.12137246876955032, -0.10485178977251053, -0.09284218400716782, -0.13581112027168274, -0.0913475751876831, 0.0014966378221288323, -0.026446180418133736, 0.12088101357221603, -0.0971197858452797, 0.14109165966510773, 0.054941482841968536, -0.10814765095710754, 0.06824643909931183, -0.017160113900899887, 0.0637187734246254, -0.0003403046284802258, 0.0022719884291291237, 0.09203518182039261, 0.07481174916028976, -0.018580328673124313, -0.11562628298997879], [0.10996387898921967, 0.027171235531568527, -0.009858371689915657, -0.10795758664608002, -0.12629173696041107, -0.103885218501091, 0.00412375433370471, 0.1699911504983902, -0.03486918285489082, -0.06317466497421265, -0.04894300922751427, 0.0023168998304754496, 0.13005532324314117, -0.020932290703058243, -0.00022259133402258158, 0.04200315475463867, 0.13039347529411316, 0.12073557078838348, -0.04735057055950165, 0.09405321627855301, 0.03458451107144356, -0.020029976963996887, -0.05270429328083992, -0.040291398763656616, 0.07000322639942169, -0.06248893216252327, 0.029819976538419724, -0.021939288824796677, 0.03426817059516907, 0.13028647005558014, 0.03490240126848221, -0.06294362246990204, -0.0530473031103611], [-0.05091170594096184, -0.14369235932826996, 0.07472703605890274, -0.013262543827295303, -0.03018924966454506, -0.14706265926361084, -0.10921264439821243, 0.0013027890818193555, 0.03747910261154175, 0.11642518639564514, -0.009026525542140007, -0.03366570174694061, 0.036829087883234024, 0.05825255811214447, -0.006441761739552021, 0.10415339469909668, -0.09370356798171997, 0.09418501704931259, -0.1573745608329773, -0.07415136694908142, 0.024475300684571266, 0.00169401487801224, 0.1390945166349411, -0.07750096917152405, 0.14858302474021912, 0.13544173538684845, -0.0986940860748291, -0.09413944184780121, -0.11713375151157379, -0.13116508722305298, 0.07291892170906067, 0.15660403668880463, -0.11005326360464096], [-0.07409049570560455, -0.1285301297903061, 0.0006946574430912733, 0.060749273747205734, 0.14788706600666046, -0.1323515772819519, 0.0007248469046317041, 0.0577775314450264, 0.07088913023471832, -0.009543332271277905, 0.1452704668045044, 0.009985963813960552, 0.14552514255046844, -0.13641531765460968, 0.06883856654167175, 0.020484665408730507, -0.05293100327253342, 0.1134939044713974, 0.12611766159534454, -0.14083300530910492, -0.15891744196414948, 0.055767230689525604, -0.03791904076933861, -0.1541246473789215, 0.035437069833278656, -0.06250738352537155, 0.0006870588404126465, -0.045315731316804886, 0.022365858778357506, -0.06334547698497772, 0.1655476987361908, -0.007959511131048203, 0.014234550297260284], [0.01997951604425907, 0.11098704487085342, 0.00012916023842990398, 0.00021650598500855267, 0.09887371212244034, -0.10767453163862228, 0.09245864301919937, 0.02472171001136303, -0.0858592540025711, 0.003353254171088338, -0.03363769128918648, -0.0006739324890077114, -0.0690157562494278, 0.09286856651306152, 0.0689709335565567, 0.10962206870317459, -0.10277896374464035, -0.0007548228604719043, -0.11104142665863037, -0.0014054968487471342, -0.09209123998880386, -0.08611103147268295, -0.04494515061378479, 0.0006754949572496116, -0.10608460754156113, -0.10055461525917053, -0.021521497517824173, -0.03708737716078758, 0.09539119154214859, 0.0700514167547226, 0.07354075461626053, -0.15466836094856262, 0.07681203633546829], [0.04461020976305008, 0.09797355532646179, -0.13586901128292084, 0.07817545533180237, 0.007632079534232616, 0.0016592631582170725, 0.11404643952846527, 0.07607180625200272, 0.003057021414861083, 0.05739964172244072, 0.0013465043157339096, 0.043461501598358154, -0.10603439807891846, 0.14058233797550201, 0.07211973518133163, -0.07131277024745941, 0.10082819312810898, 0.09318464249372482, -0.06481063365936279, 0.12770478427410126, 0.020766379311680794, -0.08339327573776245, -0.08387759327888489, -0.10211067646741867, 0.022602062672376633, 0.010000363923609257, -0.10405676811933517, 0.09273124486207962, -0.0734160989522934, -0.151497945189476, -0.15832237899303436, -0.0036849400494247675, -0.14203162491321564], [-0.07124462723731995, -0.015662040561437607, 0.09146576374769211, 0.002441894728690386, -0.11545829474925995, 0.08843743801116943, 0.1659332513809204, 0.17656224966049194, 0.021409545093774796, 0.013295568525791168, -0.04994843527674675, 0.06080247461795807, 0.07727506756782532, -0.057319819927215576, -0.05285054072737694, -0.01327680703252554, 0.016606628894805908, 0.06123368814587593, -0.08171018213033676, -0.002099305856972933, 0.0038196067325770855, -0.10647881031036377, -0.07585541158914566, 0.11756086349487305, -0.012087449431419373, 0.14263565838336945, 0.02988542802631855, -0.05698780342936516, 0.12276505678892136, 0.05642953887581825, 0.08718101680278778, 0.14823952317237854, -0.1221543550491333], [0.060839440673589706, 0.007888599298894405, 0.10311425477266312, -0.13314507901668549, -0.09727165848016739, 0.13668546080589294, -0.11382156610488892, 0.008237406611442566, 0.06377000361680984, 0.05241592973470688, 0.13842368125915527, -0.028617721050977707, 0.039781033992767334, 0.008378143422305584, -0.12277016788721085, -0.09484286606311798, 0.09925960749387741, -0.1411769688129425, 0.10640089213848114, 0.13514749705791473, -0.043954554945230484, 0.05805119499564171, 0.02156047709286213, -0.05295247957110405, -0.00044034907477907836, -0.014764996245503426, -0.02264491096138954, -0.06020348519086838, 0.052472393959760666, 0.0926351547241211, -0.014940284192562103, -0.1647355556488037, 0.15584702789783478], [0.023296453058719635, -0.04832307994365692, 0.08881319314241409, 0.011085184291005135, 0.051139578223228455, -0.10136695206165314, -0.13036583364009857, 0.10571945458650589, 0.10028400272130966, 0.08607129007577896, -0.051419202238321304, 0.0010152889881283045, -0.026816941797733307, 0.060134924948215485, 0.01972907967865467, 0.007555233780294657, -0.0662180706858635, -0.019454333931207657, -0.049722541123628616, -0.04582880064845085, 0.06507458537817001, -0.01545371301472187, 0.0001354714622721076, -0.04847276583313942, 0.0912143737077713, 0.034775134176015854, -0.040095310658216476, 0.14472340047359467, -0.12337346374988556, 0.007482536137104034, -0.03628700599074364, -0.13381263613700867, 0.021891431882977486], [0.06213918328285217, -0.14547571539878845, 0.1153133437037468, -0.1233331710100174, -0.11649094521999359, 0.05004247650504112, 0.14409662783145905, -0.12230049818754196, -0.0673050656914711, 0.006285473238676786, 0.008044987916946411, -0.0013540369691327214, -0.045806609094142914, 4.639890539692715e-05, 0.1346077173948288, 0.03964204713702202, 0.08365398645401001, -0.10693585872650146, 0.1477709263563156, 0.15165789425373077, 0.15258397161960602, -0.0023315579164773226, -0.045484479516744614, -0.037454333156347275, 0.0009719384252093732, 0.12635718286037445, -0.08881961554288864, 0.0752628892660141, 0.055375419557094574, 0.08409573882818222, 0.09019346535205841, 0.04048651084303856, 0.007186429109424353], [0.0026173514779657125, 0.04953158646821976, 0.13926266133785248, 0.15088878571987152, 0.039328332990407944, -0.13167347013950348, 0.08623025566339493, 0.15145069360733032, 0.041591137647628784, -0.09641508013010025, 0.14221172034740448, -0.06876736879348755, 0.0588117316365242, -0.00017383422527927905, -0.04901948571205139, 0.00026019103825092316, -0.05816366523504257, -0.034197814762592316, -0.1223098635673523, 0.014939571730792522, -0.04387449100613594, 0.1251133233308792, -0.1332753747701645, -0.0012657236075028777, 0.14988550543785095, 0.08110400289297104, -0.041491925716400146, -0.14129099249839783, -0.13548222184181213, -0.13335351645946503, -0.08673776686191559, -0.06136695295572281, -0.06542585790157318], [0.14079555869102478, 0.10611087083816528, -0.07357117533683777, 0.1694323867559433, 0.15890441834926605, -0.13503269851207733, -0.13200600445270538, 0.1260332465171814, -0.1253684163093567, -0.00030498672276735306, 0.07683539390563965, -0.11010849475860596, 0.06678629666566849, 0.09831909835338593, -0.1292315572500229, -0.02532721683382988, 0.05491422861814499, 0.02669668197631836, 0.01248001679778099, 0.09392127394676208, 0.11277104914188385, 0.02390771545469761, -0.14335346221923828, -0.03726664185523987, 0.06041545793414116, -0.09469683468341827, 0.030204003676772118, -0.03236651048064232, 0.03503524139523506, 0.08935511112213135, -0.04554048180580139, -0.16936379671096802, 0.17016494274139404], [0.14647231996059418, -0.00029653735691681504, -0.0757892057299614, -0.023315509781241417, 0.1385902315378189, 0.14589889347553253, 0.0129164457321167, -0.018003758043050766, -0.08835219591856003, 0.10390771925449371, -0.1010599359869957, 0.002126802457496524, -0.0776730477809906, 0.04625235125422478, 0.002398330019786954, -0.0012990344548597932, -0.07815046608448029, 0.12574894726276398, -0.1353708952665329, -0.0289261806756258, 0.09620816260576248, -0.07997105270624161, 0.021840544417500496, -0.016011565923690796, -0.038698118180036545, -0.0035759885795414448, -0.08205286413431168, -0.1191900372505188, 0.0006966122309677303, -0.007564762607216835, 0.061297498643398285, 0.002991151763126254, -0.1542559266090393], [-0.04204269126057625, -0.13673917949199677, 0.02522360160946846, -0.12896135449409485, -0.10307455062866211, -0.0796574130654335, -0.123834989964962, -0.07494944334030151, 0.0019499588524922729, -0.0016284771263599396, 0.013929608277976513, 0.04751075804233551, -0.12061724066734314, -0.0025200145319104195, -0.08037028461694717, -0.05835357680916786, -0.06811954081058502, -0.06276161968708038, -0.12391793727874756, 0.17810489237308502, 0.1653718501329422, 0.006568307057023048, 0.07634178549051285, 0.1355394423007965, 0.10194577276706696, 0.0006383357103914022, -0.1460016369819641, 0.08045783638954163, -0.04992131143808365, 0.1132388710975647, 0.051342397928237915, 0.1444678008556366, 0.15509606897830963], [0.10483774542808533, 0.11011528223752975, -0.05901854485273361, -0.04143961891531944, -0.022916631773114204, -0.13535140454769135, -0.10309991985559464, 0.006162670440971851, -0.06353092938661575, 0.050461944192647934, 0.0012839088449254632, 0.10180532932281494, -0.13227899372577667, 0.00012666740803979337, -0.0014284371864050627, -0.07820258289575577, 0.030764080584049225, -0.10889271646738052, -0.014618953689932823, -0.020950298756361008, 0.06898590922355652, -0.08116471767425537, -0.05386189743876457, -0.11237415671348572, -0.10275761783123016, 0.08658275008201599, 0.1295517534017563, 0.00870168674737215, 0.00029745412757620215, 0.04177328944206238, -0.1276347041130066, 0.1321498304605484, 0.07607473433017731], [0.14855176210403442, -0.11896969377994537, -0.002454447792842984, -0.1126636192202568, -0.025455273687839508, 0.13301096856594086, -0.0195260439068079, 0.12894025444984436, -0.0045386990532279015, -0.06735949963331223, 0.03784054145216942, 0.06779667735099792, -0.048958104103803635, -0.06718482822179794, 0.06823284924030304, 0.05785302817821503, 0.11305765062570572, -2.402694860847987e-07, 0.08060958981513977, 0.03938525542616844, -0.026878943666815758, 0.01796594262123108, -0.00016489007975906134, 0.11930377781391144, -0.0450015664100647, 0.0873386412858963, -0.08428843319416046, 0.08732535690069199, -0.1340981423854828, -0.10830135643482208, -0.1469423621892929, 0.01986769586801529, 0.06766164302825928], [0.09357958287000656, -0.10848289728164673, 0.12490475177764893, -0.03812263533473015, -0.04485468193888664, -0.0017328162211924791, -0.10235665738582611, -0.12193415313959122, -0.08664000779390335, 0.042098917067050934, 0.011586541309952736, 0.07437248528003693, 0.10150597244501114, -0.004558918997645378, -0.12269516289234161, 0.08457465469837189, 0.0853089690208435, 0.0830586850643158, -0.014399992302060127, 0.16616038978099823, 0.03846815973520279, 0.048578109592199326, -0.04328203946352005, 0.03871242702007294, -0.003726236755028367, -0.10704056918621063, -0.00031803135061636567, 0.00013350715744309127, 0.0372530072927475, -0.08043450117111206, -0.16258195042610168, 0.008479605428874493, -0.09673676639795303], [-0.0013885200023651123, -0.04970062896609306, 0.023808615282177925, 0.002297068713232875, -0.1026473343372345, 0.15568308532238007, -0.046633005142211914, 0.10409871488809586, 0.0770384669303894, 0.13711285591125488, 0.026256371289491653, -0.09036260098218918, 0.09369122236967087, -0.12825551629066467, -0.13274796307086945, -0.04960709065198898, 0.05403505265712738, -0.026198728010058403, -0.12767182290554047, -0.09032298624515533, 0.13639146089553833, 0.00221152207814157, -0.02082221210002899, 0.06794456392526627, -0.03615583851933479, 0.1440373957157135, -0.042637959122657776, -0.09446584433317184, 0.10201506316661835, -0.05209266394376755, 0.0960916206240654, 0.04483122378587723, -0.027750946581363678], [0.12309515476226807, -0.1305280178785324, 0.04611796513199806, -0.01283550076186657, 0.04838036000728607, 0.05176985263824463, 0.06781833618879318, -0.069376140832901, 0.09534215927124023, -0.038378410041332245, -0.04025127738714218, 0.033894337713718414, 0.0783713087439537, -0.055466730147600174, -0.12215619534254074, -0.05353068187832832, 0.10656387358903885, -0.05247574299573898, -0.11255545914173126, -0.06263546645641327, -0.13422791659832, -0.07964189350605011, -0.09291622042655945, -0.09815550595521927, 0.11875467747449875, 0.0011539036640897393, -0.051477208733558655, 0.002419529017060995, 0.04624388739466667, 0.15956738591194153, -0.1124413013458252, -0.08053760975599289, 0.003185286419466138], [0.0628793016076088, -0.08273106813430786, -0.13447362184524536, -0.041926462203264236, -0.0005754077574238181, -0.02682877890765667, -0.09363430738449097, 0.028564102947711945, -0.040952932089567184, 0.12190763652324677, -0.12293323129415512, -0.133774995803833, -0.0455414280295372, -0.016188811510801315, -0.044334348291158676, -0.09731098264455795, 0.08568877726793289, 0.1061273068189621, 0.07950694113969803, -0.12442299723625183, -0.021845314651727676, -0.14595137536525726, 0.06352602690458298, -0.07412848621606827, -0.043487418442964554, 0.06890922039747238, 0.07407744973897934, -0.03779669851064682, 0.0006866803742013872, 0.025592967867851257, -0.13304708898067474, 0.05101044848561287, 0.025402501225471497], [0.0935511440038681, 0.0024628841783851385, 0.0013701305724680424, -0.11387328058481216, -0.03968535736203194, 0.038569170981645584, -0.023190347477793694, -0.06031337380409241, -0.11940887570381165, -0.01934097521007061, -0.14110103249549866, -0.00038822588976472616, -0.03918968513607979, 4.003971116617322e-05, 0.057860586792230606, -0.05733150988817215, 0.006715172436088324, -0.020372925326228142, 0.07411330938339233, -0.0735115259885788, 0.12608210742473602, 0.0016696964157745242, -0.07616633176803589, 0.0981125757098198, -0.11411165446043015, -0.00182926538400352, -0.10026216506958008, 0.033076584339141846, 0.13314226269721985, 0.03721930831670761, 0.08129212260246277, 0.03829978406429291, -0.06658828258514404], [-0.12841342389583588, -0.0023238679859787226, -0.0074042025953531265, -0.12846511602401733, 0.13579119741916656, -0.12963131070137024, 0.1406664103269577, 0.05612342059612274, -0.07841220498085022, 0.12948250770568848, 0.13446208834648132, -0.0013609076850116253, -0.1223405972123146, -0.045325689017772675, -0.1446867287158966, 0.060466136783361435, 0.0005746035603806376, -0.1172434538602829, 0.09360916912555695, -0.16297201812267303, 0.0791393294930458, -0.12587115168571472, -0.1338258534669876, 0.06360084563493729, -0.09723884612321854, -0.0004249589692335576, 0.0005708539974875748, -0.12855057418346405, 0.0016123796813189983, -0.16262120008468628, -0.004535122774541378, -0.041219085454940796, -0.012346837669610977], [-0.08096309006214142, -0.03373267129063606, -0.069565050303936, 0.11886202543973923, -0.12273899465799332, 0.16905152797698975, -0.15254773199558258, -0.1183130294084549, -0.01158619113266468, -0.012459773570299149, 0.03554893285036087, 0.002401958452537656, 0.08359873294830322, 0.00767078110948205, -0.046866197139024734, 0.08207130432128906, -0.06719064712524414, -0.07039061933755875, 0.08555086702108383, 0.0775480642914772, 0.022986765950918198, -0.09199529141187668, 0.019447052851319313, 0.05113644897937775, -0.12862826883792877, -0.05738862231373787, 0.03608950972557068, 0.09662635624408722, 0.010784808546304703, 0.01760146953165531, 0.14739084243774414, -0.011616547591984272, -0.16069355607032776], [-0.0733105018734932, 0.0011436244240030646, 0.09081635624170303, -0.018775664269924164, 0.07969388365745544, 0.0861310362815857, -0.060560811311006546, -0.016263572499155998, -0.05503144860267639, -0.09687552601099014, -0.04870631545782089, -0.08512163907289505, -0.062143612653017044, -0.14050394296646118, 0.13717156648635864, -0.0733398050069809, 0.053893618285655975, -0.08985729515552521, -0.03681015223264694, 0.004450585693120956, -0.07825243473052979, -0.08897168934345245, -0.0007341542514041066, -0.033440008759498596, 0.12484034895896912, -0.025106564164161682, -0.12949347496032715, -0.07308167964220047, -0.001083405688405037, -0.11214238405227661, -0.06734555214643478, 0.03300204500555992, 0.021909140050411224], [-0.06267376244068146, 0.0022568260319530964, 0.058121323585510254, -0.1283310502767563, -0.11222200840711594, 0.03634002059698105, 0.04674400016665459, -0.05117184296250343, -0.010630074888467789, -0.10089850425720215, -0.07630282640457153, -0.09756419062614441, 0.01247827522456646, 0.031984273344278336, -0.11034546792507172, 0.05779758095741272, -0.0007210960611701012, 0.06332126259803772, 0.07250218838453293, 0.11649952828884125, 0.00027023564325645566, 0.12026483565568924, 0.13293948769569397, 0.05241387337446213, 0.06786274909973145, 0.06975898891687393, -0.12164833396673203, 0.0002910488110501319, -0.1411472111940384, 0.059895552694797516, -0.1377103626728058, 0.042755383998155594, 0.02340390719473362], [0.14967302978038788, 0.07502753287553787, -0.07564903050661087, -0.11110781878232956, -0.11984529346227646, -0.14087697863578796, -0.07361788302659988, -0.0631246343255043, 0.004767461214214563, 0.021108439192175865, 0.034507326781749725, 0.1103239580988884, -0.04274609684944153, 0.07637789845466614, -0.1459244340658188, -0.14512193202972412, 0.00037832651287317276, 0.07098573446273804, 0.007418552879244089, -0.0318121574819088, 0.09231122583150864, -0.1438053548336029, 0.09487167745828629, 0.00442569050937891, 0.07883445918560028, 0.14087513089179993, -0.14119160175323486, -0.030228931456804276, 0.13454239070415497, 0.12809672951698303, 0.08011095970869064, 0.1972338706254959, 0.09827269613742828], [-0.12825308740139008, -0.14166611433029175, -0.022116629406809807, -0.101382315158844, 0.15889257192611694, -0.02959676831960678, -0.05555625259876251, 0.13005974888801575, 0.13714632391929626, -0.08763135969638824, -0.08616980165243149, 0.032863885164260864, -0.03897107020020485, -0.0211962703615427, 0.12719418108463287, 0.07740530371665955, 0.02731783129274845, 0.11045949161052704, -0.013058680109679699, 0.17617204785346985, -0.03215085342526436, -0.12184692174196243, 0.019127747043967247, -0.13175496459007263, -0.017150046303868294, 0.0024628916289657354, 0.08817542344331741, -0.07695066183805466, -0.04968664050102234, 0.04493624344468117, -0.0904456302523613, 0.003973487298935652, -0.11750660836696625], [-0.06552276015281677, -0.06305533647537231, 0.11200409382581711, -0.1231602281332016, -0.09845235198736191, 0.13293224573135376, -0.07416520267724991, -0.12156994640827179, -0.010539566166698933, -0.08233760297298431, 0.057315800338983536, -0.03719586133956909, -0.1342507302761078, 0.13405154645442963, 0.061517100781202316, 0.012522682547569275, 0.12470562756061554, 0.12947547435760498, -0.001396747538819909, 0.12624706327915192, -0.09996865689754486, 0.07590314000844955, -0.1041882261633873, 0.0020025696139782667, -0.0003853567177429795, 0.008914020843803883, 0.12298572808504105, -0.14173352718353271, 0.07239900529384613, 0.008512360975146294, -0.04552948847413063, -0.03283433988690376, 0.13631774485111237], [0.06619355827569962, 8.599944703746587e-05, -0.00047731801168993115, 0.09259936958551407, -0.06276945024728775, -0.01941188983619213, 0.04555818438529968, -0.042192939668893814, -0.14612030982971191, 0.008502047508955002, 0.0008197866263799369, 0.09845063835382462, 0.09102289378643036, 0.06359967589378357, 0.1381041556596756, -0.03310087323188782, -0.02655368484556675, -0.06986892968416214, 0.11024903506040573, -0.10578355938196182, -0.06223221495747566, -0.13340866565704346, 0.04192311316728592, 0.008295937441289425, -0.12248574942350388, -0.10135100781917572, 0.1348210871219635, -0.11843116581439972, 0.0019425767241045833, -0.085829958319664, 0.046343423426151276, 0.12719981372356415, 0.007603527046740055], [0.09797558188438416, -0.05893149971961975, -0.13432012498378754, -0.007929496467113495, 0.06396309286355972, 0.09133990108966827, 0.04257693141698837, -0.08811873197555542, -0.14663347601890564, 0.0012834107037633657, 0.13447090983390808, 0.03639211878180504, -0.03375057876110077, -0.02159976027905941, 0.01519386749714613, 0.09091230481863022, -0.026210663840174675, 0.0640961304306984, -0.08806777000427246, -0.0502953827381134, -0.001717573730275035, -0.025038663297891617, 0.013250619173049927, -0.10829076915979385, 0.11833040416240692, 0.04861854761838913, -0.05692938715219498, 6.0211019444977865e-05, -0.05866885557770729, -0.17066532373428345, -0.16187624633312225, 0.0817253515124321, -0.03945035859942436], [0.17926307022571564, 0.0015022025909274817, 0.10487492382526398, -0.10034734755754471, 0.10009411722421646, 0.08432123810052872, 0.06462286412715912, -0.11638115346431732, -0.09662054479122162, -0.00018839602125808597, -0.1428179293870926, -0.1080234944820404, 0.1251380294561386, -0.03325089067220688, 0.0006954273558221757, 0.002374693751335144, -0.014374042861163616, -0.13861210644245148, -0.09556407481431961, 0.12288506329059601, -0.0018173574935644865, -0.09754814952611923, -0.05292270705103874, 0.15342029929161072, 0.03912835940718651, 0.09517215937376022, -0.07926344871520996, -0.03928304463624954, -0.0834868922829628, -0.06832915544509888, 0.10389002412557602, -0.10661347955465317, -0.11487361043691635], [-0.090276800096035, -0.09093185514211655, -0.11021744459867477, 0.035025764256715775, -0.05727161839604378, -0.14109009504318237, 0.07624972611665726, -0.08695737272500992, -0.00013479802873916924, 0.021430328488349915, 0.14504122734069824, 0.10624152421951294, -0.08545040339231491, -0.033163610845804214, -0.022047217935323715, 0.045117851346731186, 0.1452707052230835, -0.12617163360118866, 0.03626988083124161, 0.14839327335357666, 0.14017410576343536, 0.13073742389678955, 0.06407707929611206, 0.06208779662847519, 0.08336334675550461, -1.4020084563526325e-05, 0.10636042803525925, -0.00018815972725860775, 0.06130244582891464, 0.055902328342199326, -0.16873325407505035, 0.13800008594989777, 0.1034201979637146], [0.15119867026805878, -0.1459323614835739, -0.07619507610797882, 0.004201430361717939, 0.07029739022254944, 0.1459040492773056, 0.018712421879172325, -0.026899442076683044, 0.0024587076622992754, 0.08343595266342163, 0.12079335749149323, 0.013012174516916275, -0.055396296083927155, 0.018533295020461082, -0.060160353779792786, 0.09688898175954819, 0.034776877611875534, 0.09636299312114716, 0.15164870023727417, 0.0018527987413108349, -0.1074972003698349, -0.0019867802038788795, -0.00168711191508919, 0.10211825370788574, 0.03091565892100334, -0.0022344777826219797, -0.0678081139922142, -0.0006901565357111394, 0.1049797460436821, 0.020590901374816895, 0.023401688784360886, 0.08819891512393951, 0.06665652245283127], [-0.04555605724453926, -0.0726453959941864, -0.057688742876052856, 0.08253549784421921, 0.04116629809141159, 0.0891929343342781, 0.15595082938671112, 0.0018022748408839107, 2.235203282907605e-06, -0.0016020647017285228, -0.036263179033994675, -0.005348075181245804, 0.0005642019677907228, -0.047592535614967346, -0.015232408419251442, -0.06120380014181137, -0.07833310216665268, 0.023365359753370285, 0.08937770128250122, 0.15438620746135712, -0.13881732523441315, 0.09328051656484604, 0.003225505817681551, -0.04164552688598633, 0.07939473539590836, 0.14102225005626678, 1.3943965313956141e-05, 0.1018582358956337, -0.12405429035425186, -0.07218251377344131, 0.034363068640232086, 0.08066298067569733, 0.12016253918409348], [-0.09109137207269669, 0.13751326501369476, 0.034552495926618576, -0.0038664047606289387, 0.07791386544704437, -0.11472037434577942, -0.018485696986317635, -0.07331681251525879, 0.04010700806975365, -0.07671166211366653, 0.10788486152887344, 0.0652841255068779, -0.1062503308057785, -0.1198367327451706, 0.13810423016548157, -0.060056693851947784, 0.10346413403749466, 0.12908051908016205, -0.03274153172969818, 0.14295414090156555, 0.007755178026854992, 0.0775514543056488, 0.052922654896974564, -0.09065340459346771, -0.1116228848695755, 0.10547032952308655, -0.12363100051879883, -0.07552345097064972, -0.14542102813720703, -0.14613032341003418, -0.09666159749031067, 0.08443844318389893, -0.041481729596853256], [-0.1611945927143097, -0.07281195372343063, 0.12842099368572235, -0.02095312438905239, 0.03811216354370117, -0.03314857929944992, -0.030647356063127518, -0.12956038117408752, -0.018439022824168205, -0.02237291820347309, -0.1455346941947937, -0.12207330018281937, -0.006967179011553526, 0.05695601925253868, -0.07224711030721664, 0.1096215471625328, -0.14133375883102417, 0.11232162266969681, -0.02669193036854267, 0.12049227952957153, -0.049973465502262115, 0.02711794152855873, -0.022407563403248787, -0.011555069126188755, 0.002198504749685526, -0.05962618812918663, 0.002916166093200445, -0.07673802971839905, -0.00012151774717494845, 0.062190283089876175, -0.014295597560703754, 0.056244101375341415, -0.17619547247886658], [0.057254306972026825, 0.14651593565940857, -0.10170524567365646, -0.14670558273792267, -0.025188369676470757, 0.14864839613437653, -0.02072565071284771, -0.07978504151105881, -0.07594889402389526, -0.11366324871778488, 0.14327558875083923, -0.0005555566749535501, -0.11260240525007248, 0.1348913311958313, 0.09126180410385132, 0.06494022160768509, -0.010616838932037354, -0.0477740652859211, -0.0016632146434858441, 0.034716490656137466, 0.15495537221431732, -0.1179286316037178, 0.0011201282031834126, 0.03871125727891922, -0.022859489545226097, 0.14056283235549927, 0.09663888812065125, 0.08409641683101654, 0.042175158858299255, -0.05733451992273331, -0.003814597614109516, -0.15535081923007965, 0.037069741636514664], [-0.05563348904252052, -0.05270223319530487, -0.004113301634788513, 0.0022494406439363956, -0.11807258427143097, 0.13758942484855652, -0.13616563379764557, -0.15677280724048615, -0.0972033441066742, 0.03568083047866821, 0.0646088719367981, 0.04979255795478821, -0.003946574404835701, -0.001421891851350665, -0.1320413202047348, -0.0014931181212887168, -0.131142720580101, -0.03906909003853798, 0.08274351805448532, 0.16132430732250214, 0.12647975981235504, -0.020409196615219116, -0.0012984119821339846, -0.09718108177185059, 0.10799044370651245, 0.07556599378585815, 0.029076723381876945, -0.02730523981153965, -0.037640854716300964, 0.16570691764354706, 0.08082038164138794, -0.1166599914431572, 0.12104833871126175], [-0.01419769786298275, 0.08520110696554184, -0.06282730400562286, -0.09661604464054108, -0.1011890396475792, 0.03984011709690094, 0.0005773021839559078, 0.11139073967933655, -0.056587785482406616, 0.0010713275987654924, -0.006278856657445431, 0.14623244106769562, -0.03553688898682594, 0.13523350656032562, 0.02664419263601303, 0.06155993789434433, 0.002461769385263324, -0.14210249483585358, -0.1342824399471283, -0.07423464953899384, 0.15452398359775543, -0.025425195693969727, -0.05580761656165123, 0.16864709556102753, 0.07217009365558624, -0.036585528403520584, 0.11837127804756165, 0.018489552661776543, -0.14589270949363708, 0.0010907865362241864, -0.13628362119197845, -0.15227335691452026, 0.11719852685928345], [-0.04052506759762764, 0.1126784235239029, 0.13898012042045593, -0.14575080573558807, -0.11054228246212006, 0.06521687656641006, -0.12255275249481201, 0.041373591870069504, -0.1359066367149353, -0.13393442332744598, 0.030408939346671104, 0.04936213046312332, -0.1291949450969696, 0.04700357839465141, -8.584038005210459e-05, 0.13259190320968628, 0.0032269535586237907, 0.0021326045971363783, 0.009860929101705551, -0.08207429200410843, -0.06219038367271423, 0.0025607584975659847, -0.09816247224807739, -0.061060961335897446, -0.11419973522424698, 0.002946634776890278, -0.008942370302975178, -0.0527353435754776, 0.005063244141638279, -0.0033215531148016453, 0.01640409417450428, -0.010172225534915924, 0.12699973583221436], [-0.07288557291030884, -0.12436553835868835, 0.00042539474088698626, -0.015478826127946377, 0.07310526072978973, -0.10820742696523666, 0.044283900409936905, 0.013239290565252304, -0.05629471316933632, -0.04918074980378151, 0.04090769588947296, 0.01634662039577961, -0.0024073028471320868, -0.0013285086024552584, -0.12390542775392532, 0.0006950442912057042, -0.09870799630880356, 0.12175030261278152, 0.09395752102136612, 0.14814625680446625, -0.07954590022563934, -0.025777459144592285, -0.02386281080543995, -0.07324178516864777, 0.03435603901743889, -0.11873698979616165, -0.0012607276439666748, 0.022169286385178566, -0.05564159154891968, -0.17073914408683777, -0.04971274733543396, -0.10448583215475082, 0.1500198245048523]], "embedding.bias": [-0.09310312569141388, -0.01722358912229538, 0.1421014815568924, 0.10979068279266357, -0.06364793330430984, -0.0811329334974289, 0.14635995030403137, 0.18691954016685486, 0.05424826592206955, 0.1415119469165802, -0.04973762109875679, -0.13342007994651794, -0.15807493031024933, -0.1212502047419548, -0.09404750913381577, 0.10676996409893036, -0.05956549942493439, 0.062377408146858215, -0.031017158180475235, -0.17365656793117523, -0.13808207213878632, -0.11581268161535263, 0.1200534850358963, 0.10300463438034058, -0.09810463339090347, 0.06290226429700851, -0.10792985558509827, -0.04398352652788162, 0.11529673635959625, 0.13323336839675903, -0.024116981774568558, 0.12494347244501114, -0.141311377286911, -0.0010846486547961831, 0.16138283908367157, 0.09391381591558456, -0.019101547077298164, -0.12186813354492188, -0.12825189530849457, -0.05901560187339783, -0.12725074589252472, -0.15084248781204224, -0.04734966903924942, -0.024457396939396858, -0.11874855309724808, 0.011729666031897068, -0.08903637528419495, 0.12139488756656647, -0.13402730226516724, 0.038068737834692, -0.0720982700586319, 0.15160982310771942, -0.11161084473133087, -0.05958458408713341, -0.05778646841645241, -0.08014804124832153, 0.06285302340984344, 0.09777265042066574, 0.1118425726890564, -0.1518910825252533, 0.07343252748250961, 0.0059431311674416065, -0.0690276250243187, -0.09893900901079178, 0.03772294148802757, -0.06328299641609192, 0.015396603383123875, 0.0003170784329995513, -0.002704886021092534, 0.11361169070005417, -0.09130428731441498, 0.0013673221692442894, -0.10997825115919113, 0.12839658558368683, 0.08853165060281754, -0.047255877405405045, 0.1635592132806778, 0.06372019648551941, -0.07334516197443008, 0.0729079321026802, -0.03895866498351097, -0.025219479575753212, -0.014272893778979778, 0.11941114813089371, 0.13276739418506622, -0.03918734937906265, 0.14970357716083527, -0.03341752663254738, -0.07549415528774261, -0.09065620601177216, 0.14298710227012634, -0.07514635473489761, 0.1430073082447052, 0.043511297553777695, 0.07207154482603073, 0.1265607476234436], "gnn_layers.0.w_self.weight": [[0.053258899599313736, 0.0074530900456011295, -0.06323038041591644, 0.014457200653851032, 0.03845199942588806, 0.017641374841332436, -0.05852043256163597, 0.0744645744562149, 0.09016798436641693, 0.05884091556072235, -0.019419874995946884, -0.0019569923169910908, 0.06757462024688721, -0.0021861300338059664, 0.023867737501859665, 0.07157482206821442, -0.08979697525501251, -0.017492709681391716, 0.09831121563911438, -0.014513465575873852, -0.05415460839867592, 0.0063374885357916355, 0.023161891847848892, -0.046776603907346725, -0.018559904769062996, 0.051168814301490784, -0.07424473017454147, 0.03023119457066059, 0.04783908650279045, -0.019925126805901527, -0.027970552444458008, 0.050829071551561356, 0.04743460938334465, -0.05431751534342766, 0.03396337479352951, -0.06273428350687027, 0.020770518109202385, 0.030709845945239067, 0.00018469736096449196, -0.07232408970594406, -0.012596437707543373, 0.007540201768279076, 0.0935637354850769, -0.012413057498633862, 0.09680850803852081, -0.019972579553723335, -0.00566053856164217, -0.04398370906710625, -0.05099661648273468, -0.043913666158914566, 0.09052722156047821, 0.05174102261662483, 0.05279028043150902, -0.036801815032958984, -0.045071255415678024, -0.060284342616796494, 0.027092454954981804, 0.00249309279024601, -0.030901316553354263, -0.011401796713471413, -0.03904202580451965, 0.09283235669136047, 0.10293895751237869, -0.032614823430776596, -0.050977252423763275, 0.03365074470639229, -0.09997586905956268, -0.04245835170149803, 0.045312441885471344, 0.00956972036510706, 0.05139579996466637, -0.06727661192417145, 0.052546389400959015, -0.07396496832370758, -0.03280610218644142, -0.04979568347334862, -0.06544829159975052, 0.018126895651221275, -0.010025841183960438, 0.06081131845712662, 0.04035404324531555, 0.08781659603118896, -0.07084282487630844, -0.051034774631261826, -0.08702044188976288, -0.05674826353788376, 0.060107506811618805, 0.0643654465675354, 0.05974762514233589, 0.00567432027310133, -0.07459017634391785, -0.07323319464921951, -0.09449918568134308, 0.09030748158693314, -0.002759800059720874, 0.043930117040872574], [0.026572898030281067, 0.04718273878097534, 0.04336562752723694, -0.08686143904924393, -0.03841867297887802, 0.06883610785007477, 0.09378304332494736, 0.07942808419466019, -0.06498528271913528, 0.011239026673138142, -0.005219755228608847, 0.0023506302386522293, -0.05150776356458664, -0.07162050902843475, -0.013116275891661644, -0.0794970691204071, 0.0765308365225792, -0.0651090070605278, -0.055911626666784286, 0.025627003982663155, 0.07757233828306198, 0.06878511607646942, -0.09262446314096451, 0.09515306353569031, -0.1020498126745224, -0.008825401775538921, -0.05316508933901787, 0.04186510294675827, -0.03170357272028923, -0.03967302665114403, -0.04266946017742157, 0.010799185372889042, -0.02643321268260479, 0.048145443201065063, 0.01215366180986166, 0.07855082303285599, 0.06704738736152649, 0.0012287783902138472, -0.03481946885585785, -0.03400309011340141, -0.054604917764663696, -0.10039100795984268, 0.03889771178364754, -0.015768134966492653, -0.06321489810943604, -0.03197859227657318, -0.0496271476149559, -0.022559622302651405, -0.06845905631780624, -0.006004326976835728, 0.09146323055028915, -0.019891809672117233, -0.02773241326212883, -0.07919485867023468, -0.033481769263744354, 0.06783835589885712, -0.06855213642120361, -0.0031400886364281178, -0.06342150270938873, -0.06382368505001068, -0.06423802673816681, 0.02307739481329918, 0.021730056032538414, 0.05113031715154648, -0.08408524841070175, 0.05033257603645325, 0.013141392730176449, 0.08749853074550629, -0.01699419878423214, 0.05112587288022041, 0.05421413481235504, -0.07774990051984787, 0.006178140640258789, 0.07406915724277496, -0.03830643743276596, -0.10062184184789658, 0.10109483450651169, -0.04600658640265465, 0.05189179256558418, -0.02748028188943863, -0.01852971501648426, -0.1041901707649231, -0.02695072628557682, -0.015337947756052017, -0.03873739764094353, -0.015067392028868198, 0.036132343113422394, 0.06479601562023163, 0.045908551663160324, 0.05519180744886398, -0.016213031485676765, -0.04389554634690285, -0.0076256548054516315, -0.09654168039560318, -0.00823645107448101, -0.030455274507403374], [-0.045599281787872314, 0.049954529851675034, 0.049109846353530884, -0.05601273477077484, -0.025935448706150055, 0.009604908525943756, 0.09496568143367767, -0.01931074634194374, 0.02391357161104679, 0.024449724704027176, 0.021258220076560974, -0.050801537930965424, -0.05183323845267296, -0.06362760066986084, 0.01798972487449646, 0.03461823984980583, 0.0349123515188694, -0.09027713537216187, -0.09848405420780182, -0.046838950365781784, -0.07113976776599884, -0.008573422208428383, -0.028108680620789528, -0.022851798683404922, 0.0545809380710125, -0.09363271296024323, -0.052722375839948654, 0.07539283484220505, -0.019312188029289246, -0.0639151930809021, 0.09220334887504578, 0.04298441484570503, -0.022404329851269722, 0.03662584349513054, 0.08509833365678787, -0.02210538648068905, -0.06216507405042648, -0.009493241086602211, 0.015470984391868114, -0.07521387934684753, 0.07431398332118988, -0.08093902468681335, -0.07216406613588333, -0.08021126687526703, 0.04086733236908913, -0.08084410429000854, 0.028129754588007927, -0.09283559769392014, 0.012659718282520771, 0.07388561218976974, -0.06378854811191559, -0.08459606766700745, 0.07636360079050064, 0.02116229757666588, 0.009283128194510937, 0.004257374908775091, 0.01957075111567974, -0.08621535450220108, 0.04626380652189255, 0.05603880435228348, 0.07576245069503784, 0.04126685857772827, -0.05878109112381935, -0.04172736033797264, -0.0014478355878964067, 0.0241047665476799, -0.07641530781984329, -0.10116387903690338, 0.016654325649142265, 0.09680359065532684, 0.04089392349123955, 0.0005885621067136526, -0.010366440750658512, -0.03907524794340134, -0.058399248868227005, -0.008239935152232647, 0.029455825686454773, -0.004087538458406925, 0.04092007875442505, -0.09583335369825363, -0.0351935513317585, -0.015509114600718021, 0.052023742347955704, -0.08479883521795273, -0.001653826329857111, -0.0797104611992836, -0.00022363875177688897, -0.0506417490541935, 0.05260714516043663, 0.0004431595152709633, -0.07255856692790985, 0.0002537740219850093, -0.02761540561914444, 0.10604679584503174, 0.03584692254662514, -0.027234524488449097], [-0.06303290277719498, 0.01694454438984394, -0.09114064276218414, 0.03722836449742317, 0.008312549442052841, -0.08717707544565201, 0.06076914444565773, 0.038488369435071945, 0.016628237441182137, 0.002711639506742358, 0.006455007009208202, 0.008398178964853287, 0.00460595078766346, 7.87583994679153e-05, 0.06041484326124191, 0.02953566238284111, 0.1044696718454361, 0.09207935631275177, -0.09331296384334564, 0.07330087572336197, -0.03986935317516327, 0.08064146339893341, -0.04002830386161804, -0.01692011207342148, 0.042599212378263474, 0.07213116437196732, 0.08589818328619003, -0.036211077123880386, 0.08266865462064743, 0.0972212627530098, 0.0646824836730957, -0.08249060809612274, 0.03145279362797737, 0.014421258121728897, 0.007577934302389622, -0.0855792686343193, -0.015541509725153446, -0.0017317809397354722, 0.0456431582570076, 0.07760895043611526, -0.002475098939612508, 0.0850847065448761, 0.03354351967573166, -0.033521831035614014, -0.0021815085783600807, 0.07633324712514877, 0.030820153653621674, -0.020479438826441765, -0.025050334632396698, -0.02218097448348999, -0.07017862051725388, 0.08788283169269562, -0.05497828498482704, 0.10372209548950195, -0.04497510939836502, -0.02368922159075737, 0.022811494767665863, -0.039034027606248856, 0.004773711785674095, 0.010349568910896778, 0.07390321046113968, -0.008722958154976368, -0.04298275709152222, 0.05750710517168045, 0.024102307856082916, 0.060623351484537125, 0.08783096820116043, 0.028691750019788742, 0.05091413855552673, 0.058325108140707016, 0.0301386546343565, 0.08704820275306702, 0.06841717660427094, 0.10528216511011124, -0.017188141122460365, -0.06001005321741104, -0.06594939529895782, 0.08927195519208908, 0.04442296549677849, -0.10083352029323578, -0.006106466054916382, -0.028550948947668076, 0.011450674384832382, -0.08576101064682007, 0.019606057554483414, -0.07760743051767349, 0.01891344040632248, 0.08274078369140625, 0.0966644138097763, -0.0023117472883313894, -0.011209238320589066, 0.032390911132097244, 0.06106715276837349, 0.016793303191661835, -0.04452519118785858, -0.06358438730239868], [0.10633393377065659, -0.06647222489118576, -0.007888659834861755, 0.02561885677278042, 0.10196085274219513, 0.00895137619227171, -0.007445972878485918, -0.10298097133636475, 0.008208170533180237, -0.08021201938390732, 0.08840920776128769, 0.0022215801291167736, 0.0713476836681366, 0.0609525702893734, -0.038051359355449677, 0.02127557061612606, -0.058176323771476746, -0.03618229180574417, 0.06072245538234711, -0.013630236499011517, -0.03730065003037453, -0.05058642476797104, 0.0731310322880745, -0.10329179465770721, -0.007593749091029167, -0.05086394399404526, -0.08064620941877365, -0.047978583723306656, -0.08355303853750229, -0.03372621536254883, -0.003510645590722561, -0.09551608562469482, 0.06570049375295639, -0.06327316910028458, 0.08808878064155579, -0.06704698503017426, 0.024085137993097305, 0.05144406110048294, 0.018112238496541977, -0.0710001140832901, 0.06764708459377289, -0.07474282383918762, 0.03589252382516861, -0.009255141019821167, 0.09462226182222366, -0.09670013189315796, -0.04496404156088829, 0.07990410178899765, -0.00013176938227843493, 0.016693348065018654, -0.06842714548110962, 0.031229237094521523, -0.014832734130322933, 0.09281565994024277, -0.0788111612200737, -0.05719200149178505, 0.06810756027698517, -0.059676237404346466, 0.06188857555389404, 0.06981730461120605, 0.07114753872156143, 0.09735722839832306, -0.03943657875061035, 0.005852496717125177, 0.051640577614307404, 0.0456688329577446, 0.04218769446015358, 0.014653513208031654, -0.06932005286216736, -0.027751537039875984, -0.07383257895708084, -0.05694969370961189, -0.07454821467399597, 0.09230467677116394, -0.07351752370595932, -0.06716907024383545, -0.013564009219408035, 0.0748220905661583, -0.05823664367198944, -0.09953144192695618, 0.1067999005317688, 0.008271009661257267, 0.10105367004871368, 0.01578519493341446, 0.08855115622282028, 0.10258957743644714, 0.03250279650092125, 0.0418110229074955, 0.06320731341838837, -0.00018220904166810215, -0.09849308431148529, -0.026637237519025803, -0.04822368174791336, -0.03911016136407852, 0.06596342474222183, -0.009204433299601078], [0.005433189682662487, 0.055097728967666626, 0.029914889484643936, 0.003741733729839325, 0.07344318926334381, -0.025994664058089256, -0.02752026729285717, -0.001233882736414671, 0.011018002405762672, 0.06451621651649475, 0.10283119976520538, -0.06627664715051651, 0.05147276446223259, -0.042679138481616974, -0.05456108972430229, 0.04490616172552109, 0.057847775518894196, -0.06561531871557236, -0.08123093098402023, -0.062393493950366974, -0.08367600291967392, -0.0495515875518322, -0.09291882067918777, -0.0540376752614975, -0.07988766580820084, -0.02156365104019642, -0.011754637584090233, -0.041193630546331406, -0.09618090838193893, 0.0954345241189003, -0.047317590564489365, -0.08484995365142822, 0.0493917316198349, -0.046911612153053284, 0.09857430309057236, -0.08245828002691269, 0.08141157776117325, -0.020500965416431427, 0.0006071997922845185, -0.08122804760932922, -0.014861378818750381, 0.0658436119556427, 0.040615182369947433, -0.09308981150388718, 0.06629286706447601, -0.04767456278204918, 0.004538628272712231, 0.009925344958901405, 0.0026447628624737263, -0.017394647002220154, 0.004395260941237211, 0.06393952667713165, 0.06953098624944687, -0.052022892981767654, 0.05298742651939392, 0.0836803987622261, -0.04516173154115677, -0.007189509458839893, -0.08795145153999329, -0.08776091784238815, 0.013070822693407536, 0.026825841516256332, 0.06372986733913422, 0.028370646759867668, 0.042146094143390656, -0.06768637150526047, -0.08802508562803268, -0.002361167687922716, -0.024971922859549522, -0.06310668587684631, -0.0012127549853175879, 0.09145965427160263, -0.001525132916867733, -0.09286463260650635, 0.002015443053096533, -0.04912593588232994, -0.08943940699100494, 0.07898883521556854, -0.07108505070209503, 0.02116210386157036, -0.06990109384059906, -0.016061576083302498, 0.04506336897611618, -0.050813574343919754, 0.09448956698179245, 0.07335305213928223, 0.04819941520690918, 0.06802796572446823, -0.05755234509706497, -0.023641448467969894, 0.015154487453401089, 0.046470995992422104, -0.058848798274993896, 0.10775451362133026, -0.07428036630153656, -0.07125303149223328], [-0.09470649063587189, -0.09583966434001923, -0.005962984170764685, -0.04371216520667076, -0.0773872509598732, -0.04085676372051239, -0.08891341835260391, -0.09964035451412201, 0.054246727377176285, 0.06813371181488037, -0.07625553756952286, -0.03962785005569458, -0.004084295593202114, -0.0496978759765625, 0.08584094792604446, 0.06126538664102554, -0.012013648636639118, -0.013480324298143387, 0.03177453577518463, 0.024194424971938133, 0.09175985306501389, -0.014921127818524837, -0.044242288917303085, -0.021762752905488014, 0.09902232140302658, 0.04481734335422516, -0.01562097854912281, -0.009613764472305775, -0.06573373824357986, -0.003677673637866974, 0.08136075735092163, 0.08318984508514404, 0.01591646671295166, 0.04499761387705803, 0.056179389357566833, -0.06492430716753006, 0.017434393987059593, 0.01812378689646721, 0.02439141646027565, 0.03840015083551407, -0.0019090905552729964, 0.015376166440546513, 0.02412121184170246, -0.08421521633863449, -0.05422500520944595, 0.0728365033864975, -0.09634393453598022, -0.06032295897603035, -0.016351085156202316, 0.0019067639950662851, -0.024629339575767517, -0.0035500810481607914, 0.09370438754558563, 0.0411805622279644, -0.06125609576702118, -0.01756114885210991, 0.04730935022234917, 0.040555570274591446, 0.0947762131690979, -0.03414486348628998, 0.08230102062225342, 0.08933597803115845, 0.03239564225077629, 0.007310385350137949, 0.004804274998605251, 0.10253572463989258, -0.04890206456184387, -0.06713489443063736, -0.040029268711805344, 0.09270139038562775, 0.059978947043418884, -0.04628783091902733, -0.04791451618075371, 0.008489732630550861, 0.056777212768793106, 0.05687285587191582, -0.08478305488824844, -0.04623186215758324, 0.012453305535018444, 0.00040803017327561975, 0.07316768169403076, -0.018330976366996765, -0.009070830419659615, 0.0911828950047493, -0.08582382649183273, -0.07327161729335785, -0.09897734969854355, 0.023574234917759895, -0.06980875134468079, -0.05343525856733322, 0.000981735298410058, -0.11413082480430603, 0.09771938621997833, -0.09098684042692184, -0.07937336713075638, 0.05532504990696907], [-0.056374795734882355, -0.0838545635342598, -0.05646534264087677, 0.04480677843093872, -0.03331181779503822, -0.013995659537613392, 0.054146770387887955, 0.05958908423781395, 0.10145174711942673, 0.10631053149700165, -0.046563636511564255, -0.04967772960662842, -0.04812701791524887, 0.0032305382192134857, 0.033659763634204865, -0.08818725496530533, 0.013119282200932503, -0.07744397968053818, 0.06169537827372551, -0.03240907937288284, 0.04842108488082886, 0.008003540337085724, 0.04607921838760376, -0.01784661039710045, 0.0933709442615509, 0.016501570120453835, -0.05395504832267761, 0.11032155901193619, -0.017855197191238403, 0.022646646946668625, 0.07401924580335617, 0.07913438975811005, 0.0578063540160656, -0.06384196132421494, 0.0715271532535553, 0.10629361867904663, 0.07748047262430191, -0.07415509223937988, -0.06629763543605804, 0.10272178053855896, 0.056454118341207504, 0.044352445751428604, 0.026148661971092224, -0.08874969929456711, -0.007524155080318451, 0.02477969415485859, -0.019129307940602303, -0.06590571254491806, 0.036377280950546265, 0.0186813585460186, -0.01116624940186739, -0.029166679829359055, -0.05412569269537926, -0.02790289744734764, -0.08917910605669022, -0.03125030919909477, -0.03242342546582222, 0.007414387073367834, 0.0848565325140953, 0.021392714232206345, -0.0037361595313996077, 0.09438341856002808, 0.042016174644231796, -0.07285995781421661, -0.02847709320485592, 0.032787468284368515, -0.08915168046951294, -0.07040417194366455, 0.05144014209508896, -0.0803176760673523, 0.04202113673090935, 0.07857248187065125, 0.045028600841760635, 0.0022268937900662422, -0.01030284259468317, 0.04918277636170387, -0.06888037174940109, 0.053399667143821716, 0.03998364135622978, 0.06916109472513199, -0.09636065363883972, 0.05346912518143654, 0.007283380255103111, -0.004321753513067961, -0.011509510688483715, 0.008433464914560318, 0.07315011322498322, -0.05510145053267479, 0.11189567297697067, 0.002137721749022603, -0.031214967370033264, 0.03889867290854454, -0.010256893932819366, -0.061943698674440384, -0.09326893836259842, 0.037135329097509384], [-0.08977001905441284, -0.09443309158086777, -0.0287057813256979, -0.008985419757664204, 0.0343475267291069, 0.04263945668935776, -0.08219874650239944, 0.09634377807378769, 0.08133604377508163, -0.08842766284942627, 0.07850872725248337, 0.04301837086677551, 0.009737856686115265, 0.03908495977520943, 0.08656483888626099, 0.01956874132156372, 0.025497760623693466, 0.002512690844014287, 0.06173444166779518, 0.023273328319191933, -0.0765075832605362, -0.09423419833183289, -0.06464038789272308, 0.023175720125436783, 0.061337925493717194, -0.03943123668432236, -0.017156435176730156, -0.08763114362955093, -0.03935239091515541, 0.04953722655773163, -0.033206548541784286, 0.036036983132362366, -0.024725714698433876, 0.06905750185251236, 0.0639861673116684, 0.07645491510629654, 0.04446396976709366, 0.051755450665950775, -0.028088876977562904, -0.04236752167344093, 0.002150949090719223, 0.05101786181330681, -0.07129240036010742, -0.06266986578702927, -0.025746608152985573, -0.004650593735277653, -0.03172784671187401, 0.01647299900650978, 0.09386910498142242, -0.07467029988765717, -0.011843846179544926, 0.0397428534924984, 0.0807746946811676, -0.05358954891562462, 0.008293832652270794, 0.07944847643375397, 0.07950114458799362, 0.09550157934427261, -0.08398044109344482, 0.03994229435920715, 0.029794270172715187, -0.08355513960123062, -0.02599388174712658, -0.058710597455501556, 0.022969156503677368, -0.03691479563713074, -0.0629979744553566, -0.036534905433654785, -0.045531511306762695, -0.026770977303385735, -0.0728583112359047, -0.016507599502801895, 0.01654067263007164, 0.057203613221645355, 0.05182843655347824, 0.07820654660463333, 0.1085977554321289, 0.06113981455564499, -0.02898997627198696, 0.09637200832366943, -0.04919546842575073, 0.0455341637134552, -0.047659922391176224, -0.06965522468090057, -0.02893177419900894, 0.02127382904291153, 0.1112218052148819, 0.03335244581103325, -0.048340439796447754, -0.015552286058664322, 0.010834556072950363, 0.03288571909070015, -0.07841505110263824, 0.0217876173555851, -0.01231746282428503, 0.04494398459792137], [0.04897315800189972, 0.049395911395549774, -0.043864283710718155, -0.04995855316519737, 0.09944556653499603, -0.051498446613550186, -0.08453631401062012, 0.04957456514239311, 0.049824297428131104, 0.02489350736141205, 0.06503801792860031, -0.022530732676386833, 0.09283390641212463, 0.0011833986500278115, 0.07335582375526428, -0.0185210220515728, 0.03861113265156746, -0.021613311022520065, -0.006533945444971323, -0.05368654057383537, -0.004099918529391289, -0.09393903613090515, 0.023393278941512108, 0.058777570724487305, 0.05065661668777466, 0.011063993908464909, 0.03914535418152809, 0.00338661833666265, 0.10115177929401398, 0.03729057312011719, 0.03264229744672775, -0.03600436449050903, -0.002182893455028534, -0.030920222401618958, 0.035630010068416595, -0.023090913891792297, -0.035199958831071854, 0.04544767364859581, -0.021161319687962532, 0.035785041749477386, 0.07176415622234344, -0.035960469394922256, -0.08600717037916183, 0.029637916013598442, -0.06804841011762619, 0.09691743552684784, 0.020260123535990715, -0.06805945187807083, -0.00036513034137897193, 0.08574804663658142, 0.07788567990064621, -0.0189039446413517, 0.09193182736635208, 0.10095962136983871, -0.07938934117555618, 0.03516777977347374, -0.023957036435604095, 0.10038866847753525, 0.02778918854892254, 0.05609288439154625, 0.0529545359313488, -0.09930284321308136, -0.057781584560871124, 0.07240626960992813, 0.07514770328998566, -0.07153939455747604, 0.01274257805198431, -0.02745060995221138, 0.024972423911094666, 0.02732663042843342, 0.0425211526453495, 0.07198413461446762, -0.0677347183227539, -0.014728439040482044, -0.09460529685020447, -0.09687704592943192, -0.030572321265935898, 0.06879150867462158, -0.07387576252222061, 0.013642754405736923, -0.011374128051102161, 0.06516208499670029, 0.018056118860840797, 0.08700067549943924, -0.06694380193948746, -0.03396223485469818, -0.0529530867934227, -0.06454574316740036, 0.03650742396712303, -0.025266317650675774, 0.09324800968170166, -0.06841255724430084, -0.09696688503026962, -0.0974576324224472, 0.01980784721672535, -0.0157729834318161], [0.0265820249915123, -0.08026763051748276, -0.06713413447141647, -0.04576444253325462, 0.014284975826740265, 0.06167899817228317, 0.06269820779561996, -0.0010945359244942665, 0.09968096762895584, -0.0019963195081800222, -0.0929078683257103, 0.04904882609844208, -0.015504701063036919, -0.04774543642997742, -0.03517768159508705, 0.052459049969911575, -0.04235100373625755, -0.08784565329551697, 0.04589211195707321, 0.06911415606737137, 0.09065746515989304, 0.07485491782426834, 0.004425020422786474, 0.09169109165668488, -0.010352365672588348, 0.0037354694213718176, -0.05258840695023537, 0.09149757027626038, 0.005303145851939917, 0.09398999065160751, -0.07624293863773346, -0.021560657769441605, 0.007500454317778349, -0.09341707825660706, 0.03555086627602577, 0.04564144089818001, 0.0963728204369545, -0.0015609520487487316, -0.04831238463521004, -0.02107938751578331, -0.0297904834151268, 0.05801692232489586, 0.03234795853495598, 0.05250222980976105, -0.0008009435259737074, -0.04465208202600479, 0.06837143748998642, -0.048642124980688095, 0.01395453978329897, 0.07032382488250732, 0.04241044074296951, -0.09325984120368958, 0.006326667033135891, -0.027857989072799683, -0.061845675110816956, -0.09374326467514038, 0.04006332531571388, -0.031147751957178116, -0.09541548043489456, -0.03352140262722969, 0.023720914497971535, 0.06896894425153732, -0.022274702787399292, 0.002459458075463772, -0.023495374247431755, 0.010432528331875801, 0.07619690895080566, 0.06099054589867592, -0.09478344023227692, -0.09491875767707825, -0.06633315235376358, -0.039069272577762604, 0.043504539877176285, -0.001901600044220686, 0.0027519932482391596, -0.05474390089511871, -0.05619840323925018, -0.009390563704073429, 0.07092061638832092, -0.04189088195562363, -0.035264987498521805, -0.04159265011548996, 0.05123736336827278, -0.009248661808669567, -0.06219141185283661, -0.006903796456754208, -0.06528428196907043, -0.005211781710386276, -0.006646951660513878, 0.03225225210189819, -0.09220299124717712, -0.03330472484230995, 0.031117063015699387, 0.06615591794252396, -0.03853985667228699, -0.06437511742115021], [-0.04981517419219017, -0.08649495989084244, 0.06309136003255844, 0.030264008790254593, 0.09771713614463806, 0.03721946105360985, -0.0733356848359108, 0.021655485033988953, 0.032691989094018936, -0.09584596753120422, -0.08693023025989532, -0.029382729902863503, 0.08072634041309357, -0.04848920553922653, -0.02386580780148506, 0.09318244457244873, -0.05760795623064041, -0.09008242934942245, -0.08883635699748993, -0.047062765806913376, 0.025043362751603127, -0.05543302372097969, -0.09009797126054764, 0.0459599569439888, -0.09797624498605728, 0.04743264615535736, 0.056624967604875565, 0.05677051842212677, -0.09831986576318741, -0.08716116100549698, 0.08835634589195251, 0.05513637885451317, -0.0009271247545257211, -0.020594995468854904, -0.043714702129364014, 0.029237117618322372, 0.028967872262001038, 0.030301669612526894, 0.023084914311766624, -0.007752717938274145, -0.05395347625017166, -0.07479646056890488, -0.0028574762400239706, -0.06003419682383537, -0.008593386970460415, 0.043349526822566986, -0.04454675689339638, -0.027283914387226105, -0.0434197261929512, -0.03479550778865814, -0.033538270741701126, -0.023924538865685463, -0.07248856872320175, -0.020702514797449112, 0.06986211985349655, 0.01939571648836136, 0.0927765890955925, 0.06269688904285431, 0.0882682129740715, -0.0557006299495697, -0.0810137689113617, -0.08828335255384445, -0.049303583800792694, 0.06673896312713623, -0.07853146642446518, -0.02465594932436943, 0.0968601405620575, -0.03519490361213684, -0.03584929555654526, -0.06298518925905228, 0.0778396725654602, 0.051238879561424255, 0.08742310106754303, -0.05252300575375557, -0.09473788738250732, 0.0664529800415039, -0.07301395386457443, -0.007055535446852446, -0.0688563883304596, -0.09572282433509827, -0.03563541918992996, -0.09226576238870621, 0.0562150701880455, 0.055321577936410904, -0.04146534204483032, 0.04934215918183327, 0.011227870360016823, 0.05598948895931244, 0.0700531080365181, 0.06545940786600113, 0.0227371733635664, 0.0035747638903558254, -0.025111254304647446, 0.05258779972791672, -0.07263930141925812, 0.08389575034379959], [0.03830385580658913, -0.0869356021285057, 0.08130892366170883, -0.09575498104095459, 0.07052123546600342, -0.0940994992852211, 0.04426921159029007, -0.06014512479305267, -0.018155988305807114, -0.058290332555770874, -0.0665011927485466, 0.0002903138811234385, 0.05821771174669266, -2.486842276994139e-05, 0.05452306941151619, -0.004074383527040482, -0.08043643832206726, 0.027820412069559097, -0.009276623837649822, -0.0037390808574855328, 0.0396977961063385, -0.08511822670698166, 0.09808859974145889, 0.09672936052083969, -0.08182959258556366, -0.07339975982904434, -0.05454271286725998, -0.050020184367895126, -0.06163874641060829, 0.10153999924659729, -0.03361630067229271, 0.09499741345643997, -0.010690083727240562, -0.05260416120290756, 0.08887305855751038, 0.015550264157354832, -0.10083163529634476, -0.04975106567144394, -0.06557774543762207, -0.0501047819852829, -0.024732917547225952, 0.04928489029407501, 0.05334388092160225, 0.0914408341050148, 0.019169293344020844, 0.06942965090274811, 0.07237091660499573, -0.06312408298254013, -0.02801496535539627, -0.05818459019064903, 0.04916597530245781, 0.056260526180267334, 0.04123043641448021, -0.04868214204907417, -0.06007012352347374, 0.03298434987664223, -0.03490827605128288, 0.040975555777549744, -0.0040091536939144135, -0.04508974403142929, -0.05610377714037895, -0.04284109175205231, -0.027679935097694397, -0.03105790540575981, -0.08246219903230667, 0.07426980882883072, -0.05255566164851189, -0.005715851206332445, -0.02022598683834076, -0.017381684854626656, -0.016869332641363144, 0.0078814048320055, 0.057313039898872375, 0.015964161604642868, -0.05252324417233467, -0.03251819685101509, 0.06747402250766754, -0.06512612104415894, 0.06913238763809204, 0.06798101216554642, -0.07656772434711456, 0.09105980396270752, 0.02832181379199028, -0.08530702441930771, 0.08748773485422134, -0.07855183631181717, -0.09551656991243362, 0.06262826919555664, -0.06409873068332672, 0.024967610836029053, 0.0998762771487236, -0.08666720986366272, -0.018467750400304794, 0.0025102104991674423, -0.026865797117352486, 0.023927435278892517], [0.07119573652744293, -0.04325515031814575, 0.05810900777578354, 0.05711278319358826, 0.050144754350185394, 0.06078777834773064, 0.04774901643395424, -0.02949513867497444, -0.03365934267640114, -0.10352989286184311, 0.029012378305196762, -0.003514071460813284, -0.054872412234544754, 0.0012367344461381435, 0.039862725883722305, 0.03417666628956795, 0.08597992360591888, 0.0198214054107666, -0.09450814127922058, 0.057160329073667526, -0.009080139920115471, -0.01564728282392025, 0.02455177716910839, -0.0010303836315870285, 0.0030844607390463352, 0.03820289298892021, 0.06804760545492172, -0.06625624001026154, 0.08400328457355499, 0.015145343728363514, 0.04760388284921646, -0.08988601714372635, 0.04190721735358238, 0.002105885185301304, -0.04091734439134598, -0.06708751618862152, -0.06260325759649277, 0.003357852343469858, -0.031981758773326874, 0.03955051302909851, -0.00020150872296653688, 0.004989332053810358, -0.04608626663684845, -0.028960656374692917, 0.05627959966659546, 0.047107186168432236, 0.04161510989069939, 0.07986244559288025, -0.012318642809987068, 0.09350265562534332, -0.07781045138835907, 0.07053986936807632, -0.09793702512979507, 0.00032317612203769386, 0.09862405061721802, -0.08622812479734421, -0.06589052081108093, -0.020904378965497017, 0.07262004166841507, -0.002270127646625042, 0.035653963685035706, -0.05254484340548515, -0.047696154564619064, -0.03841513395309448, 0.06716082990169525, 