{"embedding.weight": [[0.07580737769603729, 2.0593868685345847e-23, 2.4827329525578534e-06, 9.542797985164092e-27, -1.6001281437638681e-06, -6.259912312250161e-23, 4.645562125383561e-18, 3.3699012008757693e-22, -1.82398765052745e-22, 3.5734633456740994e-06, 9.390242763153246e-27, 1.084321638700203e-06, 4.261254904491807e-09, -1.4006175503305547e-16, 4.093666187722157e-23, 9.916654575587885e-26, 5.827746157531687e-17, -2.2678999878061025e-20, 6.870919165832726e-27, 0.15967389941215515, 1.4502475679568257e-22, 9.13128587853862e-06, 3.619841105406999e-26, 5.873820696677319e-18, -8.005514848781286e-17, -9.541719497851986e-11, -3.163742690048821e-07, 4.1215184864995535e-06, -2.1383016268930703e-20, -0.03580091521143913, 0.07413376867771149, 0.17140498757362366, 0.012174881994724274], [7.53230334918542e-18, -2.4363612283195835e-07, -2.2913672708909684e-15, -5.643009899358731e-07, -1.4638020218171732e-07, -6.73312982494017e-21, 8.056947997658881e-09, -1.3129563740221784e-05, -2.0135581195345522e-17, 1.4912843797195734e-26, 6.758806989637378e-07, 1.5034240519185005e-09, -9.804293665590796e-26, -5.787262573519215e-25, 8.886212808144377e-24, 1.4165803305159124e-26, -2.0448472154182751e-23, -1.048039848683402e-05, -7.088578665432082e-24, -4.859638451550362e-23, -7.741841301367458e-08, 1.6819316234427166e-21, -4.731533688320839e-21, -1.1902336893854226e-07, -2.9972150364745202e-21, -2.357362657314232e-25, 1.4440590329657267e-18, 1.2447111936774379e-17, 9.373252055109467e-26, -5.852849653820158e-07, -1.4450202456828265e-07, 1.0462148954707417e-17, -5.354947041347202e-10], [-0.004678874742239714, 6.770195432759502e-20, 9.96849196070737e-13, -1.2961500033270568e-05, 0.03806304559111595, -0.04909052327275276, 0.12845973670482635, -0.004296858794987202, 3.1863225973502046e-29, -1.0616658003555527e-26, -2.6102398020810824e-11, 6.122943574382589e-08, -4.002900411137489e-08, 6.019290374090687e-28, 5.328334736987017e-06, -3.316820766485762e-06, 1.1535897011816323e-19, -5.210473941244769e-16, -0.052657924592494965, 0.10569102317094803, 0.13093048334121704, -1.3765201495410783e-18, -8.368762571819843e-09, 9.973136682814299e-14, -8.917921832107822e-07, -7.435496172547573e-06, 2.6380930969854565e-28, -3.717740124251511e-24, 5.97332882534829e-06, -0.12898916006088257, 0.12413787841796875, 0.07462112605571747, -0.02115763910114765], [0.02428218349814415, -2.0176648831693456e-05, 3.5134455629304284e-06, 0.037036579102277756, 0.10770772397518158, 0.05825531855225563, 0.08055448532104492, 0.025784414261579514, -2.5616586550972495e-29, 2.1636066549479693e-10, 1.401170235192735e-18, 6.842997827980539e-21, -2.517644703825539e-10, -6.902461179793425e-28, -2.8278720896036788e-30, 1.284659136898135e-17, 3.006163318275412e-09, 5.865635557711357e-06, 0.06671039760112762, 0.10561999678611755, 0.14916278421878815, 1.6721051565582457e-07, -6.977460507183555e-24, 0.0038548936136066914, 0.0020145580638200045, -6.300522965328171e-26, -5.256650297269516e-07, -1.364025515302631e-20, -1.9378771298761421e-07, 0.07070266455411911, 0.1387804001569748, 0.03547631949186325, 0.054449357092380524], [-4.57954025893462e-28, -1.9612726021023263e-07, 1.0450299479936032e-13, 2.1946435198528158e-15, 2.5855381473293226e-26, -2.256562993352418e-06, 3.05125541636127e-21, -5.240918099502778e-08, 1.193076743500918e-16, -3.018652428209362e-25, 8.991807298741605e-11, -1.713565507088788e-05, 4.409257664528126e-25, 1.4349569937621709e-05, -2.7771228789235606e-26, 1.1432724441096558e-24, -3.675061676921261e-26, 2.661571571371915e-23, 7.039374059692322e-21, -2.848174140979154e-08, 0.10483085364103317, -7.216179283434296e-24, 1.04645553832515e-13, 3.484240530635803e-23, -7.712259800168781e-20, 1.9230155885452405e-06, -2.1718644660495556e-09, 8.594663995609153e-06, 9.59125827648677e-06, -0.009503311477601528, -0.00781706627458334, -0.010951314121484756, -0.0020074700005352497], [0.0789962038397789, 9.003017220621246e-10, -1.477965666518699e-11, 2.045459842017652e-15, -2.7471787568064994e-23, -6.508640155666346e-23, 2.5375059167394916e-26, 8.139203661002799e-26, 5.033088962963506e-12, 3.9901419057741805e-08, -1.6357572545831415e-20, 7.889795483606576e-09, 1.3924365844044132e-20, -1.3119823819014617e-27, -2.393984175341757e-07, 8.17659998199335e-26, -9.501247108494672e-23, 1.1872871574780675e-09, -2.267372956055169e-09, 0.12137667089700699, -2.7360246801252322e-21, -1.488041123322875e-28, 2.2581657635246614e-27, -6.213220493656024e-10, -1.6584095874350169e-06, 8.458660409792324e-20, 1.3431387078932655e-11, 2.5221778930443175e-22, 4.0749209100441267e-25, -0.14966116845607758, -0.15497499704360962, 0.07802838832139969, -0.0724233090877533], [-0.01043840404599905, 8.873457524316564e-10, -1.6125948646862863e-28, -0.023985613137483597, -0.08572989702224731, 0.01857323944568634, 0.03261541575193405, -0.053341496735811234, -2.357151696052995e-10, 6.905486526846566e-27, 2.4805709470999823e-24, 1.522942909559788e-07, 9.69608561522163e-25, -6.865895074703587e-10, 2.206650656179532e-20, -6.272518230629502e-24, -4.323423989732082e-26, -3.8962095699799065e-23, -0.11548309028148651, 0.08476191759109497, -0.021222863346338272, 1.4074940102304367e-09, 3.303324831449572e-07, 0.0489732101559639, -0.0017527437303215265, -7.736811653558107e-07, 4.030799580651445e-27, 3.690998800424664e-19, 2.339269787326342e-24, -0.09584487229585648, 0.13577306270599365, -0.043485525995492935, 0.06447683274745941], [-0.09044650942087173, 1.296105961456722e-24, -7.978626054845805e-28, -0.16723227500915527, 0.10831881314516068, 0.06709375977516174, 0.05698281526565552, 0.041893813759088516, 1.7052496914526927e-10, -1.2546835673370914e-16, -1.9330985508647336e-18, 1.448873243517831e-20, -1.0526166474892703e-24, -1.4081632904016105e-16, -1.766814961001728e-08, 4.446598563188591e-20, 1.4618854751193702e-22, 4.337288373790216e-06, -0.12417664378881454, 0.0377306267619133, -0.06917592883110046, -2.1414479078885051e-07, -4.677196366398222e-26, 0.003673575585708022, -0.0012940012384206057, 1.394875494128783e-17, -3.7710226052922735e-08, 6.06096358619379e-21, 1.5021044418972451e-05, 0.06441020965576172, -0.026744408532977104, -0.07826867699623108, 0.08408311009407043], [-3.6929176009518456e-19, 9.74220555877809e-16, 2.014735756006303e-08, 0.1284533441066742, -1.5768030833102806e-24, 1.3281915018672082e-17, -8.363131388800106e-20, 3.520188251554955e-25, 7.598875209198586e-22, 2.48265178015572e-06, -1.5131549320192438e-26, -6.576315627171425e-06, 3.526579028800825e-11, -2.237120144848607e-20, -1.3951429309599916e-06, 9.573394671717167e-18, -1.5339062301317335e-27, -3.1346855627574527e-27, -4.592771988086019e-16, 6.0186634760606464e-21, 3.498900014164974e-07, -1.9819589134400747e-25, -1.2873058494733414e-06, 3.660087660720281e-22, -8.497129033868406e-22, 2.545803898026662e-15, 1.488705038354965e-05, -3.210706438494526e-07, -1.005794185442746e-16, -0.11401437968015671, -0.03028021939098835, -0.006956811994314194, -0.03531276434659958], [0.13463866710662842, -2.4622994001170598e-25, -2.5894544819493603e-07, -3.512581521609405e-27, 8.237609270926594e-13, -6.675503715002583e-17, 0.15932589769363403, -6.187240552395029e-23, -2.198063251418283e-23, -6.048454679330462e-07, -4.608277656673105e-26, 1.4465983966260865e-08, 4.352093352366637e-09, -6.441833914988905e-27, 1.4742299048187135e-10, 3.7371897265280066e-23, 3.6785952191088273e-26, 1.6042948118411005e-05, -1.9407778495406092e-08, -3.160246837163757e-23, 7.495129494827779e-08, 7.044207439577121e-10, -1.9008221041477648e-25, -1.8884912221230288e-25, 0.03798118606209755, -1.9761111155368785e-18, -7.679634097664437e-27, -1.7233682001460693e-06, -8.310719749715645e-06, -0.019522495567798615, -0.14993298053741455, 0.09845282882452011, -0.08022686839103699], [0.12975291907787323, 2.4023691823691076e-21, -7.549995088126704e-17, 0.13704341650009155, -0.005149893928319216, -0.0012584237847477198, -0.0009590261615812778, 1.4235335442830828e-28, 8.316568491429669e-22, -1.5193919011835533e-07, 2.1490806690025758e-23, -3.962423988923547e-07, 3.5348429606505885e-27, -1.796611778979129e-24, 1.92953751732506e-21, 8.058175978990494e-18, 3.0025987030057877e-07, -2.1854988517588936e-05, -1.6449622840729013e-28, -3.590182631672611e-27, -9.359267494346568e-08, -7.707771518165068e-18, -2.7581777063573375e-25, 0.00014308294339571148, 1.5324485387255282e-12, 7.245638543982655e-29, 1.9345104964715733e-21, 3.7771011027312688e-22, -2.4811919620703994e-22, 0.12460140138864517, -0.027050582692027092, 0.09859471023082733, -0.010087077505886555], [-0.0219859778881073, 9.039970710100096e-18, 2.2872312911204062e-05, -0.0559074841439724, -0.07502641528844833, -0.12453000247478485, 0.11918600648641586, 0.08981999009847641, 1.7649402566296916e-30, -4.292707705909087e-24, 1.5868956324993633e-05, -8.663946919955993e-29, -7.146222782814935e-23, -8.076349189423127e-08, 1.5474314005742834e-26, 3.181728880363721e-09, -2.5070009996852605e-06, -2.968408282485842e-27, 0.11872448027133942, -0.07059860229492188, -0.06952346861362457, -5.205183903839137e-24, 2.3177529651869534e-25, 0.010645234026014805, 0.00614963797852397, -1.487585070003114e-18, -7.39421061159315e-22, -4.53115695994295e-22, -8.186807309625799e-23, -0.029515715315937996, 0.05775236710906029, -0.11152133345603943, 0.1422092765569687], [-8.285307119201835e-13, 6.1108753612870714e-09, 6.843742272861352e-24, 0.007018354721367359, 0.1174221783876419, -1.979755673315787e-18, 0.07838808000087738, -7.32130866853537e-27, -9.0922369976592e-26, -6.51943366847263e-07, -3.778284330980228e-23, -1.0926106369879562e-05, 2.6759232231572924e-21, -1.1262298091427155e-27, 5.931910962431175e-08, -5.652409790224411e-11, 2.2860385866197916e-15, -3.1091810984311645e-28, 9.680527897664087e-24, 0.1337764412164688, -3.206732213823848e-26, -2.531403148014334e-22, -2.323607885962309e-12, 5.701872817871632e-24, 5.404790767860478e-29, -4.0263541953761293e-25, -2.3617266720066254e-07, -4.278450228338575e-24, -6.796366417685496e-27, -0.10008646547794342, 0.010194889269769192, 0.0305041316896677, 0.12087621539831161], [-0.07258021086454391, 2.3118756908857563e-10, 1.6963569764933385e-27, 0.03846830129623413, -0.06784457713365555, 0.05555607005953789, 0.05863307788968086, 0.161929190158844, 2.211246055594529e-06, 6.024807118042846e-14, 4.356961209337268e-27, -1.1040388438535165e-12, -5.885125720084261e-10, 1.14240617622811e-27, 1.4772257372897002e-07, 1.6625914213364013e-05, -1.1225197351256e-21, -2.499988087750228e-23, 0.014869365841150284, -0.019611867144703865, -0.10693036019802094, -2.2614375438934076e-07, -5.846212474214679e-21, 0.01786709576845169, 0.003778997343033552, -7.465488406404064e-27, -1.1726312954850264e-18, -7.059240414442058e-10, 4.099374069687974e-23, -0.13174791634082794, 0.14095808565616608, 0.11310943961143494, -0.03755498304963112], [0.012627555057406425, -3.8287581381858414e-21, 4.505187507481781e-19, -0.04645952954888344, -0.0007235666271299124, -0.00023782943026162684, -0.01882968470454216, 0.10708343982696533, -1.81920659088064e-05, 2.0899809651989317e-25, -7.790442091828767e-26, -1.428668838343583e-06, 2.145760884546942e-28, 3.424113159242e-27, -2.211718992839451e-06, -1.1243107139735642e-11, -3.040603857584756e-08, -2.118106688306365e-12, 0.08281846344470978, 0.068665511906147, -0.003978352062404156, 2.1201835719205073e-28, 7.418574617637749e-17, 0.02526002563536167, 0.0014532336499541998, 1.963439535757061e-05, -3.285158132274687e-28, -1.6104046264911465e-12, 3.3816286304499954e-07, -0.012031949125230312, -0.05738723650574684, 0.05643284693360329, 0.01486263144761324], [0.02952597662806511, -2.3759653966504146e-11, 2.1305620379052925e-08, 0.11450784653425217, 0.008249242790043354, 0.08988546580076218, -4.676795651903376e-05, -9.733864317240659e-06, -6.137546324535952e-28, -4.0885117513767e-09, 2.7157190629623074e-07, 2.6101885098735237e-26, -1.3567687062732148e-07, -2.2499763706486766e-15, 1.2302003860777821e-26, -1.4578549811780964e-15, 2.594274103927305e-25, 1.000795782979623e-24, -2.894467998615369e-10, -1.8832153727998957e-05, 0.08333832770586014, -1.319923914362802e-17, 4.320457702630318e-23, -0.0007938490598462522, 0.000885814952198416, 3.669144541218687e-22, 9.17558307111932e-10, 2.3158449386873292e-26, -1.1439741598451292e-08, -0.030286110937595367, -0.10028204321861267, 0.08991428464651108, -0.000660416204482317], [0.04280487075448036, 3.948819895203959e-13, 2.7600017915574426e-07, 0.14849548041820526, -2.2545434263370093e-28, -3.0347006027495045e-30, -2.1224743704806315e-06, -8.789681476894293e-25, -2.1320136633181192e-23, -2.0437323655642103e-06, 1.305927449513078e-10, 2.2250224666203744e-12, 5.008670882489241e-07, 9.478440303684402e-14, -1.6054164850401497e-15, 1.626028447530331e-25, 2.0145014718884143e-23, 8.339530573800599e-26, 0.1243383139371872, -1.9070026568999107e-18, 4.597446349925388e-25, -2.8629930669388085e-16, 9.141734770395555e-17, -1.4374093399016582e-26, 0.0011984447482973337, 3.419235749361559e-25, -5.089989020284505e-27, -8.467108431237722e-18, -7.155479408993415e-08, 0.016947032883763313, -0.11527048051357269, 0.09417790174484253, 0.14743123948574066], [-3.722399014804978e-06, 1.6251335832606628e-09, 8.9630771253228e-16, 0.07365065813064575, -0.0063016475178301334, -4.410032124724239e-05, -0.00831812247633934, -8.916612728171458e-07, -1.3273281146611414e-25, -4.936767337720098e-18, -4.256690844567155e-28, 1.049698315734973e-23, 2.500059531200036e-28, -3.7594850255118217e-07, -1.3642295626503653e-11, 3.0455936439466313e-07, 1.4863543698034564e-28, -9.031075209118934e-30, 0.11881876736879349, -5.0722528399660405e-09, 0.1333455890417099, -9.967500127973058e-22, -2.361244961175496e-19, -1.5292372403108434e-12, 1.6804429634368283e-25, 1.941991286003031e-05, 8.045151226152459e-16, -1.8527194223239007e-09, -4.60282300658825e-29, 0.05373707413673401, 0.029830992221832275, -0.016717249527573586, 0.14017720520496368], [0.08033514767885208, -2.1615607323282088e-27, -1.932776967805694e-06, 0.08868028223514557, -0.11844532191753387, -0.08968076854944229, -0.17159613966941833, 0.054414961487054825, -1.6978757720877463e-20, -5.2325972887956596e-08, 4.501529245497631e-25, -8.476405089908398e-22, 1.3461254866342642e-07, 8.758614740145276e-07, -3.723797092902714e-08, -4.469661237078965e-26, -2.5779746328798538e-15, -6.541243935398455e-11, -0.07593214511871338, -0.10820439457893372, 0.06637188792228699, -1.3027509665580988e-15, -1.096984265577805e-12, -0.006202239077538252, -0.0003821615828201175, 3.2934155402841725e-10, 9.659027888122741e-25, 2.312088554390357e-06, 9.102184783671419e-09, -0.1202826201915741, 0.13293185830116272, -0.07758200913667679, 0.049096785485744476], [0.0735151395201683, -9.79116282930436e-27, 3.726380592983247e-10, 0.1432868242263794, 4.657673287056241e-07, -2.915074475887515e-17, 5.176973517796199e-20, 2.1552989563000226e-27, -1.0515223538903537e-13, -3.163697675143205e-28, -8.386260875748024e-27, 5.2574672386855585e-20, -5.191057156297838e-21, -2.083431915878009e-08, 1.2337885157975848e-09, -1.2824428684901887e-21, 1.2075187516558117e-09, -4.844951604354719e-07, -3.179365038973969e-23, 1.2698296814050991e-06, -1.0484565697840646e-23, -1.6053741199905411e-27, -1.2808017345378175e-05, 1.5900110307502026e-25, 0.02195071242749691, 8.18289390320363e-21, -1.5985663139872486e-06, 3.134247125575985e-24, 1.0605143667199459e-15, -0.07082205265760422, -0.03397384285926819, 0.11259511113166809, -0.047062840312719345], [0.05117284879088402, 2.4037884756662323e-21, 9.616218044072866e-09, 0.20460137724876404, -0.018293816596269608, -0.01569301262497902, -0.01207001693546772, -0.006032217759639025, 2.2824873821533073e-24, -2.4986886061173724e-27, 1.8788696252158843e-05, 3.951455503988569e-28, 1.9568780978495832e-27, -1.4585554986012994e-08, -2.213144339216891e-25, 4.136428148305176e-25, 8.267704961406261e-14, -2.218233724650731e-25, -0.013953696936368942, -0.005888007115572691, -0.0036886215675622225, 1.3626605315825992e-17, -1.6595929274929033e-12, 0.0005152171943336725, 0.00010246390593238175, -8.308312371418936e-11, 1.1515288595589252e-24, -3.6265861425022194e-09, 5.4956594794930425e-06, 0.050095733255147934, -0.004866928327828646, 0.14673204720020294, 0.18859976530075073], [-7.693763564064149e-24, 8.059582347186651e-23, 4.170348516265358e-28, 0.16591568291187286, 1.476233750580073e-23, 0.07603111118078232, 8.163313943568434e-18, -6.839367603690682e-21, -7.927259844109358e-07, 2.2766134657272358e-17, 1.786722324028575e-18, -8.37807182162449e-27, 2.0895145709102424e-23, -4.784050041200737e-27, 5.2405525614108113e-23, -3.906513774661897e-26, 2.0416499227263691e-25, 3.790682636946533e-22, -9.144947021866301e-09, -2.0175484678475186e-06, -1.065208607542445e-06, -5.4752394998975186e-17, 1.997967527916608e-21, 0.05049275979399681, -6.49642515782034e-06, 2.773209661910414e-09, 1.496491641717057e-08, -5.008645530324429e-06, 6.954908740951714e-21, 0.0112361591309309, 0.04168768972158432, -0.0010694034863263369, 0.04595893248915672], [-1.4790057321079075e-06, -2.855371405985352e-08, 2.626742534102457e-24, -4.286660298209663e-24, -5.52734036318725e-07, 1.1009016155545873e-27, -6.800234264581206e-10, 0.13875871896743774, -1.9907452412720456e-23, -2.074594643465674e-28, -1.6577949082940968e-11, 4.5710574880786226e-08, 9.77740683083539e-07, -1.1921016266569495e-05, -4.268629254511325e-06, 2.2277595235209446e-06, -1.224444949357927e-24, -1.3115730899894602e-14, 9.387098875112029e-27, -3.854741561453761e-28, -1.7739880852934742e-18, -4.2917259685125396e-24, -1.006706764181739e-17, 0.0003846559557132423, 0.00052496581338346, -5.190728984416637e-07, 1.4500091127800374e-09, 5.3207077632677624e-11, 4.1330476818757234e-08, -0.006116651464253664, 0.014984061941504478, 0.000545795017387718, -0.0003147662791889161], [-0.12920339405536652, 7.3921296461776365e-06, 1.2851310202677269e-06, 0.15173499286174774, -0.06935456395149231, -0.012290166690945625, -0.06203274056315422, -0.032152723520994186, -5.979471411378616e-29, 4.2022415414066927e-07, 2.270035955555822e-20, 2.7994016642764925e-23, 3.8064379865940654e-27, 8.0177848361134415e-22, -2.296959564773715e-07, 3.504684053279451e-26, 1.0539587102006011e-27, 2.803482743729546e-07, -0.04323182627558708, 0.09853766858577728, 0.1131015494465828, -1.7889324226416647e-05, 6.919777320035791e-07, -0.01894465833902359, 0.004226268734782934, -3.6019024084222734e-25, -1.0705870961254312e-24, 4.054952373877541e-09, -2.282555717229222e-25, 0.09464846551418304, -0.08216254413127899, 0.11686258763074875, 0.08662594109773636], [0.14381977915763855, -1.869520349947628e-25, -1.0302717202590947e-13, 0.0749850794672966, 0.04290514439344406, -0.0050658779218792915, -0.12561865150928497, 0.04400778189301491, 4.665953781844218e-18, -9.40816757832863e-10, -6.2507823385811715e-28, -1.5319786328404916e-08, 5.717029686902689e-17, 8.667445428045539e-08, -5.04181869587228e-08, 1.2155072759974913e-21, -3.8186249717853116e-09, 1.9817961210918023e-18, -0.061637092381715775, 0.05940462276339531, 0.1271592676639557, 1.4414277205082492e-28, 4.196098671859838e-24, 0.06680651009082794, 0.0028337817639112473, 1.5617174866785612e-26, -8.017372031023096e-13, -3.322198955486454e-26, 8.862488563124034e-19, -0.028643956407904625, 0.17541669309139252, -0.06279809027910233, -0.13831517100334167], [0.10982755571603775, -6.335136240511885e-27, 1.0861064083655947e-06, -1.359442327223143e-29, 2.0435593968350582e-20, -4.899534111757475e-09, 3.285582743975456e-25, 0.04336043447256088, 6.153125789232203e-23, -3.4915931257373245e-10, -2.865467056100487e-20, -1.7790071638046356e-08, 1.4420885236177128e-05, 1.6799374840485137e-21, 1.7104458176426043e-14, -8.224323514794193e-22, -7.133928543379246e-23, 3.197800468868195e-09, -6.506979275400226e-07, 0.11154346168041229, 2.396619759816942e-28, -1.7598503632143547e-07, -4.239766440150561e-06, 0.014827853068709373, 4.456763235793915e-06, -5.225017740541043e-25, 8.892402439397706e-12, 4.209916824038373e-06, -2.024962703485282e-15, 0.07334843277931213, -0.0023268628865480423, -0.09999318420886993, -0.001425002352334559], [-0.03883175179362297, -3.3009691833285615e-06, 1.292689158130616e-17, -1.329888005274782e-10, -0.006502409465610981, 0.007384453900158405, -0.03615930676460266, 0.15473738312721252, 1.610588884481956e-10, 9.37265940794698e-28, 1.4264923431381112e-24, -2.621504791022744e-07, -2.1689422108925153e-15, -2.1646217572335693e-28, -1.7959990312709987e-24, 1.3740266524564504e-07, 7.576781433987827e-30, 1.2513253750512376e-05, 0.13304300606250763, 0.07922325283288956, -0.015481842681765556, -8.438052626547243e-20, 8.8725096946864e-22, 0.02592659927904606, 0.016608331352472305, 3.0774987180848257e-07, 2.6838618438773665e-08, -9.997251007456399e-28, 1.7310021471761416e-11, -0.01848025433719158, 0.10057064890861511, 0.027741732075810432, -0.04409532994031906], [0.14430882036685944, -1.1926113180183964e-26, -3.342504051317974e-11, -0.10192906111478806, 0.06806892156600952, 0.09830206632614136, 0.02226443774998188, 0.02631049044430256, 4.2258693611074705e-07, -2.366553231197842e-21, -4.4189784752408923e-13, 4.246796379447915e-06, 4.18876933139245e-09, 1.0492128143723427e-26, 9.568251080338541e-09, -1.1194981485785575e-23, -8.562686559798749e-09, -1.613619133422617e-05, -0.04352448508143425, 0.1461712270975113, 0.09280179440975189, -7.357868270219114e-08, -1.1947579836085347e-28, 0.04641209542751312, 0.032339055091142654, 4.278524556866614e-08, -4.586142949847272e-06, 3.4683223726699036e-25, -9.737088468853017e-09, -0.009563619270920753, 0.16174305975437164, -0.11829609423875809, 0.11186251044273376], [0.16193288564682007, -8.916680988953408e-30, -1.5702976511868585e-18, 0.12577898800373077, 0.0648474395275116, 0.02820153348147869, 0.15290439128875732, 0.007708412129431963, 1.3426293045130673e-25, -1.0196080764908156e-29, -3.555446031570957e-21, -7.532457581987396e-25, -1.4107867102579346e-16, 3.622618805820821e-06, 1.7575208403286524e-05, -4.894464760470424e-27, 1.7684692401410794e-25, -2.6106710038220626e-07, 0.016014214605093002, 0.12562084197998047, 0.023234328255057335, -1.6754613106722175e-28, -2.846169756359063e-23, 0.0007195085636340082, 0.00043159534106962383, -1.7590884908713633e-06, -7.49417125578411e-11, -2.662946485543216e-08, 1.516712444527002e-08, 0.01641220971941948, 0.16267229616641998, -0.007460692431777716, 0.16527095437049866], [-6.275636224017944e-07, -1.6115765220092726e-06, 3.7182977700254117e-22, -3.354232126135124e-21, 0.13801534473896027, 0.06915826350450516, -8.976941408579934e-19, -5.486387002926197e-27, 1.7235213817912154e-05, 1.1761761564699214e-09, -9.695268158108595e-25, 3.0552999476375357e-25, -1.961731194155547e-10, -8.547042599597865e-16, -1.8808954451413697e-22, 2.00138520556313e-18, -3.202663378942816e-07, -3.0169608673281945e-13, 0.13245820999145508, -1.936959506565472e-06, 0.011873585171997547, 5.372992462413322e-22, 9.058101568371058e-06, -5.900876169981891e-26, 9.77217808431448e-17, -9.302908665631549e-07, -5.250623491548367e-09, 9.69091451365877e-23, 3.3727852773313334e-26, -0.08668223023414612, 0.03585657477378845, -0.007819932885468006, -0.015872066840529442], [-0.004344251938164234, -1.0266143135595485e-07, 3.535249854489204e-23, 0.07931657135486603, -0.017528340220451355, -0.021587222814559937, 0.07107827812433243, 0.04982497915625572, 2.3127137357970007e-11, 1.367126969853416e-06, 8.54139721185838e-20, 1.54262806972838e-08, -1.3598128520703187e-27, -1.4795778822642618e-15, 5.518521106750995e-07, -5.664355448332216e-28, -2.1767960767249406e-09, -2.1876440936541286e-10, -0.026066647842526436, -0.042568713426589966, -0.05029860883951187, -6.781784816890551e-28, 5.518476427823771e-06, -0.001111876219511032, 0.0016437433660030365, 2.0517689743583334e-26, -3.5980686775195112e-19, -1.0123623436135518e-15, 1.4052574379969362e-16, -0.13602077960968018, -0.02148071490228176, -0.05504647269845009, 0.06923787295818329], [-0.024058872833848, -1.9726095209510446e-29, -4.428388712445142e-26, 0.0140219209715724, 0.0012658799532800913, -0.11642573773860931, -0.1125354990363121, -0.14051838219165802, 1.1338520893227374e-20, 4.418149728735443e-06, -8.171822662994543e-10, 9.795857287401668e-17, 3.7854915717616677e-06, -4.665577790774478e-08, -9.98947049029828e-17, 1.1611172019354142e-26, -1.1893503142346162e-05, -9.4084103284081e-24, 0.010527840815484524, 0.0478191077709198, 0.07430791854858398, -6.749704618022915e-20, 2.1198041336288077e-29, 0.002616072306409478, -1.4999377526692115e-05, -6.307881239957095e-22, -9.282695087969363e-24, 6.232266092087713e-11, 2.1105544036810573e-27, -0.011553843505680561, 0.1207847148180008, -0.13247153162956238, 0.08880273252725601], [0.1199430376291275, -2.9182197636146157e-07, -1.2902948699837059e-27, -6.366818173283044e-28, 6.991979577222103e-30, 3.3399697730097873e-25, -2.7678453295196166e-30, 2.0835974830323606e-21, -2.678511385022096e-28, -4.0310300670337584e-13, 1.3975445991703386e-18, 6.860637588701588e-16, -1.9804708983883756e-07, -4.457629136122081e-25, 6.082938735103025e-15, -1.743847315083258e-05, -7.891582742278439e-23, -4.7212752178893425e-06, -5.442160394206197e-13, 0.10154032707214355, 1.6408499421591484e-27, 1.2033641192023708e-21, -1.1760174439877978e-25, -1.6300004854476351e-26, 1.1126943652659892e-22, 2.2140497768496914e-10, -3.151937532589605e-13, 1.1846682898896777e-25, 3.0916419291315833e-06, -0.04735662415623665, -0.02182593010365963, 0.09374242275953293, -0.030504969879984856], [0.15554176270961761, 8.173263267963193e-06, -1.3759175401930273e-16, 0.020290113985538483, -0.005273669492453337, 9.034764661919326e-05, 0.014467978850007057, 0.016613159328699112, -1.6594608969800213e-18, -5.7418824326305185e-06, 2.4218959424615605e-06, 6.251277302576879e-28, 5.9934661400529166e-12, 8.747355021765143e-27, -1.1408360503593243e-21, -2.0056356731407337e-18, 1.3502351207291951e-17, -2.377963113382567e-21, 0.03999738767743111, -0.06083160638809204, 0.019576789811253548, -4.232848299684108e-17, 1.2352175106201086e-27, 0.020724141970276833, -0.0029117909725755453, 3.2154161999642383e-07, 1.564054542736742e-16, -3.1272059941578334e-10, 4.666022274935283e-26, -0.012637833133339882, 0.008246148936450481, 0.09779737144708633, 0.07674207538366318], [0.13634824752807617, 1.1462034937808594e-26, -3.023877636400647e-19, -0.12432906031608582, -0.013167287223041058, -0.04556436836719513, 0.023400312289595604, 0.02967013604938984, -1.874576006647389e-23, 1.0658320398039853e-24, -1.6319552287574666e-19, 3.9651953289530704e-28, -3.5434890577334954e-08, 1.628782229090575e-07, -1.940379627917305e-23, 1.1873886525623094e-16, -4.48741120224756e-21, 1.0108516024796533e-26, -0.06185181438922882, -0.08749865740537643, -0.02306012623012066, 2.4361557393604016e-07, 1.4566428078101514e-28, 0.0037620868533849716, 0.021216511726379395, -1.4085085886765146e-16, -3.1137441925096332e-18, -8.393489781571909e-29, 2.477142686529987e-07, -0.11119037866592407, 0.03264304995536804, 0.06313449889421463, 0.03416366130113602], [1.1846879117397328e-20, 1.0763592429639707e-16, -1.2481465316350864e-23, -5.4235318458495385e-09, -0.00936183426529169, 0.038631994277238846, 0.16875214874744415, 0.034944724291563034, -3.6291844480729196e-06, 1.5071548708264114e-19, 7.3988826229863595e-28, 5.0933247309481836e-27, 3.870102773362305e-06, -1.7543229091643298e-08, -4.730006906217276e-27, 1.483967842271644e-13, -6.531887660962687e-13, -9.52650509589148e-07, 0.12405961751937866, 0.16872812807559967, 0.014424934983253479, 7.56379927227086e-26, -3.857787007807624e-21, -1.705629943989574e-27, -1.2182055799498607e-14, -1.803056384307308e-26, -1.8243935310495808e-26, -2.5233582498395816e-23, 1.0386708854115412e-11, -0.0481172651052475, 0.15620364248752594, -0.04854820296168327, -0.08551996201276779], [-6.795884842754762e-25, 3.723052307655035e-19, 3.151529924161065e-23, 1.3636806008811344e-27, -5.082396455691196e-06, 8.687615959956929e-09, 1.439538888092784e-08, 4.599252832380086e-18, -1.3787434538633045e-16, 4.663701997693502e-16, 1.7299706112083868e-10, -1.0619292585441483e-29, -4.76455799327716e-23, 1.8942925005977923e-27, -1.3326075710034451e-17, -2.7492667828757676e-25, 2.1314802367555785e-08, 2.384681079041712e-15, -7.876844392740168e-06, 6.469641647083934e-28, -8.315994477285023e-27, 7.034626890402207e-24, 6.074933025956852e-06, 8.539743134861055e-08, -3.6719392545248316e-22, 2.2136175525770172e-20, 1.4694138587278202e-22, -3.5025426599225355e-28, 1.6911722013901453e-06, -6.918818939993798e-08, -7.113526095736857e-25, 1.4401781184194675e-25, 9.567855208591022e-17], [0.08356250077486038, 4.192984448536663e-08, 1.1766227314538092e-16, -0.023789720609784126, -0.1232830062508583, 0.017150776460766792, -0.13937492668628693, 0.16748584806919098, -1.0188655703119435e-27, -1.9052548938412444e-27, -5.872890842271233e-19, -1.796986517921262e-11, 3.37751430379285e-06, 4.1022234352776325e-23, -2.9474135132545598e-08, -6.294066601242321e-09, -3.0497036007659517e-09, 1.7467586786937491e-25, 0.01995057612657547, 0.04514305666089058, -0.07774706929922104, 4.591636081209644e-26, -2.6369488814736997e-09, 0.07973065227270126, 0.07048899680376053, 5.932562173398581e-24, 3.765256224141922e-06, -8.772924020229045e-23, 1.9954250925213746e-12, 0.04239274933934212, -0.016065044328570366, -0.056027889251708984, -0.14878328144550323], [-2.325780812384437e-08, 2.4013037026543054e-21, -8.159571987945847e-28, 5.234947408067516e-21, 0.15683318674564362, -3.685800487262651e-22, -4.034172434330685e-06, -6.168548199158472e-20, -2.708629799716153e-27, 8.046248694881797e-06, -9.953007554075572e-24, -2.6314228793643143e-28, -2.217094697698485e-05, -5.836539844632754e-28, 5.0188788333942683e-26, -4.8797518802786013e-23, 2.5625921384886396e-09, -7.53023560444919e-19, -2.234055784811062e-08, 5.1524927285358045e-24, 4.820290264964272e-27, -4.898957968180184e-07, 4.056681952877351e-25, 9.158222240347478e-22, -1.3742066669919658e-25, -3.3209481831164567e-09, 7.768050406182194e-22, 7.333732968947616e-24, 8.258082412337941e-11, 0.003719356143847108, 0.08717145025730133, -0.006869100965559483, -0.004637370817363262], [0.0806780457496643, -3.6885724813747253e-22, 3.7499779637073516e-07, -2.635568846498515e-12, 1.4089138597642319e-24, 7.605196447645415e-14, 0.09018944203853607, 3.12743217354915e-29, 1.18327811706315e-28, -1.3659786838917944e-17, -7.989827479414664e-23, -8.551246049619946e-27, -1.549166146291758e-20, 1.2522382064616977e-07, -1.1816741544572157e-27, -3.624971989246717e-10, -1.0930752125659637e-07, -4.831986643694108e-06, -2.3437744623519144e-21, -2.646910493250977e-19, 2.3208805544072675e-08, 1.0420950397118601e-17, -1.4454635789290856e-26, 0.04747343063354492, -7.261216410370253e-07, 2.4005088337844303e-21, 7.073909796899497e-24, 1.8768422117432433e-25, 1.0158586519537494e-05, 0.12718643248081207, -0.007522545289248228, 0.07858485728502274, 0.020779388025403023], [-2.259258497656508e-26, -4.124917465917716e-27, 1.233378656783332e-28, 0.034704387187957764, -5.702647798422333e-10, 1.6527694455477633e-26, -3.0690121555210226e-09, 1.4960686608352374e-15, 3.7993968348656343e-28, 4.3491646034068006e-21, -1.5019689176632792e-23, 5.507720857167442e-07, -5.837917544998295e-22, -1.6523953269827465e-18, -3.1976005629985593e-06, -5.476623599065533e-08, 2.2048498217858994e-22, -6.572049325342539e-21, 3.596480718218078e-17, -2.29325666018429e-19, -2.2999522803420424e-28, -7.812873396988786e-20, 7.327974316240216e-08, -7.882863926148813e-26, 5.218594196776394e-07, -2.0483095461261293e-20, 7.620968741907802e-23, 7.150517400411616e-10, -3.0212448223591446e-27, -0.005009347107261419, -1.4469684117557335e-07, -5.9270535528177515e-12, -0.00262818718329072], [1.7455840588354922e-28, 2.359643697925485e-25, -2.0801633127121022e-07, 0.182393878698349, 0.12313030660152435, -0.009095348417758942, -0.05285308137536049, -0.07341185212135315, 1.029908679279365e-26, -2.5642579930902545e-15, -3.391588516564375e-26, 4.883264864474768e-06, -1.1292206501430904e-16, -4.518929045407818e-19, -2.9449326173378372e-21, 1.93927207874367e-05, 1.863741658780782e-06, 4.782144325817046e-25, -0.07652154564857483, 0.1269969642162323, 0.08242529630661011, -6.595161242314456e-28, -1.5495452146143953e-28, 0.005982833448797464, 0.0011472029145807028, 1.0589681117638507e-26, -7.54092058038622e-25, 8.810922345628274e-24, 3.7821107525815023e-06, -0.009185793809592724, 0.0785178542137146, -0.02564542554318905, 0.08390356600284576], [0.1355954259634018, 2.721026910111494e-19, -5.719891371615572e-27, -0.026727082207798958, -0.031656086444854736, 0.11237259954214096, 0.03742889687418938, 0.1428431272506714, -1.3664093932414383e-26, 1.188838121149686e-17, -6.026461593497912e-26, -1.6660747803598497e-07, 9.455998248500504e-29, -7.363529230808297e-10, 1.0243459310800738e-25, -1.2679394785664044e-05, 2.9947070977732506e-24, -1.4467421225295132e-21, -0.11120303720235825, 0.06722349673509598, -0.07143896818161011, -1.3017054101283065e-08, -7.844732502482188e-11, 0.016554370522499084, 0.033841367810964584, 4.803383912652056e-25, -1.4735194042714284e-07, -4.900818112218985e-06, 1.2196757381843781e-08, 0.03761039674282074, 0.028448758646845818, -0.061373211443424225, -0.02020527422428131], [0.17370302975177765, -1.1834926939157305e-18, 4.937305772556577e-11, 0.10388324409723282, 0.003621989395469427, -0.002317663049325347, 0.0063526825979352, 1.4903806004440412e-05, -4.690798670335045e-25, 1.2332948244875297e-06, -8.088163819253147e-12, -6.093858218036985e-08, 3.0730134881196136e-08, 6.636106091634953e-30, 9.861856597126462e-06, 1.3371474299640008e-26, 1.9461029410194897e-07, -5.806021558733994e-29, 0.10774630308151245, -0.007836788892745972, 0.12863898277282715, -2.6218674131512364e-23, -1.9000996331897113e-09, 0.0023232700768858194, 0.0007746477494947612, 1.7496247705997884e-26, -9.105945879662547e-22, 3.51866568837812e-26, 2.459130828182392e-15, -0.06935830414295197, -0.012673177756369114, 0.15061503648757935, 0.1370810568332672], [0.0838179737329483, 9.668690633024842e-27, 1.0218199826303483e-16, 0.034072354435920715, -0.08528630435466766, 0.028632013127207756, 0.11691925674676895, 0.08432876318693161, -3.3520282727295125e-07, 6.964878529154966e-21, -1.8030849065101086e-21, 3.361475551096503e-24, -5.87751625147348e-09, -3.1801876048120903e-06, -6.201597898325417e-06, 5.719888349631219e-07, 1.420181385372178e-20, 2.203718240260405e-24, 0.02443647012114525, 0.059682540595531464, 0.0651002898812294, 1.4771485931881555e-27, 3.0786905092754678e-21, 0.04514416307210922, -0.005069976206868887, 1.949449426801895e-21, -1.3805681646637597e-17, 6.946754872686958e-21, -1.2939759127476164e-13, 0.041815876960754395, 0.04349421709775925, -0.061492279171943665, -0.061770565807819366], [-3.8045854268768395e-24, -1.8853585815126863e-25, 2.5099841423070757e-06, 0.09717336297035217, 0.09921391308307648, -0.030594706535339355, 0.1107078343629837, 0.015159271657466888, -1.9294735466246493e-05, 6.578141089112942e-24, 1.3828749964858809e-27, -2.912215260608697e-11, -2.460652694935561e-07, 1.9253998568266107e-17, -1.4022948079150162e-16, 8.143212962737113e-23, 2.2149306460050866e-06, 1.9036610620982853e-21, -0.007670252583920956, 0.03218169882893562, -0.042652931064367294, 2.977234200480009e-15, 3.96219872640435e-27, -0.00924502220004797, 0.00030553695978596807, 3.808857119676559e-14, 2.404268708941782e-21, -1.7498641424751327e-10, 3.193852535332553e-06, -0.140008807182312, 0.01174279022961855, -0.13266943395137787, 0.030015455558896065], [0.09103096276521683, -6.562146354462724e-16, -3.552721060175544e-26, 0.008460765704512596, 1.2262915346863909e-23, 0.00017583863518666476, -2.0032285775582044e-18, 1.3563162610807922e-05, -7.224224690682846e-11, 2.4976201662418873e-12, -9.557047308066435e-19, 2.5330845593661618e-27, 5.9583894653769676e-06, -1.3859762251788304e-26, -4.197527239640551e-28, 3.4409286595649297e-19, -4.915526915283408e-06, 1.4250784374780778e-07, 5.088340859771279e-09, -1.9392014197819314e-25, -9.65120755194003e-18, -1.7613994707232905e-09, -7.192292628133146e-08, -1.852969771721875e-18, 1.6469950312997188e-22, 1.8334516032826218e-28, -1.3013270461215143e-08, 1.7934012728670606e-23, -3.221442455014767e-07, 0.14506711065769196, -0.026548486202955246, 0.16184519231319427, 0.1604105681180954], [-5.165633770710202e-25, 1.1016076314263046e-05, 1.8875051459915026e-25, 0.0910632461309433, -4.689426917697207e-16, -2.261362902209718e-19, 2.887575849039925e-19, 5.370892577792496e-23, 4.096213892901659e-23, 2.351803196631863e-09, -5.042022001682591e-28, -1.6920301604272936e-08, 2.5820982010253245e-15, -9.558795947698165e-14, -1.1649865307791562e-24, 1.3065607446632658e-28, 3.724908811142334e-19, -1.384534661137074e-17, -1.436486246156592e-19, -2.9513251078857383e-19, -7.421322114250901e-28, -3.403860968647937e-23, -2.284408765262924e-05, -2.7849564503412694e-06, 0.004107813350856304, -1.8184642860855925e-26, 7.150125593257425e-24, -9.010501855755138e-08, -5.862763760504626e-23, 0.030094824731349945, -0.017274096608161926, -0.01260589249432087, 0.09002131968736649], [0.1366962343454361, 4.652240012104457e-26, -4.067327384274276e-24, 0.11227606981992722, -0.11108949035406113, 0.06941421329975128, -0.07424440234899521, -0.07910360395908356, -9.992582282458695e-12, 3.799568113747453e-22, -5.963730486009677e-13, -9.575191143085249e-06, -8.11807970411987e-16, -7.799881888374133e-14, -6.883342251740032e-08, -3.6492177770719244e-27, -1.7959617252927274e-05, -3.240365603878609e-13, 0.04301149770617485, -0.08172962814569473, 0.021738260984420776, 4.2590538402382964e-29, -6.076944828237174e-06, 0.0001968106225831434, 0.02423054166138172, -4.2639209881862146e-24, -6.972867758993359e-24, -4.467095095606055e-06, -3.055285162645305e-07, -0.13638091087341309, 0.07842396944761276, -0.16011561453342438, -0.13954895734786987], [0.08402476459741592, -1.7553977613715688e-06, -1.2032788995356115e-28, 0.03306971862912178, 0.022625168785452843, 0.12806662917137146, 0.02105318009853363, -0.09580523520708084, -1.1240183783733926e-10, 1.1627466112421096e-17, -9.629833584767766e-06, 5.968850088668154e-14, -3.3550073830213023e-10, -2.5003538041428906e-15, 2.2595715250592705e-23, 1.0946332906769385e-07, 1.782458544012988e-20, -1.1691929103108123e-05, -0.06944118440151215, 0.1639750748872757, 0.139839306473732, 1.0707975661716773e-06, -3.4040221870782864e-19, -0.06315889209508896, 0.0003654272004496306, -1.6724849283278331e-10, 2.063531429064014e-10, 8.028820528123118e-20, 3.1510569153958556e-10, -0.12341059744358063, 0.06615196168422699, 0.017552997916936874, -0.07266141474246979], [0.12045378983020782, -1.2052538617304529e-25, 8.771261858747308e-22, 0.008025473915040493, 0.13487878441810608, -0.010128531605005264, 0.08853389322757721, 0.0724254846572876, -2.0276256658350657e-29, 4.692707378239902e-08, 8.871120052195321e-16, -5.111289724801793e-10, -6.348797833970195e-19, 3.567093607012756e-19, -1.1198367233511419e-10, 7.889751032053027e-06, -1.8742760831448627e-18, 5.856667746351665e-21, -0.046235740184783936, 0.050636161118745804, -0.015295603312551975, -3.790561885642224e-13, -5.294220954965567e-07, 0.07004167139530182, 0.00022560841171070933, 1.7034897073461832e-24, 9.689683777569513e-11, -4.5858375683702805e-28, 5.011676471699842e-26, 0.07205494493246078, -0.05307016521692276, 0.09366387873888016, -0.14167620241641998], [-0.08000252395868301, -1.535100499290248e-27, 1.1658032976388994e-24, 0.08419325202703476, -0.1468905359506607, 0.02480022795498371, 0.12010034918785095, -0.10232692956924438, 5.991806162342073e-09, -4.769547234782399e-16, 2.733382586939115e-07, 1.6780275473138317e-05, -3.974775154347299e-06, 6.200686493315229e-28, -7.4103549962956095e-09, 1.3359931385325634e-17, 1.78484660864342e-05, 8.533110303687863e-06, 0.1461661010980606, -0.018504051491618156, 0.08104955404996872, -7.356344662102527e-20, -6.977887379540893e-25, 0.01674107275903225, -0.005986180622130632, -2.9607354738839004e-28, -1.1642789626065158e-26, 8.647009047529736e-19, 1.500438997936726e-06, 0.14696332812309265, 0.11985903233289719, -0.05899236723780632, -0.08549536019563675], [0.1364007592201233, 4.100533601558709e-08, -7.764561913312626e-19, -0.031213946640491486, -0.05836109444499016, 0.08588286489248276, 0.09791948646306992, -0.051715631037950516, 1.393639686293629e-17, 5.370009716898494e-07, -5.240125666716722e-09, -9.742721068971154e-27, 2.6368301299058257e-26, 5.1584985854522366e-27, 3.3280110459778507e-23, -6.302704042471591e-26, -2.0991015974913934e-23, -6.187996604012369e-08, -0.026089021936058998, 0.015147089958190918, 0.028276054188609123, -1.6423759054140508e-12, -1.3626544461474654e-26, 5.7201039453502744e-05, 0.011533455923199654, -2.427401568638743e-06, -1.0329294127586763e-05, 1.1402140444261022e-05, 2.4166209398185368e-12, 0.02572036348283291, -0.017056923359632492, -0.1589142233133316, 0.098378486931324], [7.628371620334682e-28, -8.650378902075317e-08, -6.495572201454817e-23, -2.47254856589052e-08, 0.11849071085453033, 0.060376591980457306, -0.030738690868020058, 0.029564177617430687, -1.9064180789563068e-10, 1.8745842206615646e-25, 1.1205204941688862e-07, -6.9655913060036e-24, 3.517166755322848e-14, 5.585504714994416e-12, 3.7075083128002007e-06, -4.056419804537785e-24, 1.1198904664237985e-18, 2.927504419436566e-11, -0.02564077451825142, 0.018051376566290855, 0.06679592281579971, 1.0579920273201537e-09, 4.99460943485538e-21, 0.0323096364736557, -9.872904271901461e-09, 7.336808244579007e-25, -6.106142643518962e-18, -2.1843554804945597e-06, 1.2037341951522545e-25, -0.0539543516933918, -0.0014149020425975323, -0.09872735291719437, -0.0947902575135231], [1.4156642009766074e-06, -2.0643447961533965e-27, -6.91714035272914e-21, 0.15328708291053772, -0.0705857202410698, 0.08344965428113937, 0.0383293442428112, -0.017899028956890106, 3.9047273747705447e-10, 4.9735968815634024e-11, -6.779549967783084e-27, 1.6271667537006118e-21, 2.167713647471814e-10, -1.9481235598794975e-23, 4.5094328034639946e-23, 3.336658210173482e-06, -7.0406639866727085e-28, 4.366461898790128e-26, -0.0616251640021801, -0.04710998386144638, 0.0281686969101429, -3.587016800355979e-23, -2.1135006136319134e-06, 0.05510987713932991, 0.016162430867552757, 2.6691490684349617e-10, 1.6638479792163707e-05, 2.2210377017639702e-15, -1.529421151199661e-19, 0.06839122623205185, 0.16402246057987213, -0.019518477842211723, 0.11881153285503387], [0.18798010051250458, -4.386268177523779e-21, 7.978523418187209e-23, 3.2682235935155123e-23, -1.5003585396647368e-13, 3.345544560616031e-16, -2.1222045629258177e-20, -7.141622404560621e-08, -5.413573944679229e-07, -3.5335866177543807e-11, 3.5518305101692595e-26, 2.3245455423359326e-19, -1.3849228569985451e-17, 1.1017972558619027e-12, -4.213663282567735e-29, -2.2480462575913407e-05, 3.187397845660911e-10, 9.711848178994842e-07, -3.9393798252459453e-23, 1.0620664170346572e-06, 8.93184463827737e-17, 6.148696229502093e-06, -1.5207830628983354e-25, 6.98827342361142e-24, -8.072674913858423e-22, -6.206168796499264e-23, -8.762793157757187e-08, -6.910357797096367e-08, -1.3827720940489523e-25, 0.022103438153862953, -0.005805189721286297, 0.06728336215019226, -0.000667833664920181], [0.17817626893520355, 2.5728331110424306e-25, -2.1393649003216928e-23, 9.011619110931106e-26, 0.06754288822412491, 0.053070925176143646, 0.08999591320753098, 0.010138247162103653, 1.2039903328923711e-18, -2.963312917530353e-14, -3.0257470484684745e-07, -1.173480294753284e-24, 8.892239042817106e-22, -8.602589696789822e-17, -2.1770430976175703e-05, -2.0462182874325663e-05, -1.1199609480281017e-21, 2.883807010261211e-25, -0.006428875960409641, -0.02738884836435318, 0.004470056388527155, -1.0116212251887191e-05, -1.1105632733077528e-23, 0.0007869027904234827, -7.553770540775201e-22, 4.2783082333756354e-24, 3.8332868366883834e-26, -3.318934294060938e-10, 4.222949598897685e-07, 0.006642182357609272, 0.09885621070861816, 0.00017157635011244565, -0.004363672342151403], [-1.637168319749277e-14, -2.5754182874450403e-15, 7.83129117110093e-12, -1.6821597876437574e-15, 0.05479351803660393, 0.08243568986654282, 0.06084673851728439, 0.048242244869470596, -1.7183472586119477e-15, 6.021967551528481e-26, -6.935732529465976e-21, 5.654307581844335e-23, -2.499838270738375e-26, -6.702732695799804e-25, 4.188156071949223e-11, -2.00268925579882e-18, 1.820140462134748e-17, -1.3657727322424762e-06, 0.11931423097848892, 0.10447412729263306, 0.12589266896247864, 4.171373808202331e-18, -1.4354260429172427e-06, -0.0002932508650701493, -0.00017297409067396075, -2.291160967546335e-12, -6.079319270213546e-09, -3.0040432928776975e-18, 4.060975160721074e-22, 0.04365531727671623, 0.19614394009113312, 0.0006734998314641416, -0.025356169790029526], [0.14021001756191254, 8.191421938845354e-26, 2.76251619481702e-25, -1.2838279417337617e-07, 0.05699332803487778, -7.784888634315528e-25, 1.3578911745792487e-25, 0.027246132493019104, 1.5332906004620343e-24, 1.1135018240793215e-08, -6.443276837110679e-25, 3.69747593158251e-21, -1.9000002628219196e-20, -8.428948469930331e-20, -6.733692857056332e-21, -6.373870746756438e-06, 1.1782282854255755e-05, -1.0798586130834551e-29, -2.5788037874008296e-06, 0.10180460661649704, -1.208844082611904e-07, -3.5998129988001892e-06, -1.2329955097811762e-05, 0.08785054087638855, -2.0038661270153296e-18, -4.237568873577402e-07, 1.8622847619553795e-07, -1.207974655107886e-18, -2.1470446753824035e-08, 0.10356824100017548, 0.005428860895335674, 0.08919724076986313, -0.011640850454568863], [0.10427641123533249, -1.2143706044298597e-05, -7.289545556430385e-23, 0.14157672226428986, 0.1609925925731659, 2.296546205615223e-21, 0.14942190051078796, -2.1616483150062393e-21, -2.8452603828554857e-07, -6.471194069490593e-08, 1.6814122024856473e-18, 1.6063364682850079e-06, -2.999826775873515e-11, 6.7391838338276494e-21, 1.2297367675273563e-06, -2.7863625291502103e-06, -1.6050299977976579e-09, -8.719134442225496e-11, 2.05612822198832e-15, -1.1756550610094619e-25, 0.05618925392627716, 7.058593726877449e-12, 1.8007600595160162e-26, -3.692662061544061e-12, 1.195383845242759e-07, -3.941237025628652e-07, -3.885690603055991e-06, 8.116029447031921e-23, -1.4198583739683053e-22, 0.002145416336134076, -0.06325510144233704, 0.04282774031162262, 0.07207805663347244], [0.08054699003696442, -6.448918554724514e-08, -1.0146648703317646e-16, 0.0075270445086061954, 0.0005292606074362993, -0.07764482498168945, -0.01361790020018816, -0.06628638505935669, -1.0265014663864966e-23, -3.843052370397546e-29, -3.1986439147253543e-28, -4.4551080549981307e-23, -3.130237553538481e-20, 1.2410325211931195e-07, 7.360729910033115e-07, -2.1111059900171298e-27, 5.8174227888230234e-06, 2.8034411117386544e-20, -0.028159333392977715, -0.005587237887084484, 0.011603320017457008, 3.560357286769289e-10, -3.969715245791304e-28, 0.05695702135562897, 0.006028984673321247, -4.0596828121408635e-09, -2.937312599646637e-22, -7.569085802572317e-09, -2.6748288028954903e-09, -0.026456069201231003, -0.035916008055210114, -0.04792902618646622, 0.029105132445693016], [0.01561147253960371, 5.263801199362206e-07, 1.1781114153563976e-05, 0.12617364525794983, -0.04833266884088516, -0.024786770343780518, 0.07660815864801407, 0.0034087009262293577, -1.7554871780909868e-25, 2.566823731342538e-08, -6.351403992973141e-28, -2.1554656246035456e-20, -6.391327137672542e-12, -2.344164386158809e-06, 4.025459910705104e-21, -1.2511995919339824e-05, 2.1529533449584868e-23, 3.120710634352264e-11, -0.033820755779743195, -0.04515989124774933, 0.006485824007540941, -8.260669370763196e-10, -4.52259429685736e-25, 0.0013494055019691586, -0.0003863866440951824, -5.311045718557316e-27, 3.7498752113904007e-25, 1.6523869271413406e-22, -1.4834395187790506e-06, 0.010347803123295307, -0.11368370056152344, 0.04922771826386452, -0.0152424406260252], [-0.013447990640997887, -5.261102551387715e-29, -6.300892425002702e-13, -0.11851844936609268, -0.0873057097196579, -0.05708865821361542, 0.07395219057798386, -0.04013524949550629, -8.609985988477383e-26, 1.8699349311646074e-05, 2.0039031441156975e-26, -9.919496015590636e-27, -3.5486178856883265e-28, 4.87749221394602e-28, -1.3034857883193573e-18, -5.266568514628034e-09, 3.5332114123320935e-08, 1.0991766430379357e-06, 0.0760561004281044, -0.06849182397127151, 0.11872896552085876, -1.5479494110180774e-24, 9.826305843074857e-25, -0.005699698347598314, 0.0035267204511910677, 7.080511295498582e-06, 3.133225168599223e-26, -2.450216973759467e-10, -9.52905805260944e-22, 0.12969210743904114, 0.043158866465091705, -0.042361848056316376, 0.0758061408996582], [-0.0032097557559609413, -3.3643406528834985e-21, 1.1575151644474535e-12, 0.1627180129289627, 0.07891756296157837, -6.150303732965767e-08, -7.868786302948235e-22, -1.2286152602704101e-29, 1.7243156746870632e-23, 2.314360192002423e-15, 1.4223617817680796e-20, 7.977749756721109e-28, 2.5081477809639083e-22, -4.528473255049903e-06, 2.1137297744327851e-19, 1.4710162011336332e-26, 1.7880092855193652e-05, -2.661816600468825e-10, -5.292021189973665e-28, 5.3851995667321414e-17, 6.037026782949634e-26, -2.1924541514424002e-15, -5.394133495428832e-08, 5.093076470075175e-05, -1.572103178974077e-13, 1.832603616328108e-27, 1.0051526722065773e-08, 3.0166218039084924e-06, 3.262257166625204e-07, 0.08782516419887543, -0.14690770208835602, 0.09849050641059875, 0.1772889792919159], [0.13480418920516968, -4.806160177395213e-06, -1.8545014517223817e-20, 0.1385277658700943, 0.006576190702617168, -0.032186634838581085, 0.13158276677131653, 0.013549515046179295, -7.3488722591719124e-06, 3.483842192508746e-06, -2.4080804905679543e-06, 1.0672090411389945e-07, 5.183437568057059e-10, -3.5138410797930346e-27, -9.505795617315016e-08, 1.8769443610058056e-18, 7.684730160066282e-23, -1.3972028495002623e-17, -0.0654730424284935, -0.048375215381383896, -0.004248232115060091, 3.5830341857945314e-06, 5.91805669768099e-26, 0.0007568869623355567, 0.01606212742626667, 1.203779004789476e-16, 4.082718060535138e-23, 5.443553550591047e-27, 5.320227591809612e-11, -0.1301575005054474, 0.05985873565077782, -0.14003250002861023, -0.045480452477931976], [0.09347834438085556, 1.6185402955670725e-06, 8.418220224152235e-22, 0.1831018179655075, -1.1527034474656338e-16, -1.5889621317083368e-23, -2.4388727979385294e-06, -2.8812885816820544e-22, 1.449936204557535e-25, 4.127592197424481e-27, 1.013493601931259e-06, 2.308948268137101e-07, 1.8008539370839571e-07, 7.774553608877413e-20, 7.757732173666043e-14, 3.6846307693849667e-07, 9.132780750402067e-24, -5.33440669414631e-08, -3.5661753372551175e-06, -2.1276658213054134e-09, -2.207170412678193e-27, 1.3289895494047694e-23, 2.2721745542355464e-25, 6.484418037244755e-12, 1.6490169636441192e-25, 2.2295485341869057e-20, 1.3877714991394896e-05, 8.137095885366895e-20, 9.666447124936345e-25, 0.006788966245949268, -0.07078917324542999, -0.07189929485321045, 0.09109760820865631], [-0.037716951221227646, -3.139691439868904e-27, 9.149869654865253e-22, 0.05996375530958176, -0.0015385594451799989, 0.10526180267333984, 0.031246181577444077, 0.040334682911634445, 2.757953106333153e-28, -4.529937314146082e-07, -1.9806090984755316e-25, 2.2999627685066223e-21, 3.951288007897347e-08, -3.914294666174101e-06, 2.2531378834875854e-20, -7.911368305623326e-26, -1.4613488524885936e-24, -6.268016281111037e-16, 0.13543681800365448, 0.07829613983631134, 0.01814275234937668, 5.997077323627309e-07, -1.7504836469228735e-09, -0.020422842353582382, -0.0003969684476032853, 5.309880560769765e-22, -6.753152979372318e-29, 2.3140912542875183e-28, 5.138462839663904e-17, -0.11844813823699951, -0.005472471471875906, -0.026114776730537415, 0.15432140231132507], [-0.16199742257595062, -2.556725109403857e-10, 1.2006884229187188e-23, -0.13766878843307495, 0.06859017163515091, 0.03836677968502045, 0.09894168376922607, 0.04912900552153587, -7.275513298648314e-23, -5.812499787039016e-12, 1.330913008800569e-17, -4.432274554982599e-24, 5.86222938636638e-07, -5.903222245251527e-06, -1.012704121407769e-14, -2.293509741151508e-24, 4.963322378317199e-21, -1.7947255628314451e-06, 0.0908578485250473, -0.09465295076370239, 0.11932028084993362, -2.046579766101786e-06, -1.2440198610824682e-12, -0.002875794656574726, -0.0034655991476029158, 3.737034794246221e-22, -5.552482844166373e-13, -9.211611541104503e-06, 1.204256723057326e-26, 0.11818762123584747, 0.09799682348966599, 0.035211674869060516, 0.08077012002468109], [1.8933886616748914e-27, 5.334868991013764e-09, 5.970405059230188e-09, -5.160108003110508e-07, -0.08400481194257736, 0.05518176034092903, -0.04057810455560684, -0.0017621665028855205, -1.8847082459234857e-20, 7.244220847058847e-19, -8.509207873430569e-06, 8.437929724296045e-27, 1.5778533679622342e-06, 2.2560290706405164e-29, -4.154729228268238e-24, 1.1363593908829905e-15, 1.1020185778851341e-26, 3.1617833867458336e-21, 0.026180019602179527, 0.052731677889823914, -0.018415190279483795, -2.4906965746271487e-26, 1.9861128366938097e-11, -0.008040057495236397, 0.0015794083010405302, -3.779905913457e-23, 9.910417831773322e-17, 2.916884263869639e-27, -7.823515592557163e-20, 0.04230237007141113, 0.15077275037765503, -0.03780852258205414, -0.05857605114579201], [-2.2228140161839605e-10, 8.250632959061477e-07, -2.1406251034607418e-27, -7.46314401894078e-20, -8.580888533060715e-08, -4.4172748792092875e-10, -1.741427088310103e-25, 4.294765844010809e-25, -1.9896221794443277e-24, 5.077570222056238e-06, 6.122351454417092e-19, -8.350804458968505e-20, 3.6538763126259255e-09, 3.0635603338181716e-19, 3.257915295762359e-06, 1.8449757277494427e-09, 9.785829888642184e-07, 8.425751762963785e-10, 1.0746478441093109e-28, -9.483193821324676e-07, -4.638420136870991e-07, -2.581546994334899e-15, -1.4905406260368181e-06, 0.03815493732690811, -6.153624720894868e-09, 7.997259788169616e-29, -8.1502129988656825e-22, -1.3127227678087685e-15, 5.317559953255113e-06, 1.6547384120713104e-06, -0.00041792303090915084, -5.94366618145159e-08, 7.98241401867017e-08], [0.018189439550042152, 4.478553474417842e-24, 1.8113423720933497e-05, 0.058289527893066406, 0.10820420831441879, 0.02454272285103798, 0.009463533759117126, 0.05638516694307327, 8.688943125889637e-06, -7.710807692782354e-24, 5.339014137462073e-07, -1.4307247511169408e-05, 2.575011923388595e-15, -5.5020080935719307e-08, 1.4211889365947075e-15, -6.967829168035872e-28, 2.797269215477499e-25, 3.1837346973001694e-23, 0.02667567878961563, 0.054899413138628006, -0.017036335542798042, 1.4460751879658031e-22, 1.767335197655484e-05, -0.02416415698826313, 0.035182006657123566, -1.8732743861537743e-23, -9.337425410649303e-08, -8.021130742311282e-23, -4.867620860016063e-28, 0.038892243057489395, 0.028241513296961784, -0.14684076607227325, -0.014436599798500538], [0.14101210236549377, -1.1782840658725036e-07, -1.952221572375263e-21, 5.5601894087670935e-27, 3.107128355629589e-25, -5.5925219206734664e-27, 1.8677784679577464e-21, 6.823694654854131e-25, 2.1599478590607194e-23, -2.5274506827221645e-25, -1.0350770025979728e-05, 1.961714815479354e-06, -2.2153333334440362e-10, 2.1846473519104848e-09, -2.004520220084706e-18, -1.3730879897714883e-20, -1.2955888722333686e-29, 6.836301219310554e-21, -3.155780081698367e-10, -8.040499892558728e-07, 0.14018584787845612, -6.00380772697126e-26, -3.3548613468366772e-22, 0.05548494681715965, 0.02382572367787361, -3.9973073014659536e-24, -1.5120010688709625e-26, 9.827730376200684e-18, -1.5383771649387435e-18, -0.12141772359609604, 0.02723831869661808, 0.04159963130950928, -0.009064950980246067], [-0.01918094977736473, 7.587855516550245e-23, 9.120611371870457e-22, 0.14903376996517181, -0.010443784296512604, -0.004409058950841427, -0.0072310143150389194, 0.0003424099995754659, 7.433600899275916e-07, -8.863248134559354e-13, 2.7342968167420878e-11, 2.3610804297817806e-21, 1.6129835955780436e-07, 1.9179718990029764e-18, -1.4638536413258407e-05, -7.305521950730885e-15, -1.6365239023769619e-18, 7.228970824020198e-29, 0.1523863673210144, -0.01571938768029213, -0.0011652682442218065, -3.7063330182718346e-07, -1.9004082026574318e-14, 0.012705560773611069, 0.0012320717796683311, 1.0240249606368564e-21, -1.5421472198795527e-05, -7.0729933021596025e-09, -3.952238330384716e-06, -0.051861755549907684, -0.07458040863275528, 0.0931352749466896, 0.13652227818965912], [0.04886777326464653, 2.0499821735931287e-26, -1.60886162135908e-22, -0.08410655707120895, 0.1663750857114792, -0.007956773974001408, -0.022675396874547005, -0.014826754108071327, 7.856093588998192e-07, 3.604513419689419e-23, -8.547857744120602e-24, 5.281937971547133e-21, -4.3500801376848697e-13, 1.1990075108769815e-05, 1.3068880377886671e-07, 4.0056166889250086e-23, 1.944095551209557e-08, 1.212452826084457e-28, 0.04210227355360985, 0.013134201988577843, 0.0026437807828187943, 2.364500915064127e-06, -2.263853304280629e-24, 0.0006458420539274812, 0.022430621087551117, 7.880420258570442e-16, 4.667842404160183e-06, 1.818393787553281e-17, 2.172456702791906e-17, -0.03851465508341789, 0.0090430723503232, -0.03144339099526405, -0.017918888479471207], [-7.341991015152871e-09, -2.42117693005639e-07, -5.717083436437148e-14, -0.035359542816877365, 0.12135131657123566, 0.052949972450733185, -0.03438539057970047, 0.06621531397104263, -1.1004275518113036e-16, -9.954030102389568e-18, -4.643966803996591e-06, -8.232933623730787e-08, 8.377421627675265e-28, 6.609231659332295e-22, -5.715732640965143e-06, 2.668215700577142e-26, 7.973820856932434e-07, 1.6645737559883855e-05, -0.025711338967084885, 0.01995466835796833, -0.015403255820274353, 1.227712430948875e-23, 1.1267657435211555e-17, -1.8523330438946495e-11, 7.712216598359079e-23, 6.378359501067779e-27, -1.4317284069420566e-07, -2.9656068818439962e-06, 2.0983870472834442e-23, 0.06744755059480667, 0.13457266986370087, 0.02788589708507061, 0.09012437611818314], [5.148539230503957e-07, 1.1999992111100255e-08, -1.2241867747284659e-18, 0.0797329768538475, -2.5055320912296676e-29, -1.1998171063273795e-24, 6.750688896772772e-10, -4.0841683813093866e-24, 2.6123138923139777e-06, 2.1901842561788953e-09, 3.31039813616929e-11, 2.199930011864398e-23, -2.2670953967462992e-06, -2.6890992543826542e-08, 4.212317494299001e-23, 1.029439311572844e-09, -1.262054739211674e-15, 3.4830442530164873e-08, 6.594855217478823e-11, 4.692139100370696e-06, 1.1545598921358646e-09, -1.3418181010749208e-09, 7.497003018386295e-09, 1.4081681873108368e-16, -2.4676076005776508e-21, 1.6035394529328706e-24, -1.6800352341944658e-12, -2.720175551473858e-08, -1.0337687685897546e-22, 0.0829647108912468, -0.048588644713163376, -0.04387803003191948, 0.16359843313694], [-0.010145820677280426, -4.124303359276382e-06, 2.697031042941944e-09, 0.039576608687639236, -0.0734647661447525, 0.01923183724284172, -0.011259700171649456, 0.10285919159650803, -3.6550684399117017e-06, 7.643156436643039e-07, 8.463952119332628e-27, 8.594360035516501e-19, 9.242858811324278e-21, -5.452607846797691e-30, -9.164435876840571e-10, 4.2210043256626315e-28, -3.9722049649526525e-08, 1.0395668823548476e-06, -0.03506074100732803, 0.12942416965961456, -0.02955254167318344, 2.6530187019944637e-24, -4.920993019982324e-16, 0.05910360813140869, -0.00903361476957798, -4.4129017088721814e-24, -7.454562661601827e-11, 3.1527190458291443e-06, 3.595204979336947e-25, -0.00827939435839653, 0.10643491894006729, -0.07446622848510742, 0.02459762431681156], [-0.12555542588233948, -5.1947948319955e-16, 4.231825403796414e-29, 0.05023733898997307, -0.025487741455435753, 0.01096376869827509, 0.06534059345722198, 0.08176310360431671, 1.229288244530835e-07, -2.0055193061807586e-08, 3.8516897314772155e-22, -3.568219822706373e-23, -2.53575914606341e-15, 5.897769876093188e-27, -2.6047906386108415e-28, 2.0521829907481064e-24, 1.629737326380034e-27, 9.203730137509057e-18, 0.10262784361839294, 0.004162791185081005, -0.012979765422642231, -4.941631505457556e-21, -6.631973616111342e-12, 0.014525225386023521, 9.992625564336777e-05, -1.8502127787402357e-18, 2.1284887186112655e-09, 3.596446401854884e-21, 6.372874038434189e-23, -0.0189300999045372, -0.009509420953691006, 0.14078231155872345, 0.14079593122005463], [-0.030601171776652336, 6.569312036061585e-20, -1.9669978146286127e-10, -0.027241677045822144, 0.10246497392654419, 0.02920692041516304, 0.012272247113287449, 0.028762217611074448, 1.553318270453019e-06, 1.5655056090713842e-24, 1.723875519231057e-18, 6.318520012760231e-11, -1.177855665446259e-06, 1.4120898460950881e-13, -2.832236771228413e-16, 2.1697295641873273e-28, -7.136669588625466e-10, 1.204769614560064e-05, 0.013773887418210506, -0.004999906290322542, -0.09289746731519699, 1.0322590019607675e-16, -2.1355581747428687e-09, 0.028120137751102448, -0.0029192164074629545, 8.51038310876647e-20, 1.1644665481830991e-27, -8.057205036493542e-08, -4.966919761648103e-29, 0.08758790791034698, 0.05503355339169502, 0.07164548337459564, -0.023892629891633987], [-3.6523492507844248e-22, -1.163228716904996e-05, 1.6988120856111938e-21, -1.694402271823492e-05, -0.03516218438744545, -0.016809284687042236, -0.02874891459941864, -0.023610055446624756, -1.1656713895391991e-16, 5.21536652040373e-25, -2.618679957322456e-07, 1.5642552853023517e-07, -1.918472165863585e-27, -5.999053277157948e-17, -2.2305217395324206e-10, 5.500926862460342e-13, 2.28021763211376e-24, -3.0138123108258696e-09, 0.027805145829916, 0.13631154596805573, -0.01726311258971691, -1.6514242195952988e-09, 5.507569955653935e-10, 7.6211654231883585e-06, 7.109532074167646e-09, 1.40299879773354e-28, 5.045184970029234e-19, 1.0527645827096421e-05, 2.74611640108026e-29, -0.03943910822272301, -0.006581176538020372, -0.06401863694190979, -0.06860959529876709], [-0.09253278374671936, -4.884231909489906e-27, -5.110368306304736e-07, 0.0844273641705513, -4.774388028075957e-16, 1.7756700554372173e-09, -2.1869614957787825e-20, -2.5862293568934547e-06, -4.6536754894077603e-07, -6.846327096354798e-07, -6.396412669277748e-14, 3.459333795692976e-27, 1.3538689652267015e-20, -1.4081964647266433e-25, 7.719696670863516e-20, 1.0488568236155515e-08, -2.747542732760011e-28, 4.583648171209501e-27, 0.12061017751693726, -1.37948658698632e-23, 2.5456929897416103e-09, -1.0562279995037574e-17, -6.858268117214035e-27, 2.100782079478793e-21, 1.6116514020757563e-20, -4.899051046780471e-25, 7.636908883057458e-10, -1.2768792657880113e-05, -2.773155983959441e-06, 0.11362079530954361, -0.07176331430673599, 0.15757854282855988, -0.013076250441372395], [-0.051223255693912506, 2.371570091521069e-24, -2.726649928819265e-19, -0.0075124516151845455, 0.13427692651748657, -0.023235466331243515, 0.07510580867528915, -0.02151300199329853, -2.9322769700606624e-28, 1.1973764944994176e-16, -2.1842413039535436e-23, -4.2400279198773205e-07, 5.184804477376633e-27, 7.107968077621509e-24, 3.219989608282958e-08, -1.0268931873724796e-05, -3.268561575423676e-27, -1.5894587704678997e-05, 0.016059063374996185, -0.017128830775618553, 0.11347101628780365, -8.10533627968947e-23, 1.9808672270424073e-15, -0.0005063139833509922, -9.271194721804932e-05, -1.686458081765177e-27, -4.1118842203534216e-24, 1.6506488811231962e-27, -1.24657249222735e-21, 0.03328363969922066, 0.09971276670694351, 0.03359900042414665, -0.010853169485926628], [0.06478730589151382, 8.857941611023067e-24, 6.07691677707806e-23, -1.5779580415927414e-19, 0.011893327347934246, 0.07349926978349686, 0.01878715120255947, 0.06173459440469742, 2.8431592264864683e-24, 2.4195619516831357e-06, 8.606077983586147e-08, 8.36820800032001e-06, 2.406062985298051e-25, -1.0153114544664277e-06, -2.407989144386021e-18, 2.510944507871926e-10, 6.853555891848919e-22, 6.7309315454622265e-06, -0.025455983355641365, -0.042777709662914276, 0.0036732235457748175, 6.828221099652865e-09, -3.496235383799413e-27, 2.1479925749190443e-07, 0.00011553187505342066, 8.988024092104752e-06, 8.313637864069967e-13, -8.122433023334838e-18, -8.237046131398529e-06, -0.10587728768587112, 0.03277295455336571, 0.17585298418998718, -0.004813667386770248], [-0.175450399518013, -1.9469861833876223e-10, 5.690996891178963e-25, 0.05980505794286728, -0.04672907292842865, 0.09794382005929947, 0.11246155947446823, 0.0685546025633812, -4.379091365080967e-07, -2.1516092601814307e-05, 3.528386401106676e-20, 4.057879466473624e-12, 1.4612846556318373e-18, 4.116039974133567e-12, -4.5119312393495847e-26, 4.762363516874757e-07, -4.886112492386019e-07, -5.285788399191142e-28, -0.05302553251385689, -0.10064546763896942, -0.0747302770614624, 1.280586628957516e-16, 8.549105654220021e-16, 0.0232160035520792, 0.0018354749772697687, 2.2468574556455678e-08, -1.379840341542149e-05, -8.051553636437674e-23, -4.111371245060874e-28, 0.00790834054350853, 0.06208718568086624, 0.08609964698553085, -0.020889323204755783], [0.007301174569875002, -6.108417338504695e-20, -3.2378496087652446e-23, -0.1814531683921814, -0.048890370875597, -0.06818626075983047, -0.08759409934282303, -0.062472544610500336, -9.818223389856939e-08, -2.4218083538585233e-08, 4.178367832766216e-30, 2.989569774787537e-28, 3.9374044717988e-06, -4.846291474771466e-27, 7.603397338560548e-23, 2.251512975569516e-28, -1.4892769774732116e-20, -1.5458084302606007e-13, -0.07531750947237015, 0.02244999073445797, 0.10157779604196548, -2.0021247109980322e-05, -1.2625414491131081e-26, 0.04507344961166382, 0.0008270026301033795, -2.024372952291742e-05, 3.3482324985484313e-12, 5.65852531497768e-10, 5.441220252144774e-10, 0.059271253645420074, 0.011693224310874939, -0.011976861394941807, 0.15306614339351654], [0.11547338962554932, -1.3288299198639767e-17, -4.0222632317469824e-23, 0.08960895985364914, 1.4970540842580873e-29, 8.031303892545012e-23, -1.799286783942949e-18, -3.011831267940579e-06, 8.283236107234534e-18, 3.0828354624645726e-07, 7.161954143448858e-26, -3.4538670661277138e-06, 2.994284991492621e-19, -5.391484650462442e-18, 1.3226469102212653e-18, -4.251533525234663e-08, -7.202403602661648e-25, 3.88971375607147e-20, -1.2043718166308026e-26, 0.11860411614179611, 0.13645802438259125, 5.984925043128013e-28, -1.071171166162038e-16, -4.7319712592752694e-08, 0.023511098697781563, -1.5650801543642956e-08, -4.305590987782704e-25, -1.5551328260698938e-06, 2.855584032262732e-26, -0.05755849927663803, 0.044373393058776855, 0.11656444519758224, 0.07058566808700562], [-5.236067135427902e-10, -7.956840951429373e-20, -2.1841497499508478e-08, -1.1313210685135157e-18, 0.1388208270072937, 0.024856485426425934, 0.07249590009450912, 2.788617445129246e-26, 6.307987860054709e-06, -8.344654134351259e-11, 1.1562565305212047e-07, 6.760526281793783e-29, 9.84352599431304e-10, -2.1993626830862922e-07, -1.799179506889307e-15, -9.248267620343708e-24, 3.56257956468653e-09, 9.377961873724416e-08, 0.11656215041875839, -3.1972880385102053e-19, -1.5272870967919516e-08, 1.017067347675038e-06, -2.974851440740167e-07, 5.454880714965966e-26, -7.519311650484662e-18, 1.804312752731867e-21, -5.457430951594233e-09, -4.026269382968057e-23, -4.156948392602238e-25, 0.08029720187187195, 0.07583468407392502, -0.00770592549815774, -0.003282568184658885], [-0.022889448329806328, 6.074549196988244e-10, 2.347550065451287e-08, -0.07540705800056458, 0.09986839443445206, -1.0292568983638657e-25, -1.429490704831243e-24, -1.177336489060769e-16, 3.0946398940168034e-27, -3.078214831475634e-06, -9.59564476943342e-06, -8.769006143438673e-08, 1.872182262464683e-25, 2.650332593634331e-26, 3.3154223405434614e-22, 8.454034660710562e-20, -2.3449979735801207e-09, -1.0327317073918478e-25, -1.5334653653553687e-05, -2.2119964341982268e-05, 0.07657331973314285, -1.0846805892352703e-23, 1.9181010429747403e-05, 7.88364600778063e-26, 6.716901327910866e-24, -6.607163149929818e-10, -3.3583322789354497e-09, -1.8053773489224553e-22, 1.0946850810074643e-23, 0.09519126266241074, -0.08747074007987976, 0.09802054613828659, 0.09108074754476547], [0.11913640052080154, 6.216223933141573e-27, -1.2565201791986097e-19, -0.15419068932533264, -0.09655696898698807, 0.13829374313354492, -0.04421614855527878, 0.13122527301311493, -1.956775186329196e-08, 1.0135472881042132e-26, 1.2358161896784101e-17, -2.1284654458525256e-24, -1.8547207646978577e-26, 5.560087112943535e-12, 1.1273464106675846e-10, -6.218019380561856e-23, 1.6819824747971737e-25, -2.3557953509329292e-26, -0.04216242954134941, -0.08145731687545776, 0.11085762083530426, -1.9834479303426633e-07, -6.061279833602384e-08, 0.014675089158117771, -0.0012809733161702752, 3.709109855313027e-20, 1.6431183450389122e-15, 3.346552546190651e-08, 7.352283781791868e-10, 0.008863423019647598, 0.07572051882743835, 0.04531121626496315, 0.16055592894554138], [-0.003635647241026163, 3.655447353178959e-19, 2.077431560110199e-08, -0.07132840901613235, -0.07917775958776474, 0.09399297833442688, -0.055200785398483276, -0.040638864040374756, -6.826346155008878e-09, 2.623178474436827e-08, -5.456785074494976e-26, 1.0715822895690508e-08, 2.650267116877103e-09, 1.2220866540957331e-09, -6.115248281715613e-13, -1.5923328949133009e-24, 2.004126895703437e-18, -6.526067591898398e-24, 0.051011212170124054, -0.042831700295209885, 0.09196685254573822, -1.0335174675498583e-27, 2.888507563920789e-28, -0.009915328584611416, -0.020638426765799522, 7.746083014088171e-28, -2.123117369656467e-21, -1.5073806601143654e-17, 2.984714253311441e-19, 0.08064845204353333, -0.061922337859869, -0.10839445143938065, -0.06083008646965027], [0.08022177964448929, -2.0082175922198076e-09, 1.0823669960302595e-08, 0.09650756418704987, 6.904472256333249e-23, -1.505525005995878e-06, 5.69589317084404e-16, -4.5128663259674795e-06, -2.5521446914611373e-24, 1.0100041462901554e-12, 8.669326541366207e-12, 1.4813999804630384e-08, -1.2614681248224833e-20, 4.45407294759944e-14, -3.8438880550772936e-11, -9.684871656645555e-06, -1.3928882754251857e-17, -7.344016466959147e-06, 0.04576420038938522, 0.15165667235851288, -8.054739715629584e-20, 1.0685592997106141e-06, -9.183532512224701e-08, 7.398119376949399e-26, -4.779658269171705e-08, 2.4235278672790628e-08, -1.7204427778500987e-21, 1.879096430457139e-06, -1.2444896502206149e-10, 0.07492875307798386, -0.043322257697582245, 0.04459197819232941, 0.07884024828672409], [0.046316154301166534, 6.372010557598221e-21, 6.396455970233549e-25, 0.10560022294521332, -1.2277549010187746e-17, 0.11845327913761139, -2.194077950434803e-07, -9.580479824498527e-24, -4.5722204517210696e-23, 3.8746262296098754e-26, -1.2223118103056414e-23, 9.75085694154311e-14, 3.5557487620963e-08, -6.870735544921839e-17, -2.712083890799022e-08, 5.014914872258913e-11, -6.852657165576204e-31, -3.78667097677976e-09, -6.092383273426094e-07, 2.5765594525832287e-15, -4.41517244498786e-24, 7.660320022750966e-08, -7.140121827120538e-10, -5.797543849439535e-07, -9.46532818888717e-22, -6.256582550090746e-25, -7.174726536131105e-22, 8.30355073588862e-09, -4.126950125103959e-20, 0.186497300863266, -0.0993158221244812, 0.2008075714111328, 0.0411854051053524], [0.10195305943489075, 1.3935475383733905e-17, -3.781174562029967e-26, -1.404148354231625e-16, -3.496398317472708e-27, -4.617754711944144e-06, -8.469851258751371e-20, -4.844652058028662e-16, 2.902507967206766e-27, 8.380688775232923e-27, -2.0047560814805402e-24, 3.512024057732038e-20, 5.258863324641485e-25, 1.568074493430697e-20, 1.1087616068328199e-11, -1.8536434765241653e-26, 1.9654570083421103e-28, -6.121832484495826e-06, -1.101710484125955e-18, 4.9259675449775386e-08, 7.384761602224899e-08, 1.534106713356087e-21, 2.432777939127416e-15, 3.8334857777044817e-07, -2.2587367709547834e-07, -3.7634508450493534e-27, -1.4342850818138686e-07, 1.948783953553708e-26, 6.924350373083143e-07, 0.09537545591592789, -0.033653054386377335, 0.14934729039669037, -0.013145235367119312], [-6.21597987929902e-26, 6.873919357929677e-21, -3.575363352633602e-24, 0.05390089005231857, 2.4008430583727543e-21, -3.775498153149078e-24, 4.666497317111646e-25, -2.32551581073534e-13, -2.848510779981397e-23, 5.7075240122928e-21, -2.5066664338742563e-28, 2.3046831110207222e-10, 9.297191354562528e-07, 2.5225689156178174e-24, -1.498212078042691e-22, 6.34110410715165e-16, 4.264440536805303e-11, -2.0105553750703326e-20, -2.4340056370419916e-06, -2.6591054741612073e-27, 9.886766608041324e-26, -1.3592681114005245e-07, 2.6432752837388527e-24, 0.053000904619693756, 0.035747699439525604, 2.916883752774054e-22, 4.230522790749092e-06, -4.557943708688138e-26, 2.39281500395605e-21, 0.13459432125091553, -0.05198686942458153, -0.018279308453202248, 0.17835721373558044], [-4.667066377805895e-07, 3.555878791416944e-08, 1.2736049921972394e-26, 0.09326549619436264, -1.5169624703048612e-06, -1.6288757251459174e-05, -7.657845149327626e-23, -2.405284305062594e-10, -6.368855338223511e-06, 3.904945515387226e-06, 9.514832519406618e-28, -5.355371968107647e-07, 8.433570656052325e-06, -2.2298267752100523e-25, -2.3130340054148972e-26, 5.024240934403679e-08, 5.211486927123756e-26, 3.2347083646406545e-23, -1.2810353906128613e-12, -2.1910355218543195e-20, 1.0757308833794474e-23, 1.3209909411671106e-05, -3.1248070797573746e-10, -6.380543028610386e-23, -6.668683486978202e-25, 4.5468624421118875e-07, -3.1033163594429425e-08, -3.352785988658285e-30, -6.983233102886288e-09, -0.03457414358854294, 0.0024439003318548203, -0.01208808645606041, 0.01769363507628441], [-4.325303309959949e-11, 1.96425432363867e-07, -5.969478595787822e-25, -4.486120819866401e-25, 1.3871976037272421e-25, -7.137183541246369e-25, 0.13039511442184448, 1.7146250706690567e-24, -1.5842717225380737e-24, -4.537952305594395e-11, 1.2684640837701266e-10, -5.317988325259648e-06, 5.929683410954567e-09, -6.019288910229855e-23, 1.3143819366234766e-08, -7.02016222930979e-08, -4.9259961577423047e-29, 2.506461704854246e-11, -7.194559860073422e-25, 0.18070772290229797, 2.2176290554304726e-20, 5.8069346664524346e-08, -1.5045170442817835e-08, 0.023064281791448593, -1.26019103845465e-05, 2.877858259478746e-25, 9.962273703594915e-22, -2.2222451472302812e-13, -8.861600415694216e-28, 0.016774358227849007, -0.02670951560139656, -0.018006056547164917, -0.0231209397315979]], "embedding.bias": [-0.1370265781879425, -3.94199958009267e-07, -0.08235477656126022, 0.10059619694948196, -0.007225429639220238, 0.054552529007196426, 0.05189947038888931, 0.14835721254348755, -0.06581006199121475, -0.011787902563810349, -0.010140346363186836, 0.11097180843353271, -0.15481193363666534, 0.13579048216342926, 0.02376730740070343, 0.08522240072488785, -0.023144466802477837, -0.09989865869283676, 0.09754244238138199, -0.06653499603271484, -0.008984828367829323, -0.1447572112083435, -0.09443242847919464, 0.12018094956874847, 0.10561414808034897, -0.05946334823966026, -0.005833559203892946, 0.0718158408999443, -0.07026205211877823, -0.09935595840215683, 0.05307185649871826, 0.13732831180095673, -0.12437576055526733, 0.13605687022209167, 0.05293247103691101, -0.10625819116830826, -6.692717306577833e-06, 0.14124229550361633, -0.13594676554203033, -0.16179819405078888, -0.040159665048122406, -0.010192309506237507, 0.13368543982505798, -0.006512447725981474, 0.10420828312635422, 0.008781781420111656, -0.06178731098771095, -0.03160608187317848, 0.06663073599338531, 0.16655337810516357, 0.12142746150493622, 0.1354864090681076, 0.02560560032725334, -0.017149293795228004, -0.0918295606970787, -0.1007610484957695, -0.0734756663441658, -0.09694449603557587, -0.10780610144138336, -0.009288957342505455, 0.18624958395957947, 0.12387510389089584, 0.012319636531174183, 0.03976479172706604, -0.02277299389243126, -0.036771055310964584, 0.12224745005369186, 0.1966353803873062, -0.007420220412313938, -0.00990614015609026, 0.10082923620939255, -0.1275966316461563, 0.053025368601083755, 0.07587135583162308, -0.11841491609811783, -0.14601017534732819, 0.09151321649551392, -0.014638463966548443, 0.14172106981277466, -0.00986760575324297, -0.09307819604873657, -0.008079302497208118, -0.029278317466378212, 0.09497541189193726, 0.06788720935583115, -0.14755788445472717, -0.16045035421848297, -0.04157876968383789, 0.0917186364531517, 0.14496415853500366, -0.026115674525499344, -0.045665912330150604, -0.15890716016292572, -0.053034182637929916, -0.11971038579940796, -0.013616424053907394], "gnn_layers.0.w_self.weight": [[0.02293648198246956, -2.1447712069264197e-26, -0.026502510532736778, 0.051969852298498154, -0.0027679926715791225, -0.049846868962049484, -0.02546755224466324, 0.002123565413057804, 0.002160942181944847, 0.031158391386270523, 0.03556862100958824, -0.008924013003706932, 0.00011875777272507548, -0.05889357998967171, -0.05958858132362366, -0.012254203669726849, 0.06817466020584106, 0.021090904250741005, 0.0041230241768062115, 0.013112442567944527, -0.0007070503779686987, -0.000639699399471283, -0.0004627867601811886, -0.06039660796523094, -0.005088905803859234, -0.0007441187044605613, 0.011386501602828503, -0.06357904523611069, -0.022248469293117523, -0.009355004876852036, 0.05905422195792198, 0.07526340335607529, 0.0012378626270219684, 0.04112520441412926, -0.030662793666124344, 0.014623564667999744, -1.4109193238537391e-16, -0.081371009349823, -0.016337301582098007, -0.001754185650497675, 4.041986155394475e-21, 0.06764651089906693, -0.036471836268901825, 0.0752740129828453, -0.005285005550831556, 0.03883783146739006, 0.02349279820919037, 0.029549073427915573, -0.022451775148510933, 0.0658445656299591, -0.021946655586361885, 0.03760167956352234, 0.0331861712038517, 0.0056706382893025875, 0.0057968152686953545, 0.00693594291806221, -0.01597670465707779, -0.011523068882524967, -0.012669066898524761, 0.01991872303187847, -0.08939260989427567, 0.010590660385787487, -0.005273007787764072, -0.03368225321173668, 0.017697986215353012, -0.005366785917431116, -0.008023018948733807, -0.07513964921236038, -0.021139133721590042, 1.1102443409072293e-07, -0.07107935100793839, 0.015882637351751328, 0.017535971477627754, -0.021209057420492172, -0.0233731921762228, 0.0010801383759826422, -0.044603534042835236, 0.03597337007522583, -0.07999278604984283, 0.013664927333593369, 0.0011427314020693302, 0.009917215444147587, -0.009087459184229374, 0.06824443489313126, 0.05143047496676445, 0.009914587251842022, -0.008395573124289513, -0.013818984851241112, 0.0012410067720338702, -0.049401551485061646, -0.05133223533630371, 0.028039978817105293, -0.0002908238675445318, -0.003525342093780637, -6.98661278875079e-06, -0.007020534016191959], [0.04176483675837517, -1.1039682622920877e-12, -0.08281853795051575, -0.024900143966078758, -0.008056211285293102, 0.008017915301024914, -0.04283231124281883, 0.08053227514028549, 0.06324847042560577, -0.08060285449028015, -0.09055308997631073, -0.08295838534832001, 0.0046674394980072975, -0.015741391107439995, 0.08632747828960419, -0.015000991523265839, 0.009562528692185879, 0.06420686095952988, 0.05265331640839577, -0.037759583443403244, 0.012109423987567425, -0.010302882641553879, -0.009726538322865963, -0.034605685621500015, -0.043351445347070694, -0.012073743157088757, -0.03822143375873566, -0.03180520981550217, -0.05842721834778786, -0.05804906785488129, 0.08458054065704346, -0.05040896311402321, -0.045602668076753616, 0.048792436718940735, 0.05635320395231247, 0.06888878345489502, 3.501336546294863e-28, 0.0248350128531456, -0.004792910069227219, 0.0313335619866848, 0.0009110156679525971, 0.0914212241768837, 0.047024503350257874, -0.0228648092597723, -0.05547133460640907, 0.04436961188912392, -0.04930112883448601, 0.013489317148923874, -0.026638446375727654, 0.005028856918215752, 0.03969945013523102, -0.0820072740316391, -0.05743590369820595, -0.002238396555185318, -0.0837387666106224, 0.01451288815587759, -0.06119078770279884, -0.03193173557519913, 0.01698949933052063, -0.0268094539642334, -0.06904514878988266, 0.0310787595808506, 0.0724337249994278, -0.022923659533262253, -0.09199780225753784, 0.04708924517035484, 0.056999433785676956, -0.061124835163354874, 0.025388849899172783, -8.23746722744545e-06, 0.06875665485858917, 0.018873628228902817, -0.11798352748155594, 0.031323980540037155, -0.07769589871168137, -0.03674336522817612, -0.11436404287815094, -0.06936115771532059, 0.08529752492904663, 0.02263214997947216, -0.05801016092300415, -0.06043315678834915, 0.04502882808446884, 0.02710914984345436, -0.06952239573001862, -0.015842996537685394, 0.06692248582839966, 0.014863337390124798, -0.03532995283603668, 0.07159557193517685, -0.09338059276342392, -0.08648108690977097, -0.08454166352748871, -0.042025092989206314, -0.013456568121910095, -0.051116544753313065], [0.1065407320857048, -1.0194297714891518e-26, 0.04797464609146118, 0.07932435721158981, 0.011138777248561382, -0.043671827763319016, 0.032412122935056686, -0.05548162758350372, 0.09223372489213943, 0.08956591784954071, 0.16713550686836243, -0.008160713128745556, 0.10764360427856445, 0.03863638639450073, 0.034162964671850204, -0.02607380598783493, 0.20366190373897552, 0.16501031816005707, -0.024514958262443542, 0.059037260711193085, 0.11273109912872314, 0.0814281776547432, -0.0036886923480778933, -0.030922483652830124, 0.024008337408304214, 0.05415777862071991, 0.07613087445497513, -0.032706111669540405, 0.1407606601715088, 0.06355364620685577, -0.037113260477781296, 0.09798149764537811, 0.052533794194459915, 0.09922487288713455, 0.051061373203992844, 0.09900512546300888, -8.808490008582821e-28, -0.0511564165353775, 0.06645842641592026, 0.010677507147192955, 2.1319526117949423e-21, 0.12862053513526917, 0.07012908160686493, 0.1330365389585495, 0.024990003556013107, 0.10764759033918381, 0.0902194008231163, 0.13543401658535004, -0.015047673135995865, 0.05692976340651512, -0.09339606761932373, -0.008463157340884209, 0.003973342943936586, 0.027287129312753677, 0.08602859079837799, 0.14087557792663574, 0.04822349175810814, 0.07166991382837296, 0.07719173282384872, 0.18849126994609833, -0.015059133991599083, -0.05681202933192253, 0.030754661187529564, 0.03931409493088722, 0.15789376199245453, 0.049334753304719925, 0.0794423371553421, -0.08157812058925629, 0.02816811390221119, 6.743348058080301e-05, -0.021016305312514305, 0.08075837045907974, 0.06565575301647186, -0.007140753790736198, 0.060889579355716705, 0.09807397425174713, -0.08257825672626495, 0.1322897970676422, -0.0716988742351532, 0.06377161294221878, 0.04219277575612068, 0.10324141383171082, 0.09988246858119965, 0.03053538128733635, 0.010666139423847198, 0.15084777772426605, 0.09464996308088303, 0.09807050228118896, -0.002417431678622961, -0.07355748862028122, 0.0795024111866951, 0.0598362572491169, 0.07659759372472763, 0.17980624735355377, 9.593729919288307e-05, 0.0642852783203125], [-0.001730860210955143, -1.7524577320015765e-17, -0.08113167434930801, 0.038240619003772736, -0.0015390460612252355, -0.0062716808170080185, -0.02957283891737461, -0.0659739226102829, -0.057616401463747025, -0.05162256956100464, 0.04783829301595688, 0.07146132737398148, 0.011704247444868088, -0.006346985697746277, 0.011477289721369743, -0.03402942791581154, 0.03960581496357918, -0.012928164564073086, -0.018152594566345215, 0.06733458489179611, -0.023288002237677574, -0.06451461464166641, -0.004114351700991392, 0.0612112358212471, 0.04853153973817825, 0.003609778592363, -0.04586908966302872, -0.02374248020350933, -0.061685215681791306, 0.08056824654340744, 0.08360605686903, 0.01896052062511444, 0.07079702615737915, -0.03174027428030968, 0.01652250811457634, -0.05124340206384659, 1.3451771263503926e-16, 0.02055494487285614, 0.05401729792356491, 0.004985441919416189, 9.660967771196738e-05, 0.015022976323962212, 0.08124800026416779, 0.004905119072645903, -0.09732148796319962, -0.09878674894571304, -0.03412005677819252, -0.05829843878746033, -0.010867266915738583, -0.0244436115026474, -0.020325765013694763, 0.004974508658051491, -0.00644430099055171, 0.08278534561395645, 0.03567522019147873, -0.025874808430671692, -0.0018274913309141994, -0.032285790890455246, 0.03655155748128891, 0.02093103528022766, 0.020699290558695793, 0.08116751909255981, -0.10043060034513474, -0.06773456931114197, 0.08659757673740387, 0.03780175745487213, 0.08978628367185593, -0.09253876656293869, 0.07473188638687134, 3.951374765165383e-06, 0.04995153844356537, -0.0779278352856636, -0.09865497797727585, -0.02712881751358509, 0.07248540967702866, -0.07524599879980087, 0.021502787247300148, -0.009120026603341103, 0.05136960744857788, 0.07558230310678482, 0.06450740247964859, -0.022393744438886642, 0.009930566884577274, -0.09522238373756409, 0.040554478764534, -0.07470685988664627, 0.00013899157056584954, 0.040372930467128754, -0.016549400985240936, 0.08328645676374435, -0.08298440277576447, 0.050225239247083664, 0.036607686430215836, -0.07575011253356934, 0.01596965454518795, -0.012813428416848183], [0.005268225912004709, -1.3918248520296876e-17, -0.002850693417713046, 0.05697522312402725, -0.002237951150164008, -0.0272175595164299, -0.015262960456311703, 0.01135158259421587, -0.008305933326482773, -0.014929560013115406, 0.04038292542099953, -0.07013759762048721, 0.00036081537837162614, -0.018955808132886887, 0.03938722237944603, 0.051740653812885284, -0.04290192574262619, -0.02003108337521553, 0.009558919817209244, 0.01992945559322834, 0.00956482533365488, -0.005933545064181089, -0.000201482413103804, 0.01305356528609991, -0.05190318450331688, 0.0026312724221497774, -0.018905851989984512, -0.05461489409208298, 0.05463242158293724, -0.007787160109728575, -0.0500241294503212, 0.05306300148367882, 0.008342103101313114, -0.06629998981952667, 0.006158494856208563, 0.0220874585211277, 1.773381787753867e-19, -0.038661450147628784, -0.007753587793558836, -0.0013934362214058638, 3.522262679634369e-21, -0.06403767317533493, -0.021879585459828377, 0.06946156173944473, 0.0415794774889946, -0.02844209037721157, 0.020543167367577553, -0.002184065291658044, -0.029554467648267746, 0.0023774101864546537, -0.0687519907951355, -0.06990179419517517, -0.04905898869037628, 0.01777872070670128, -0.06064574420452118, 0.0024693687446415424, 6.032452074578032e-05, -0.020899055525660515, -0.005154162645339966, 0.011336593888700008, -0.05355178192257881, -0.026414165273308754, 0.015473751351237297, -0.01859608106315136, -0.026812799274921417, 0.03511534258723259, -0.0031727629248052835, -0.088715560734272, 0.010183767415583134, 6.137382229098876e-07, -0.019763698801398277, 0.013779756613075733, 0.05329312011599541, -0.03911357372999191, -0.01671719364821911, 0.0019432144472375512, 0.013093066401779652, 0.05109388008713722, -0.07167183607816696, 0.003842158243060112, 0.00038157158996909857, -0.011031604371964931, -0.004134449176490307, -0.044400665909051895, 0.04971456155180931, 0.008164849132299423, -0.004867232404649258, -0.011200418695807457, -0.0070131877437233925, 0.021105635911226273, 0.021248387172818184, 0.020928291603922844, 0.008459744043648243, 0.018680205568671227, -5.337676338967867e-05, -0.01691378839313984], [0.009316938929259777, -6.510072979505717e-22, -0.08912605047225952, -0.14192594587802887, -0.001112217316403985, -0.102165088057518, -0.008662662468850613, 0.06258013844490051, 0.06915473192930222, 0.07980892062187195, -0.07051462680101395, 0.03501249849796295, 0.0030060673598200083, 0.011249883100390434, 0.026702510192990303, 0.03323555737733841, -0.029787439852952957, -0.013023861683905125, 0.004820607602596283, -0.02976251021027565, -0.017365213483572006, 0.03150644525885582, -0.0019395363051444292, 0.022902799770236015, -0.02377646043896675, -0.018178561702370644, -0.05905483663082123, -0.07967203855514526, -0.00424875458702445, 0.0315447635948658, -0.06398839503526688, -0.016283532604575157, -0.02359904535114765, 0.06242816150188446, 0.06357543915510178, 0.07145177572965622, -4.635633445794931e-22, 0.05908404663205147, -0.06313271820545197, 0.0196148082613945, -2.420420628368447e-07, 0.048191800713539124, -0.0805429071187973, -0.06929837912321091, -0.0966184139251709, -0.05154726281762123, -0.017389534041285515, 0.06884890794754028, 0.031441930681467056, 0.01892666518688202, -0.09999696165323257, 0.07563457638025284, -0.03872768580913544, -0.024230757728219032, 0.069321408867836, 0.054995305836200714, -0.07038005441427231, 0.01689487136900425, 0.07557971775531769, 0.039725594222545624, -0.11487223953008652, -0.11351072043180466, 0.03716645389795303, -0.05928286537528038, 0.06386806815862656, -0.0947464108467102, 0.026181180030107498, -0.032707132399082184, -0.0775383710861206, -2.4072783162409905e-06, -0.04940466955304146, 0.04935785382986069, 0.029115283861756325, -0.003557726042345166, 0.01903814636170864, 0.027211643755435944, -0.020459581166505814, -0.04734352231025696, -0.11008207499980927, -0.024379681795835495, -0.034319739788770676, 0.018671680241823196, 0.022772783413529396, 0.0036622253246605396, 0.0413222573697567, 0.038459524512290955, 0.004536839667707682, -0.07936497032642365, 0.025922581553459167, -0.02428332157433033, -0.04838838055729866, -0.021474162116646767, -0.05293474718928337, -0.07971726357936859, 0.0003206151886843145, -0.06143662706017494], [0.021932533010840416, -3.913961499831238e-27, 0.0492941178381443, 0.05860670655965805, -0.0008880911045707762, -0.04871600493788719, 0.0544637031853199, 0.004394452553242445, 0.003767439629882574, 0.0210407841950655, 0.029356442391872406, -0.006756169721484184, 0.00013176453649066389, 0.06507427990436554, -0.04358465224504471, -0.061936262995004654, -0.013682502321898937, 0.04033961519598961, -0.06028345227241516, 0.0014350750716403127, -0.005761267151683569, 0.009936136193573475, 1.0682345418899786e-05, 0.008299632929265499, -0.04834003373980522, 0.00034201255766674876, 0.007133617997169495, -0.06392092257738113, -0.06413087993860245, -0.0032116766087710857, -0.01970723830163479, 0.02334236539900303, 0.001765429973602295, -0.021892482414841652, -0.020787445828318596, 0.026954879984259605, 1.5752965104236696e-18, -0.06581632047891617, -0.012404735200107098, -0.0017503226408734918, 4.1725662278294174e-20, -0.012550240382552147, 0.030109087005257607, -0.0043641687370836735, -0.02970097027719021, -0.00672473618760705, -0.013775400817394257, 0.0066151185892522335, -0.045809898525476456, 0.03068847395479679, -0.05949535220861435, -0.06889902800321579, 0.01763460598886013, -0.015550734475255013, 0.001969885779544711, -0.0037911932449787855, -0.0031436514109373093, -0.0014049182645976543, 0.01921231858432293, 0.01926448754966259, -0.051113177090883255, -0.08872666209936142, -0.004791575018316507, 0.04911962151527405, -0.01649494282901287, 0.0338357575237751, -0.0012003141455352306, -0.07533623278141022, 0.020829517394304276, 1.5168652680586092e-06, -0.050375234335660934, -0.00270784180611372, 0.035578664392232895, 0.04798462614417076, -0.009521047584712505, 0.001923763076774776, -0.03549332916736603, 0.053148385137319565, -0.04838833585381508, 0.013433909974992275, -0.0012783388374373317, 0.024401966482400894, -0.02697138302028179, -0.039104096591472626, -0.027254508808255196, 0.014478303492069244, -0.004819660913199186, -0.014357971958816051, -0.01944613642990589, 0.06636185944080353, 0.001981395296752453, -0.007672321982681751, 0.0010803325567394495, -0.03204955905675888, -1.8167933376389556e-05, 0.0009349650354124606], [0.05987214297056198, -6.170476705956449e-24, 0.020015349611639977, 0.041419342160224915, -0.0019680066034197807, -0.03905775025486946, -0.051013797521591187, -0.004138434771448374, 0.07075987011194229, 0.05735623463988304, 0.033568575978279114, -0.07292255014181137, -0.03197433799505234, 0.06019310653209686, -0.009351545944809914, 0.10082697868347168, 0.05811113119125366, -0.08472272753715515, 0.09159214794635773, -0.06752777099609375, -0.019202284514904022, 0.0338728167116642, -0.0030773677863180637, -0.009876170195639133, -0.04782826080918312, 0.015377594158053398, 0.03926421329379082, -0.09589993208646774, 0.059349142014980316, 0.025979146361351013, 0.027430027723312378, 0.012577727437019348, 0.015253677032887936, -0.09530912339687347, -0.07475527375936508, 0.0188393946737051, -2.125378864241989e-27, -0.03466232120990753, 0.007452752906829119, -0.040003202855587006, -6.463948370729866e-21, -0.039363861083984375, 0.0591532401740551, -0.07744810730218887, 0.021805282682180405, 0.013342831283807755, 0.017275022342801094, -0.05293413996696472, 0.03577436879277229, -0.04313803091645241, 0.0935133546590805, 0.03493897616863251, -0.025772737339138985, 0.06305642426013947, 0.03840212896466255, -0.06988169997930527, -0.012959939427673817, 0.010735329240560532, -0.036554284393787384, 0.0006193611770868301, 0.025671930983662605, -0.04487006366252899, 0.04491977021098137, -0.07940465956926346, -0.09497027844190598, -0.02981509268283844, -0.02351030893623829, 0.08945976197719574, -0.027087436988949776, -7.492290751542896e-05, 0.08028358221054077, -0.08013307303190231, 0.03679439425468445, 0.08268976211547852, 0.03017338365316391, 0.032477207481861115, 0.06273313611745834, 0.01991581916809082, 0.10166290402412415, 0.04133659973740578, 0.050950344651937485, -0.07478497922420502, -0.061352670192718506, 0.06619401276111603, -0.03814149275422096, -0.0075649055652320385, -0.0691792219877243, 0.00970191415399313, 0.03653433546423912, -0.09153502434492111, 0.0547405369579792, 0.05124582722783089, -0.00877152569591999, 0.002694477094337344, -0.040718499571084976, -0.006115574389696121], [-0.009091060608625412, -1.89085450483631e-21, -0.09284709393978119, 0.09491292387247086, -0.04742656648159027, 0.020702334120869637, -0.04353981837630272, -0.06942804902791977, 0.010250983759760857, 0.014862023293972015, 0.08846289664506912, -0.04471531882882118, -0.0005785633693449199, -0.07383353263139725, -0.03891122341156006, 0.09594348073005676, -0.000827979005407542, -0.01816808618605137, 0.003286015009507537, 0.03414233773946762, 0.08466258645057678, 0.018957192078232765, -0.005875557195395231, 0.0399722084403038, -0.02615218237042427, -0.04497118666768074, -0.08039713650941849, -0.05167098343372345, -0.024366702884435654, -0.01858753338456154, 0.12343525141477585, 0.09252914041280746, 0.03699272871017456, 0.06128394976258278, 0.08851856738328934, -0.07334945350885391, -7.887179636249858e-23, -0.03614724054932594, -0.044664494693279266, 0.005085844546556473, -1.5459569440089936e-20, -0.0066324505023658276, 0.09556898474693298, -0.0035270375665277243, -0.04663098603487015, 0.06401475518941879, 0.07083221524953842, 0.07400867342948914, -0.04671239107847214, 0.08328951895236969, 0.0923001617193222, -0.002202570205554366, 0.01229251641780138, 0.016374124214053154, -0.03799181059002876, 0.05530760809779167, -0.04764305800199509, -0.11321145296096802, 0.0045116436667740345, 0.0590166337788105, 0.11397113651037216, 0.07233741879463196, -0.08146052062511444, -0.007396976463496685, 0.04138612747192383, 0.06352236866950989, 0.07533494383096695, 0.05289670452475548, -0.025896377861499786, 2.7314992621541023e-05, 0.08784100413322449, -0.01081519853323698, 0.14113910496234894, 0.0813312754034996, -0.02606324851512909, 0.05964087322354317, 0.003920430783182383, 0.04669923707842827, -0.07623039186000824, -0.04940531775355339, -0.00019614888879004866, -0.058383457362651825, 0.01528165303170681, -0.02640414796769619, 0.016893213614821434, 0.008933081291615963, -0.041345689445734024, 0.038330115377902985, 0.08077464997768402, 0.0739341750741005, -0.008977064862847328, 0.07858500629663467, 0.0433366596698761, 0.056293945759534836, -2.2467707822215743e-05, -0.08504603058099747], [-0.05074919015169144, 5.5584472556802315e-24, 0.0340917743742466, 0.09866669028997421, -0.00037448242073878646, 0.060122694820165634, 0.0697576180100441, -0.004790728446096182, 0.06763733178377151, 0.0071062128990888596, 0.00716167688369751, 0.07909464836120605, 0.05097630247473717, -0.02469768561422825, 0.0054010082967579365, 0.006618252955377102, -0.024406900629401207, -0.0008137838449329138, 0.04089241474866867, -0.002160566160455346, -0.010431393049657345, 0.039295874536037445, 0.0021692581940442324, -0.08537174016237259, -0.035332825034856796, -0.014911211095750332, 0.05027753859758377, 0.02097121626138687, 0.02010355331003666, -0.00046880581066943705, 0.08913718909025192, -0.04145451635122299, -0.013478301465511322, 0.0716509222984314, 0.0016003648051992059, 0.023876430466771126, -1.9662105907852313e-18, -0.09535393863916397, -0.04070160910487175, 0.020703237503767014, 3.0378610972547904e-05, 0.005631116218864918, -0.0009472881210967898, 0.0798666775226593, -0.05540958791971207, 0.07975014299154282, 0.03967013582587242, -0.07051892578601837, -0.043347932398319244, 0.07624703645706177, -0.0806179940700531, 0.029890190809965134, -0.044032953679561615, 0.03345136344432831, -0.04832790791988373, 0.03242155909538269, -0.028943119570612907, -0.031857311725616455, 0.06799023598432541, -0.010491604916751385, 0.013081735000014305, 0.03646261245012283, -0.1033201664686203, 0.046252891421318054, 0.029421502724289894, -0.022808171808719635, 0.08601449429988861, -0.017899777740240097, 0.08073298633098602, 3.052582087548217e-06, -0.04965784028172493, 0.04989749193191528, -0.061982303857803345, -0.02240189164876938, 0.01893162541091442, 0.015980975702404976, -0.07884269952774048, 0.07550141215324402, -0.025333473458886147, 0.07901865243911743, 0.06345849484205246, 0.04706372320652008, 0.06753768771886826, -0.08092664182186127, 0.06501637399196625, -0.032594453543424606, -0.00997224822640419, 0.06136920303106308, -0.0071784732863307, 0.040551431477069855, 0.028701281175017357, -0.05515458062291145, -0.07878579944372177, 0.05128364637494087, -0.006771169602870941, -0.0030079951975494623], [-0.04610123112797737, -2.8293124989285436e-26, 0.09473513811826706, 0.05761146917939186, -0.003049234626814723, -0.07803888618946075, -0.039908722043037415, 0.025737715885043144, 0.06527222692966461, 0.05065033584833145, -0.008646282367408276, -0.07725892215967178, -0.01359211653470993, 0.06174616888165474, 0.07953257858753204, -0.0535910539329052, 0.07069717347621918, -0.041207361966371536, -0.07272413372993469, -0.011646508239209652, 0.11439298093318939, -0.014984800480306149, 0.0035461909137666225, -0.017824774608016014, 0.03297150507569313, -0.04287532716989517, 0.03430049866437912, -0.08034991472959518, 0.053865257650613785, 0.04974881932139397, -0.011998211033642292, -0.03798774629831314, 0.06674738973379135, 0.08859924972057343, 0.07528306543827057, 0.034803252667188644, 2.3728629067492596e-21, -0.08412935584783554, 0.05807868018746376, -0.017051782459020615, -3.851389962505891e-08, 0.014997713267803192, -0.05107685923576355, 0.02175321988761425, -0.08765511959791183, 0.08941268920898438, 0.05849546194076538, 0.05120433494448662, 0.01404519658535719, 0.09469001740217209, -0.01853983849287033, 0.08505377918481827, 0.08909715712070465, -0.04057915881276131, -0.08908464014530182, 0.003253311151638627, 0.08314210921525955, -0.06938757747411728, -0.00391779188066721, 0.0159688089042902, -0.020474860444664955, 0.04092011600732803, -0.010041474364697933, 0.09827719628810883, 0.0961093157529831, -0.04814431443810463, 0.08395566791296005, -0.010339350439608097, -0.03620006889104843, 1.9534163584467024e-06, 0.09060239791870117, -0.019735177978873253, 0.047005023807287216, -0.09466671943664551, 0.05912557989358902, -0.0020933966152369976, -0.04725578427314758, 0.08599890023469925, 0.060377608984708786, 0.022415732964873314, -0.03555050492286682, -0.0589914545416832, -0.04740181192755699, 0.06482861191034317, -0.009808671660721302, 0.04141635075211525, -0.020154867321252823, 0.010564538650214672, -0.06473954766988754, -0.04638285934925079, -0.06849272549152374, 0.04758173227310181, 0.0713762566447258, 0.07036082446575165, 0.04453977942466736, -0.046246711164712906], [0.03414297103881836, 3.5538908270061937e-22, 0.014585280790925026, 0.09033853560686111, 0.02616260014474392, -0.022326743230223656, 0.015060617588460445, 0.08388311415910721, 0.01918599009513855, 0.006597959902137518, 0.06056817248463631, -0.034495703876018524, 0.000933940289542079, 0.05708876624703407, -0.025293616577982903, -0.0191038828343153, 0.008694799616932869, 0.031865812838077545, 0.00016844387573655695, 0.02331645041704178, 0.05850191414356232, 0.044368840754032135, 0.014799810014665127, 0.11520645022392273, 0.08299654722213745, 0.02534843422472477, 0.049980420619249344, -0.002125433413311839, 0.023794427514076233, 0.04098203778266907, 0.006856451276689768, 0.018910996615886688, 0.01993471011519432, 0.09514320641756058, 0.06812424957752228, 0.04049506410956383, 1.1852956870892032e-16, -0.022150786593556404, 0.04333964362740517, 0.014740833081305027, -6.227872300221068e-19, 0.050958238542079926, -0.0431467741727829, 0.020729638636112213, -0.02818327583372593, 0.04237698018550873, 